<?xml version="1.0" encoding="UTF-8" standalone="yes"?>
<PMML xmlns="http://www.dmg.org/PMML-4_3" xmlns:data="http://jpmml.org/jpmml-model/InlineTable" version="4.3">
	<Header>
		<Application name="JPMML-LightGBM" version="1.2-SNAPSHOT"/>
		<Timestamp>2020-04-21T05:27:53Z</Timestamp>
	</Header>
	<DataDictionary>
		<DataField name="_target" optype="continuous" dataType="double"/>
		<DataField name="confirmed_10_ago" optype="continuous" dataType="double">
			<Interval closure="closedClosed" leftMargin="0.0" rightMargin="172348.0"/>
		</DataField>
		<DataField name="fatalities_10_ago" optype="continuous" dataType="double">
			<Interval closure="closedClosed" leftMargin="0.0" rightMargin="18849.0"/>
		</DataField>
		<DataField name="confirmed_3days" optype="continuous" dataType="double">
			<Interval closure="closedClosed" leftMargin="0.0" rightMargin="10824.333333333334"/>
		</DataField>
		<DataField name="fatalities_3days" optype="continuous" dataType="double">
			<Interval closure="closedClosed" leftMargin="0.0" rightMargin="1099.6666666666667"/>
		</DataField>
		<DataField name="since_1_cases" optype="continuous" dataType="double">
			<Interval closure="closedClosed" leftMargin="10.0" rightMargin="89.0"/>
		</DataField>
		<DataField name="since_4_cases" optype="continuous" dataType="double">
			<Interval closure="closedClosed" leftMargin="10.0" rightMargin="89.0"/>
		</DataField>
		<DataField name="since_16_cases" optype="continuous" dataType="double">
			<Interval closure="closedClosed" leftMargin="10.0" rightMargin="89.0"/>
		</DataField>
		<DataField name="since_64_cases" optype="continuous" dataType="double">
			<Interval closure="closedClosed" leftMargin="10.0" rightMargin="89.0"/>
		</DataField>
		<DataField name="since_4096_cases" optype="continuous" dataType="double">
			<Interval closure="closedClosed" leftMargin="10.0" rightMargin="81.0"/>
		</DataField>
		<DataField name="lat" optype="continuous" dataType="double">
			<Interval closure="closedClosed" leftMargin="-51.7963" rightMargin="71.7069"/>
		</DataField>
		<DataField name="lon" optype="continuous" dataType="double">
			<Interval closure="closedClosed" leftMargin="-157.4983" rightMargin="178.065"/>
		</DataField>
		<DataField name="Americas" optype="continuous" dataType="double">
			<Interval closure="closedClosed" leftMargin="0.0" rightMargin="1.0"/>
		</DataField>
		<DataField name="Asia" optype="continuous" dataType="double">
			<Interval closure="closedClosed" leftMargin="0.0" rightMargin="1.0"/>
		</DataField>
		<DataField name="Europe" optype="continuous" dataType="double">
			<Interval closure="closedClosed" leftMargin="0.0" rightMargin="1.0"/>
		</DataField>
		<DataField name="population" optype="continuous" dataType="double">
			<Interval closure="closedClosed" leftMargin="799.0" rightMargin="1.366417754E9"/>
		</DataField>
		<DataField name="area" optype="continuous" dataType="double">
			<Interval closure="closedClosed" leftMargin="0.0" rightMargin="1.7098246E7"/>
		</DataField>
		<DataField name="density" optype="continuous" dataType="double">
			<Interval closure="closedClosed" leftMargin="0.03" rightMargin="21496.67"/>
		</DataField>
	</DataDictionary>
	<MiningModel functionName="regression" algorithmName="LightGBM">
		<MiningSchema>
			<MiningField name="_target" usageType="target"/>
			<MiningField name="confirmed_10_ago" importance="2.0" invalidValueTreatment="asIs"/>
			<MiningField name="fatalities_10_ago" importance="38.0" invalidValueTreatment="asIs"/>
			<MiningField name="confirmed_3days" importance="253.0" invalidValueTreatment="asIs"/>
			<MiningField name="fatalities_3days" importance="244.0" invalidValueTreatment="asIs"/>
			<MiningField name="since_1_cases" importance="18.0" invalidValueTreatment="asIs"/>
			<MiningField name="since_4_cases" importance="27.0" invalidValueTreatment="asIs"/>
			<MiningField name="since_16_cases" importance="43.0" invalidValueTreatment="asIs"/>
			<MiningField name="since_64_cases" importance="7.0" invalidValueTreatment="asIs"/>
			<MiningField name="since_4096_cases" importance="2.0" invalidValueTreatment="asIs"/>
			<MiningField name="lat" importance="2.0" invalidValueTreatment="asIs"/>
			<MiningField name="lon" importance="94.0" invalidValueTreatment="asIs"/>
			<MiningField name="Americas" importance="11.0" invalidValueTreatment="asIs"/>
			<MiningField name="Asia" importance="5.0" invalidValueTreatment="asIs"/>
			<MiningField name="Europe" importance="1.0" invalidValueTreatment="asIs"/>
			<MiningField name="population" importance="45.0" invalidValueTreatment="asIs"/>
			<MiningField name="area" importance="3.0" invalidValueTreatment="asIs"/>
			<MiningField name="density" importance="5.0" invalidValueTreatment="asIs"/>
		</MiningSchema>
		<Segmentation multipleModelMethod="sum">
			<Segment id="1">
				<True/>
				<TreeModel functionName="regression" noTrueChildStrategy="returnLastPrediction">
					<MiningSchema>
						<MiningField name="confirmed_3days"/>
						<MiningField name="fatalities_3days"/>
					</MiningSchema>
					<Node score="0.7462990929800176">
						<True/>
						<Node score="0.7926216107627254">
							<SimplePredicate field="fatalities_3days" operator="greaterThan" value="0.8333333333333334"/>
							<Node score="0.8290036850180099">
								<SimplePredicate field="fatalities_3days" operator="greaterThan" value="8.833333333333334"/>
							</Node>
						</Node>
						<Node score="0.7606909994759751">
							<SimplePredicate field="confirmed_3days" operator="greaterThan" value="3.1666666666666674"/>
							<Node score="0.7758871583553651">
								<SimplePredicate field="confirmed_3days" operator="greaterThan" value="34.50000000000001"/>
							</Node>
						</Node>
					</Node>
				</TreeModel>
			</Segment>
			<Segment id="2">
				<True/>
				<TreeModel functionName="regression" noTrueChildStrategy="returnLastPrediction">
					<MiningSchema>
						<MiningField name="confirmed_3days"/>
						<MiningField name="fatalities_3days"/>
					</MiningSchema>
					<Node score="-0.008363475806311069">
						<True/>
						<Node score="0.03735688809753794">
							<SimplePredicate field="fatalities_3days" operator="greaterThan" value="0.8333333333333334"/>
							<Node score="0.07326610879977163">
								<SimplePredicate field="fatalities_3days" operator="greaterThan" value="8.833333333333334"/>
							</Node>
						</Node>
						<Node score="0.0044608780017367676">
							<SimplePredicate field="confirmed_3days" operator="greaterThan" value="3.1666666666666674"/>
							<Node score="0.016753782953851208">
								<SimplePredicate field="fatalities_3days" operator="greaterThan" value="1.0000000180025095E-35"/>
							</Node>
						</Node>
					</Node>
				</TreeModel>
			</Segment>
			<Segment id="3">
				<True/>
				<TreeModel functionName="regression" noTrueChildStrategy="returnLastPrediction">
					<MiningSchema>
						<MiningField name="confirmed_3days"/>
						<MiningField name="fatalities_3days"/>
					</MiningSchema>
					<Node score="-0.008254751263305542">
						<True/>
						<Node score="0.03687128714984094">
							<SimplePredicate field="fatalities_3days" operator="greaterThan" value="0.8333333333333334"/>
							<Node score="0.07231380089275319">
								<SimplePredicate field="fatalities_3days" operator="greaterThan" value="8.833333333333334"/>
							</Node>
						</Node>
						<Node score="0.0057378699215728446">
							<SimplePredicate field="confirmed_3days" operator="greaterThan" value="3.1666666666666674"/>
							<Node score="0.020693099568105368">
								<SimplePredicate field="confirmed_3days" operator="greaterThan" value="34.50000000000001"/>
							</Node>
						</Node>
					</Node>
				</TreeModel>
			</Segment>
			<Segment id="4">
				<True/>
				<TreeModel functionName="regression" noTrueChildStrategy="returnLastPrediction">
					<MiningSchema>
						<MiningField name="fatalities_10_ago"/>
						<MiningField name="confirmed_3days"/>
					</MiningSchema>
					<Node score="-0.008144669155032076">
						<True/>
						<Node score="0.02375642182639922">
							<SimplePredicate field="confirmed_3days" operator="greaterThan" value="37.16666666666668"/>
							<Node score="0.07147194510897681">
								<SimplePredicate field="confirmed_3days" operator="greaterThan" value="297.8333333333334"/>
							</Node>
							<Node score="0.04225231734937871">
								<SimplePredicate field="fatalities_10_ago" operator="greaterThan" value="8.500000000000002"/>
							</Node>
						</Node>
						<Node score="0.006908038890253569">
							<SimplePredicate field="confirmed_3days" operator="greaterThan" value="2.8333333333333335"/>
						</Node>
					</Node>
				</TreeModel>
			</Segment>
			<Segment id="5">
				<True/>
				<TreeModel functionName="regression" noTrueChildStrategy="returnLastPrediction">
					<MiningSchema>
						<MiningField name="confirmed_3days"/>
						<MiningField name="fatalities_3days"/>
					</MiningSchema>
					<Node score="-0.008043462907633558">
						<True/>
						<Node score="0.026459840527098592">
							<SimplePredicate field="fatalities_3days" operator="greaterThan" value="0.8333333333333334"/>
							<Node score="0.07282898680529741">
								<SimplePredicate field="fatalities_3days" operator="greaterThan" value="10.833333333333334"/>
							</Node>
							<Node score="0.04465858182000772">
								<SimplePredicate field="confirmed_3days" operator="greaterThan" value="68.83333333333336"/>
							</Node>
						</Node>
						<Node score="0.00821779871363103">
							<SimplePredicate field="confirmed_3days" operator="greaterThan" value="3.1666666666666674"/>
						</Node>
					</Node>
				</TreeModel>
			</Segment>
			<Segment id="6">
				<True/>
				<TreeModel functionName="regression" noTrueChildStrategy="returnLastPrediction">
					<MiningSchema>
						<MiningField name="confirmed_3days"/>
						<MiningField name="fatalities_3days"/>
						<MiningField name="lon"/>
					</MiningSchema>
					<Node score="-0.007938898561565707">
						<True/>
						<Node score="0.035477503250290955">
							<SimplePredicate field="fatalities_3days" operator="greaterThan" value="0.8333333333333334"/>
							<Node score="0.06961806449785841">
								<SimplePredicate field="fatalities_3days" operator="greaterThan" value="8.833333333333334"/>
							</Node>
						</Node>
						<Node score="0.013300508475430167">
							<SimplePredicate field="confirmed_3days" operator="greaterThan" value="3.1666666666666674"/>
							<Node score="0.001736134813731644">
								<SimplePredicate field="lon" operator="greaterThan" value="31.732950000000006"/>
							</Node>
						</Node>
					</Node>
				</TreeModel>
			</Segment>
			<Segment id="7">
				<True/>
				<TreeModel functionName="regression" noTrueChildStrategy="returnLastPrediction">
					<MiningSchema>
						<MiningField name="confirmed_3days"/>
						<MiningField name="fatalities_3days"/>
					</MiningSchema>
					<Node score="-0.007765770204620944">
						<True/>
						<Node score="0.02565239493863473">
							<SimplePredicate field="fatalities_3days" operator="greaterThan" value="0.8333333333333334"/>
							<Node score="0.07097750445611922">
								<SimplePredicate field="fatalities_3days" operator="greaterThan" value="10.833333333333334"/>
							</Node>
							<Node score="0.04357453609666301">
								<SimplePredicate field="confirmed_3days" operator="greaterThan" value="68.83333333333336"/>
							</Node>
						</Node>
						<Node score="0.008345168130096767">
							<SimplePredicate field="confirmed_3days" operator="greaterThan" value="3.5000000000000004"/>
						</Node>
					</Node>
				</TreeModel>
			</Segment>
			<Segment id="8">
				<True/>
				<TreeModel functionName="regression" noTrueChildStrategy="returnLastPrediction">
					<MiningSchema>
						<MiningField name="confirmed_3days"/>
						<MiningField name="fatalities_3days"/>
					</MiningSchema>
					<Node score="-0.007732998857196148">
						<True/>
						<Node score="0.016968450379356226">
							<SimplePredicate field="confirmed_3days" operator="greaterThan" value="37.16666666666668"/>
							<Node score="0.06815985078691603">
								<SimplePredicate field="fatalities_3days" operator="greaterThan" value="8.833333333333334"/>
							</Node>
							<Node score="0.0378403436727362">
								<SimplePredicate field="fatalities_3days" operator="greaterThan" value="0.5000000000000001"/>
							</Node>
						</Node>
						<Node score="0.006460069600538101">
							<SimplePredicate field="confirmed_3days" operator="greaterThan" value="2.8333333333333335"/>
						</Node>
					</Node>
				</TreeModel>
			</Segment>
			<Segment id="9">
				<True/>
				<TreeModel functionName="regression" noTrueChildStrategy="returnLastPrediction">
					<MiningSchema>
						<MiningField name="fatalities_10_ago"/>
						<MiningField name="confirmed_3days"/>
					</MiningSchema>
					<Node score="-0.007632470712586872">
						<True/>
						<Node score="0.022525586730347442">
							<SimplePredicate field="confirmed_3days" operator="greaterThan" value="37.16666666666668"/>
							<Node score="0.06784741716737983">
								<SimplePredicate field="confirmed_3days" operator="greaterThan" value="319.50000000000006"/>
							</Node>
							<Node score="0.03987518243102008">
								<SimplePredicate field="fatalities_10_ago" operator="greaterThan" value="8.500000000000002"/>
							</Node>
						</Node>
						<Node score="0.0063760915646998715">
							<SimplePredicate field="confirmed_3days" operator="greaterThan" value="2.8333333333333335"/>
						</Node>
					</Node>
				</TreeModel>
			</Segment>
			<Segment id="10">
				<True/>
				<TreeModel functionName="regression" noTrueChildStrategy="returnLastPrediction">
					<MiningSchema>
						<MiningField name="fatalities_3days"/>
						<MiningField name="since_16_cases"/>
						<MiningField name="lon"/>
					</MiningSchema>
					<Node score="-0.007643269987864302">
						<True/>
						<Node score="0.03518394086773225">
							<SimplePredicate field="fatalities_3days" operator="greaterThan" value="0.8333333333333334"/>
							<Node score="0.06958425220314572">
								<SimplePredicate field="fatalities_3days" operator="greaterThan" value="12.500000000000002"/>
							</Node>
						</Node>
						<Node score="0.010691414761316822">
							<SimplePredicate field="since_16_cases" operator="lessOrEqual" value="38.50000000000001"/>
							<Node score="-6.69161838173652E-4">
								<SimplePredicate field="lon" operator="greaterThan" value="38.4515"/>
							</Node>
						</Node>
					</Node>
				</TreeModel>
			</Segment>
			<Segment id="11">
				<True/>
				<TreeModel functionName="regression" noTrueChildStrategy="returnLastPrediction">
					<MiningSchema>
						<MiningField name="confirmed_3days"/>
						<MiningField name="fatalities_3days"/>
					</MiningSchema>
					<Node score="-0.0074429243704082736">
						<True/>
						<Node score="0.016281274206320178">
							<SimplePredicate field="confirmed_3days" operator="greaterThan" value="36.50000000000001"/>
							<Node score="0.06563567453625684">
								<SimplePredicate field="fatalities_3days" operator="greaterThan" value="8.833333333333334"/>
							</Node>
							<Node score="0.03634853963482171">
								<SimplePredicate field="fatalities_3days" operator="greaterThan" value="0.5000000000000001"/>
							</Node>
						</Node>
						<Node score="0.00610727856233795">
							<SimplePredicate field="confirmed_3days" operator="greaterThan" value="2.8333333333333335"/>
						</Node>
					</Node>
				</TreeModel>
			</Segment>
			<Segment id="12">
				<True/>
				<TreeModel functionName="regression" noTrueChildStrategy="returnLastPrediction">
					<MiningSchema>
						<MiningField name="confirmed_3days"/>
						<MiningField name="fatalities_3days"/>
					</MiningSchema>
					<Node score="-0.007346167404016629">
						<True/>
						<Node score="0.015924806486451983">
							<SimplePredicate field="confirmed_3days" operator="greaterThan" value="34.50000000000001"/>
							<Node score="0.06348075043222405">
								<SimplePredicate field="fatalities_3days" operator="greaterThan" value="7.500000000000001"/>
							</Node>
							<Node score="0.035032391867011306">
								<SimplePredicate field="fatalities_3days" operator="greaterThan" value="0.5000000000000001"/>
							</Node>
						</Node>
						<Node score="0.005814310989413108">
							<SimplePredicate field="confirmed_3days" operator="greaterThan" value="2.8333333333333335"/>
						</Node>
					</Node>
				</TreeModel>
			</Segment>
			<Segment id="13">
				<True/>
				<TreeModel functionName="regression" noTrueChildStrategy="returnLastPrediction">
					<MiningSchema>
						<MiningField name="confirmed_3days"/>
						<MiningField name="fatalities_3days"/>
					</MiningSchema>
					<Node score="-0.0069252709365496875">
						<True/>
						<Node score="0.023971445093764445">
							<SimplePredicate field="fatalities_3days" operator="greaterThan" value="0.8333333333333334"/>
							<Node score="0.0652875654153746">
								<SimplePredicate field="confirmed_3days" operator="greaterThan" value="343.50000000000006"/>
							</Node>
							<Node score="0.04014876874849227">
								<SimplePredicate field="confirmed_3days" operator="greaterThan" value="68.83333333333336"/>
							</Node>
						</Node>
						<Node score="0.009300257521080392">
							<SimplePredicate field="confirmed_3days" operator="greaterThan" value="5.500000000000001"/>
						</Node>
					</Node>
				</TreeModel>
			</Segment>
			<Segment id="14">
				<True/>
				<TreeModel functionName="regression" noTrueChildStrategy="returnLastPrediction">
					<MiningSchema>
						<MiningField name="confirmed_3days"/>
						<MiningField name="fatalities_3days"/>
					</MiningSchema>
					<Node score="-0.007096244484646413">
						<True/>
						<Node score="0.021756176627674224">
							<SimplePredicate field="confirmed_3days" operator="greaterThan" value="37.16666666666668"/>
							<Node score="0.0631766297060086">
								<SimplePredicate field="fatalities_3days" operator="greaterThan" value="8.833333333333334"/>
							</Node>
							<Node score="0.03849702314166693">
								<SimplePredicate field="fatalities_3days" operator="greaterThan" value="1.5000000000000002"/>
							</Node>
						</Node>
						<Node score="0.006280182711445737">
							<SimplePredicate field="confirmed_3days" operator="greaterThan" value="3.1666666666666674"/>
						</Node>
					</Node>
				</TreeModel>
			</Segment>
			<Segment id="15">
				<True/>
				<TreeModel functionName="regression" noTrueChildStrategy="returnLastPrediction">
					<MiningSchema>
						<MiningField name="confirmed_3days"/>
						<MiningField name="fatalities_3days"/>
					</MiningSchema>
					<Node score="-0.00675058404435407">
						<True/>
						<Node score="0.03232620238540302">
							<SimplePredicate field="fatalities_3days" operator="greaterThan" value="0.8333333333333334"/>
							<Node score="0.054779775262258266">
								<SimplePredicate field="confirmed_3days" operator="greaterThan" value="343.50000000000006"/>
								<Node score="0.08026458139338534">
									<SimplePredicate field="fatalities_3days" operator="greaterThan" value="61.16666666666668"/>
								</Node>
							</Node>
						</Node>
						<Node score="0.009055678021448738">
							<SimplePredicate field="confirmed_3days" operator="greaterThan" value="5.500000000000001"/>
						</Node>
					</Node>
				</TreeModel>
			</Segment>
			<Segment id="16">
				<True/>
				<TreeModel functionName="regression" noTrueChildStrategy="returnLastPrediction">
					<MiningSchema>
						<MiningField name="fatalities_10_ago"/>
						<MiningField name="since_16_cases"/>
					</MiningSchema>
					<Node score="-0.00703251829062145">
						<True/>
						<Node score="0.03205415739350652">
							<SimplePredicate field="fatalities_10_ago" operator="greaterThan" value="8.500000000000002"/>
							<Node score="0.06265545823416434">
								<SimplePredicate field="fatalities_10_ago" operator="greaterThan" value="102.50000000000001"/>
							</Node>
						</Node>
						<Node score="0.0027808822967968186">
							<SimplePredicate field="since_16_cases" operator="lessOrEqual" value="33.50000000000001"/>
							<Node score="0.01582466265143899">
								<SimplePredicate field="fatalities_10_ago" operator="greaterThan" value="1.5000000000000002"/>
							</Node>
						</Node>
					</Node>
				</TreeModel>
			</Segment>
			<Segment id="17">
				<True/>
				<TreeModel functionName="regression" noTrueChildStrategy="returnLastPrediction">
					<MiningSchema>
						<MiningField name="fatalities_3days"/>
						<MiningField name="since_16_cases"/>
						<MiningField name="lon"/>
					</MiningSchema>
					<Node score="-0.007017801910005744">
						<True/>
						<Node score="0.03228041344568022">
							<SimplePredicate field="fatalities_3days" operator="greaterThan" value="0.8333333333333334"/>
							<Node score="0.06405266675584605">
								<SimplePredicate field="fatalities_3days" operator="greaterThan" value="12.833333333333334"/>
							</Node>
						</Node>
						<Node score="0.00984692598531978">
							<SimplePredicate field="since_16_cases" operator="lessOrEqual" value="38.50000000000001"/>
							<Node score="-0.0012681701150435035">
								<SimplePredicate field="lon" operator="greaterThan" value="45.10220000000001"/>
							</Node>
						</Node>
					</Node>
				</TreeModel>
			</Segment>
			<Segment id="18">
				<True/>
				<TreeModel functionName="regression" noTrueChildStrategy="returnLastPrediction">
					<MiningSchema>
						<MiningField name="confirmed_3days"/>
						<MiningField name="fatalities_3days"/>
					</MiningSchema>
					<Node score="-0.006819460874741918">
						<True/>
						<Node score="0.027485475393376715">
							<SimplePredicate field="confirmed_3days" operator="greaterThan" value="34.50000000000001"/>
							<Node score="0.05056468313544243">
								<SimplePredicate field="fatalities_3days" operator="greaterThan" value="6.833333333333335"/>
								<Node score="0.0774172010043019">
									<SimplePredicate field="fatalities_3days" operator="greaterThan" value="61.16666666666668"/>
								</Node>
							</Node>
						</Node>
						<Node score="0.005327945003263086">
							<SimplePredicate field="confirmed_3days" operator="greaterThan" value="2.8333333333333335"/>
						</Node>
					</Node>
				</TreeModel>
			</Segment>
			<Segment id="19">
				<True/>
				<TreeModel functionName="regression" noTrueChildStrategy="returnLastPrediction">
					<MiningSchema>
						<MiningField name="confirmed_3days"/>
						<MiningField name="fatalities_3days"/>
					</MiningSchema>
					<Node score="-0.006730808890046421">
						<True/>
						<Node score="0.020350255460249492">
							<SimplePredicate field="confirmed_3days" operator="greaterThan" value="37.16666666666668"/>
							<Node score="0.06002490288877328">
								<SimplePredicate field="confirmed_3days" operator="greaterThan" value="319.50000000000006"/>
							</Node>
							<Node score="0.03654658517500053">
								<SimplePredicate field="fatalities_3days" operator="greaterThan" value="1.5000000000000002"/>
							</Node>
						</Node>
						<Node score="0.005535784447443354">
							<SimplePredicate field="confirmed_3days" operator="greaterThan" value="2.8333333333333335"/>
						</Node>
					</Node>
				</TreeModel>
			</Segment>
			<Segment id="20">
				<True/>
				<TreeModel functionName="regression" noTrueChildStrategy="returnLastPrediction">
					<MiningSchema>
						<MiningField name="confirmed_3days"/>
						<MiningField name="fatalities_3days"/>
					</MiningSchema>
					<Node score="-0.006643309146159145">
						<True/>
						<Node score="0.026760611715112435">
							<SimplePredicate field="confirmed_3days" operator="greaterThan" value="34.50000000000001"/>
							<Node score="0.04923729348264207">
								<SimplePredicate field="fatalities_3days" operator="greaterThan" value="6.833333333333335"/>
								<Node score="0.07563250404949913">
									<SimplePredicate field="fatalities_3days" operator="greaterThan" value="61.16666666666668"/>
								</Node>
							</Node>
						</Node>
						<Node score="0.005186721451269181">
							<SimplePredicate field="confirmed_3days" operator="greaterThan" value="2.8333333333333335"/>
						</Node>
					</Node>
				</TreeModel>
			</Segment>
			<Segment id="21">
				<True/>
				<TreeModel functionName="regression" noTrueChildStrategy="returnLastPrediction">
					<MiningSchema>
						<MiningField name="confirmed_3days"/>
						<MiningField name="fatalities_3days"/>
						<MiningField name="lon"/>
					</MiningSchema>
					<Node score="-0.006241075817808005">
						<True/>
						<Node score="0.030549205377798996">
							<SimplePredicate field="fatalities_3days" operator="greaterThan" value="0.8333333333333334"/>
							<Node score="0.06038420548895024">
								<SimplePredicate field="confirmed_3days" operator="greaterThan" value="377.1666666666667"/>
							</Node>
						</Node>
						<Node score="0.013554526000325173">
							<SimplePredicate field="confirmed_3days" operator="greaterThan" value="5.833333333333335"/>
							<Node score="8.297712484921282E-4">
								<SimplePredicate field="lon" operator="greaterThan" value="45.10220000000001"/>
							</Node>
						</Node>
					</Node>
				</TreeModel>
			</Segment>
			<Segment id="22">
				<True/>
				<TreeModel functionName="regression" noTrueChildStrategy="returnLastPrediction">
					<MiningSchema>
						<MiningField name="confirmed_3days"/>
					</MiningSchema>
					<Node score="-0.00641830547316586">
						<True/>
						<Node score="0.026875299192684825">
							<SimplePredicate field="confirmed_3days" operator="greaterThan" value="37.16666666666668"/>
							<Node score="0.04881198244370214">
								<SimplePredicate field="confirmed_3days" operator="greaterThan" value="259.1666666666667"/>
								<Node score="0.07376624465471944">
									<SimplePredicate field="confirmed_3days" operator="greaterThan" value="1339.1666666666667"/>
								</Node>
							</Node>
						</Node>
						<Node score="0.005603615013845332">
							<SimplePredicate field="confirmed_3days" operator="greaterThan" value="3.1666666666666674"/>
						</Node>
					</Node>
				</TreeModel>
			</Segment>
			<Segment id="23">
				<True/>
				<TreeModel functionName="regression" noTrueChildStrategy="returnLastPrediction">
					<MiningSchema>
						<MiningField name="confirmed_3days"/>
						<MiningField name="fatalities_3days"/>
						<MiningField name="lon"/>
					</MiningSchema>
					<Node score="-0.0060591658642150815">
						<True/>
						<Node score="0.030101708801331617">
							<SimplePredicate field="fatalities_3days" operator="greaterThan" value="0.8333333333333334"/>
							<Node score="0.059611125270837714">
								<SimplePredicate field="fatalities_3days" operator="greaterThan" value="13.16666666666667"/>
							</Node>
						</Node>
						<Node score="0.013455029009383295">
							<SimplePredicate field="confirmed_3days" operator="greaterThan" value="6.166666666666667"/>
							<Node score="7.659336478306875E-4">
								<SimplePredicate field="lon" operator="greaterThan" value="45.10220000000001"/>
							</Node>
						</Node>
					</Node>
				</TreeModel>
			</Segment>
			<Segment id="24">
				<True/>
				<TreeModel functionName="regression" noTrueChildStrategy="returnLastPrediction">
					<MiningSchema>
						<MiningField name="confirmed_3days"/>
						<MiningField name="fatalities_3days"/>
					</MiningSchema>
					<Node score="-0.006433601989523179">
						<True/>
						<Node score="0.02546519381299715">
							<SimplePredicate field="confirmed_3days" operator="greaterThan" value="34.50000000000001"/>
							<Node score="0.046787202977111204">
								<SimplePredicate field="fatalities_3days" operator="greaterThan" value="6.833333333333335"/>
								<Node score="0.07221066375214054">
									<SimplePredicate field="fatalities_3days" operator="greaterThan" value="61.16666666666668"/>
								</Node>
							</Node>
						</Node>
						<Node score="0.004377385117443516">
							<SimplePredicate field="confirmed_3days" operator="greaterThan" value="2.1666666666666674"/>
						</Node>
					</Node>
				</TreeModel>
			</Segment>
			<Segment id="25">
				<True/>
				<TreeModel functionName="regression" noTrueChildStrategy="returnLastPrediction">
					<MiningSchema>
						<MiningField name="confirmed_3days"/>
					</MiningSchema>
					<Node score="-0.0062848092643935285">
						<True/>
						<Node score="0.02586587693188174">
							<SimplePredicate field="confirmed_3days" operator="greaterThan" value="37.16666666666668"/>
							<Node score="0.046995897190764795">
								<SimplePredicate field="confirmed_3days" operator="greaterThan" value="259.1666666666667"/>
								<Node score="0.07116952958021738">
									<SimplePredicate field="confirmed_3days" operator="greaterThan" value="1339.1666666666667"/>
								</Node>
							</Node>
						</Node>
						<Node score="0.0048694961939355075">
							<SimplePredicate field="confirmed_3days" operator="greaterThan" value="2.5000000000000004"/>
						</Node>
					</Node>
				</TreeModel>
			</Segment>
			<Segment id="26">
				<True/>
				<TreeModel functionName="regression" noTrueChildStrategy="returnLastPrediction">
					<MiningSchema>
						<MiningField name="confirmed_3days"/>
					</MiningSchema>
					<Node score="-0.006345172778520035">
						<True/>
						<Node score="0.024181736530223482">
							<SimplePredicate field="confirmed_3days" operator="greaterThan" value="34.50000000000001"/>
							<Node score="0.04304663716036521">
								<SimplePredicate field="confirmed_3days" operator="greaterThan" value="219.50000000000003"/>
								<Node score="0.06578488863988512">
									<SimplePredicate field="confirmed_3days" operator="greaterThan" value="935.1666666666669"/>
								</Node>
							</Node>
						</Node>
						<Node score="0.003952109996854242">
							<SimplePredicate field="confirmed_3days" operator="greaterThan" value="1.8333333333333337"/>
						</Node>
					</Node>
				</TreeModel>
			</Segment>
			<Segment id="27">
				<True/>
				<TreeModel functionName="regression" noTrueChildStrategy="returnLastPrediction">
					<MiningSchema>
						<MiningField name="fatalities_3days"/>
						<MiningField name="since_4_cases"/>
					</MiningSchema>
					<Node score="-0.0065816190003386435">
						<True/>
						<Node score="0.022021512691636717">
							<SimplePredicate field="fatalities_3days" operator="greaterThan" value="0.5000000000000001"/>
							<Node score="0.04194500923160605">
								<SimplePredicate field="fatalities_3days" operator="greaterThan" value="4.500000000000001"/>
								<Node score="0.0674559064142094">
									<SimplePredicate field="fatalities_3days" operator="greaterThan" value="46.16666666666667"/>
								</Node>
							</Node>
						</Node>
						<Node score="0.0013735974015330126">
							<SimplePredicate field="since_4_cases" operator="lessOrEqual" value="44.50000000000001"/>
						</Node>
					</Node>
				</TreeModel>
			</Segment>
			<Segment id="28">
				<True/>
				<TreeModel functionName="regression" noTrueChildStrategy="returnLastPrediction">
					<MiningSchema>
						<MiningField name="confirmed_3days"/>
						<MiningField name="fatalities_3days"/>
					</MiningSchema>
					<Node score="-0.0057949610971346375">
						<True/>
						<Node score="0.022525852462361582">
							<SimplePredicate field="fatalities_3days" operator="greaterThan" value="0.5000000000000001"/>
							<Node score="0.0433181756784769">
								<SimplePredicate field="confirmed_3days" operator="greaterThan" value="196.33333333333334"/>
								<Node score="0.06870394312078884">
									<SimplePredicate field="fatalities_3days" operator="greaterThan" value="61.16666666666668"/>
								</Node>
							</Node>
						</Node>
						<Node score="0.006325458818195591">
							<SimplePredicate field="confirmed_3days" operator="greaterThan" value="5.833333333333335"/>
						</Node>
					</Node>
				</TreeModel>
			</Segment>
			<Segment id="29">
				<True/>
				<TreeModel functionName="regression" noTrueChildStrategy="returnLastPrediction">
					<MiningSchema>
						<MiningField name="confirmed_3days"/>
						<MiningField name="fatalities_3days"/>
						<MiningField name="lon"/>
					</MiningSchema>
					<Node score="-0.005456597175491412">
						<True/>
						<Node score="0.031964555233330284">
							<SimplePredicate field="fatalities_3days" operator="greaterThan" value="1.1666666666666667"/>
							<Node score="0.06091338332195896">
								<SimplePredicate field="confirmed_3days" operator="greaterThan" value="733.6666666666669"/>
							</Node>
						</Node>
						<Node score="0.01494105626064166">
							<SimplePredicate field="confirmed_3days" operator="greaterThan" value="8.500000000000002"/>
							<Node score="0.0013107630520917944">
								<SimplePredicate field="lon" operator="greaterThan" value="45.10220000000001"/>
							</Node>
						</Node>
					</Node>
				</TreeModel>
			</Segment>
			<Segment id="30">
				<True/>
				<TreeModel functionName="regression" noTrueChildStrategy="returnLastPrediction">
					<MiningSchema>
						<MiningField name="fatalities_3days"/>
						<MiningField name="since_16_cases"/>
					</MiningSchema>
					<Node score="-0.006011589320501227">
						<True/>
						<Node score="0.02114689661449759">
							<SimplePredicate field="fatalities_3days" operator="greaterThan" value="0.5000000000000001"/>
							<Node score="0.0404409892718848">
								<SimplePredicate field="fatalities_3days" operator="greaterThan" value="4.500000000000001"/>
								<Node score="0.06496755941656007">
									<SimplePredicate field="fatalities_3days" operator="greaterThan" value="46.16666666666667"/>
								</Node>
							</Node>
						</Node>
						<Node score="0.003702505893925686">
							<SimplePredicate field="since_16_cases" operator="lessOrEqual" value="35.50000000000001"/>
						</Node>
					</Node>
				</TreeModel>
			</Segment>
			<Segment id="31">
				<True/>
				<TreeModel functionName="regression" noTrueChildStrategy="returnLastPrediction">
					<MiningSchema>
						<MiningField name="confirmed_3days"/>
						<MiningField name="fatalities_3days"/>
					</MiningSchema>
					<Node score="-0.005476722069574896">
						<True/>
						<Node score="0.01948506066260189">
							<SimplePredicate field="confirmed_3days" operator="greaterThan" value="42.50000000000001"/>
							<Node score="0.052843390301637844">
								<SimplePredicate field="fatalities_3days" operator="greaterThan" value="10.833333333333334"/>
							</Node>
							<Node score="0.03392687601071631">
								<SimplePredicate field="fatalities_3days" operator="greaterThan" value="2.1666666666666674"/>
							</Node>
						</Node>
						<Node score="0.006899191942467906">
							<SimplePredicate field="confirmed_3days" operator="greaterThan" value="5.500000000000001"/>
						</Node>
					</Node>
				</TreeModel>
			</Segment>
			<Segment id="32">
				<True/>
				<TreeModel functionName="regression" noTrueChildStrategy="returnLastPrediction">
					<MiningSchema>
						<MiningField name="confirmed_3days"/>
					</MiningSchema>
					<Node score="-0.00590365820828697">
						<True/>
						<Node score="0.022213048788305278">
							<SimplePredicate field="confirmed_3days" operator="greaterThan" value="34.50000000000001"/>
							<Node score="0.03956351258425762">
								<SimplePredicate field="confirmed_3days" operator="greaterThan" value="203.33333333333334"/>
								<Node score="0.06111792213406124">
									<SimplePredicate field="confirmed_3days" operator="greaterThan" value="935.1666666666669"/>
								</Node>
							</Node>
						</Node>
						<Node score="0.0036768585710679636">
							<SimplePredicate field="confirmed_3days" operator="greaterThan" value="1.8333333333333337"/>
						</Node>
					</Node>
				</TreeModel>
			</Segment>
			<Segment id="33">
				<True/>
				<TreeModel functionName="regression" noTrueChildStrategy="returnLastPrediction">
					<MiningSchema>
						<MiningField name="confirmed_3days"/>
						<MiningField name="fatalities_3days"/>
					</MiningSchema>
					<Node score="-0.005903743556057716">
						<True/>
						<Node score="0.020949583282462648">
							<SimplePredicate field="fatalities_3days" operator="greaterThan" value="0.5000000000000001"/>
							<Node score="0.0403327532503619">
								<SimplePredicate field="confirmed_3days" operator="greaterThan" value="181.50000000000003"/>
								<Node score="0.06472415099138341">
									<SimplePredicate field="fatalities_3days" operator="greaterThan" value="61.16666666666668"/>
								</Node>
							</Node>
						</Node>
						<Node score="0.003384488884784766">
							<SimplePredicate field="confirmed_3days" operator="greaterThan" value="1.8333333333333337"/>
						</Node>
					</Node>
				</TreeModel>
			</Segment>
			<Segment id="34">
				<True/>
				<TreeModel functionName="regression" noTrueChildStrategy="returnLastPrediction">
					<MiningSchema>
						<MiningField name="confirmed_3days"/>
						<MiningField name="fatalities_3days"/>
						<MiningField name="lon"/>
					</MiningSchema>
					<Node score="-0.005134424123954631">
						<True/>
						<Node score="0.030196284728496364">
							<SimplePredicate field="fatalities_3days" operator="greaterThan" value="1.1666666666666667"/>
							<Node score="0.05773627999870037">
								<SimplePredicate field="confirmed_3days" operator="greaterThan" value="764.5000000000001"/>
							</Node>
						</Node>
						<Node score="0.01426593172033602">
							<SimplePredicate field="confirmed_3days" operator="greaterThan" value="8.500000000000002"/>
							<Node score="9.057559301978295E-4">
								<SimplePredicate field="lon" operator="greaterThan" value="45.10220000000001"/>
							</Node>
						</Node>
					</Node>
				</TreeModel>
			</Segment>
			<Segment id="35">
				<True/>
				<TreeModel functionName="regression" noTrueChildStrategy="returnLastPrediction">
					<MiningSchema>
						<MiningField name="fatalities_3days"/>
						<MiningField name="since_16_cases"/>
					</MiningSchema>
					<Node score="-0.005660047404713779">
						<True/>
						<Node score="0.01812401625241836">
							<SimplePredicate field="fatalities_3days" operator="greaterThan" value="0.5000000000000001"/>
							<Node score="0.036158602663436464">
								<SimplePredicate field="fatalities_3days" operator="greaterThan" value="3.1666666666666674"/>
								<Node score="0.06020071684768776">
									<SimplePredicate field="fatalities_3days" operator="greaterThan" value="37.16666666666668"/>
								</Node>
							</Node>
						</Node>
						<Node score="0.0035099147507722563">
							<SimplePredicate field="since_16_cases" operator="lessOrEqual" value="35.50000000000001"/>
						</Node>
					</Node>
				</TreeModel>
			</Segment>
			<Segment id="36">
				<True/>
				<TreeModel functionName="regression" noTrueChildStrategy="returnLastPrediction">
					<MiningSchema>
						<MiningField name="confirmed_3days"/>
						<MiningField name="lon"/>
					</MiningSchema>
					<Node score="-0.005149201654989679">
						<True/>
						<Node score="0.02432757440302495">
							<SimplePredicate field="confirmed_3days" operator="greaterThan" value="42.50000000000001"/>
							<Node score="0.04883800544349241">
								<SimplePredicate field="confirmed_3days" operator="greaterThan" value="329.00000000000006"/>
							</Node>
						</Node>
						<Node score="0.01043881783820021">
							<SimplePredicate field="confirmed_3days" operator="greaterThan" value="5.500000000000001"/>
							<Node score="-5.211075879790501E-4">
								<SimplePredicate field="lon" operator="greaterThan" value="45.10220000000001"/>
							</Node>
						</Node>
					</Node>
				</TreeModel>
			</Segment>
			<Segment id="37">
				<True/>
				<TreeModel functionName="regression" noTrueChildStrategy="returnLastPrediction">
					<MiningSchema>
						<MiningField name="fatalities_10_ago"/>
						<MiningField name="since_16_cases"/>
						<MiningField name="lon"/>
					</MiningSchema>
					<Node score="-0.0054701527947903315">
						<True/>
						<Node score="0.025408262370416483">
							<SimplePredicate field="fatalities_10_ago" operator="greaterThan" value="8.500000000000002"/>
							<Node score="0.049442698664965">
								<SimplePredicate field="fatalities_10_ago" operator="greaterThan" value="121.50000000000001"/>
							</Node>
						</Node>
						<Node score="0.009465704675439448">
							<SimplePredicate field="since_16_cases" operator="lessOrEqual" value="33.50000000000001"/>
							<Node score="-0.0010646279997349394">
								<SimplePredicate field="lon" operator="greaterThan" value="38.4515"/>
							</Node>
						</Node>
					</Node>
				</TreeModel>
			</Segment>
			<Segment id="38">
				<True/>
				<TreeModel functionName="regression" noTrueChildStrategy="returnLastPrediction">
					<MiningSchema>
						<MiningField name="fatalities_10_ago"/>
						<MiningField name="since_16_cases"/>
					</MiningSchema>
					<Node score="-0.0053990412742928075">
						<True/>
						<Node score="0.024705658010486766">
							<SimplePredicate field="fatalities_10_ago" operator="greaterThan" value="8.500000000000002"/>
							<Node score="0.04788651989290243">
								<SimplePredicate field="fatalities_10_ago" operator="greaterThan" value="102.50000000000001"/>
							</Node>
						</Node>
						<Node score="1.2075994840285678E-4">
							<SimplePredicate field="since_16_cases" operator="lessOrEqual" value="33.50000000000001"/>
							<Node score="0.010325319327958186">
								<SimplePredicate field="fatalities_10_ago" operator="greaterThan" value="1.0000000180025095E-35"/>
							</Node>
						</Node>
					</Node>
				</TreeModel>
			</Segment>
			<Segment id="39">
				<True/>
				<TreeModel functionName="regression" noTrueChildStrategy="returnLastPrediction">
					<MiningSchema>
						<MiningField name="confirmed_3days"/>
						<MiningField name="fatalities_3days"/>
					</MiningSchema>
					<Node score="-0.005423023070507119">
						<True/>
						<Node score="0.017585729979312546">
							<SimplePredicate field="confirmed_3days" operator="greaterThan" value="30.166666666666668"/>
							<Node score="0.03465957194355874">
								<SimplePredicate field="fatalities_3days" operator="greaterThan" value="3.1666666666666674"/>
								<Node score="0.05762627197083842">
									<SimplePredicate field="fatalities_3days" operator="greaterThan" value="37.50000000000001"/>
								</Node>
							</Node>
						</Node>
						<Node score="0.0029507929839765338">
							<SimplePredicate field="confirmed_3days" operator="greaterThan" value="1.8333333333333337"/>
						</Node>
					</Node>
				</TreeModel>
			</Segment>
			<Segment id="40">
				<True/>
				<TreeModel functionName="regression" noTrueChildStrategy="returnLastPrediction">
					<MiningSchema>
						<MiningField name="confirmed_3days"/>
						<MiningField name="fatalities_3days"/>
					</MiningSchema>
					<Node score="-0.005352524130357589">
						<True/>
						<Node score="0.018548198981132805">
							<SimplePredicate field="confirmed_3days" operator="greaterThan" value="30.166666666666668"/>
							<Node score="0.036203338333503005">
								<SimplePredicate field="fatalities_3days" operator="greaterThan" value="4.166666666666667"/>
								<Node score="0.059993445015705735">
									<SimplePredicate field="fatalities_3days" operator="greaterThan" value="62.833333333333336"/>
								</Node>
							</Node>
						</Node>
						<Node score="0.002912433868510059">
							<SimplePredicate field="confirmed_3days" operator="greaterThan" value="1.8333333333333337"/>
						</Node>
					</Node>
				</TreeModel>
			</Segment>
			<Segment id="41">
				<True/>
				<TreeModel functionName="regression" noTrueChildStrategy="returnLastPrediction">
					<MiningSchema>
						<MiningField name="confirmed_3days"/>
						<MiningField name="fatalities_3days"/>
					</MiningSchema>
					<Node score="-0.00494397153741016">
						<True/>
						<Node score="0.019023836538393245">
							<SimplePredicate field="fatalities_3days" operator="greaterThan" value="0.5000000000000001"/>
							<Node score="0.03669944881338273">
								<SimplePredicate field="confirmed_3days" operator="greaterThan" value="181.50000000000003"/>
								<Node score="0.05921392784767268">
									<SimplePredicate field="fatalities_3days" operator="greaterThan" value="62.833333333333336"/>
								</Node>
							</Node>
						</Node>
						<Node score="0.0053475460802701125">
							<SimplePredicate field="confirmed_3days" operator="greaterThan" value="5.833333333333335"/>
						</Node>
					</Node>
				</TreeModel>
			</Segment>
			<Segment id="42">
				<True/>
				<TreeModel functionName="regression" noTrueChildStrategy="returnLastPrediction">
					<MiningSchema>
						<MiningField name="fatalities_3days"/>
						<MiningField name="since_16_cases"/>
					</MiningSchema>
					<Node score="-0.0052081163132397116">
						<True/>
						<Node score="0.016708516569196655">
							<SimplePredicate field="fatalities_3days" operator="greaterThan" value="0.5000000000000001"/>
							<Node score="0.03319813303042578">
								<SimplePredicate field="fatalities_3days" operator="greaterThan" value="3.1666666666666674"/>
								<Node score="0.05537152648274598">
									<SimplePredicate field="fatalities_3days" operator="greaterThan" value="37.16666666666668"/>
								</Node>
							</Node>
						</Node>
						<Node score="0.0031368369152966692">
							<SimplePredicate field="since_16_cases" operator="lessOrEqual" value="36.50000000000001"/>
						</Node>
					</Node>
				</TreeModel>
			</Segment>
			<Segment id="43">
				<True/>
				<TreeModel functionName="regression" noTrueChildStrategy="returnLastPrediction">
					<MiningSchema>
						<MiningField name="confirmed_3days"/>
						<MiningField name="fatalities_3days"/>
					</MiningSchema>
					<Node score="-0.004730671579064016">
						<True/>
						<Node score="0.016946682727953598">
							<SimplePredicate field="confirmed_3days" operator="greaterThan" value="42.50000000000001"/>
							<Node score="0.051044438872576106">
								<SimplePredicate field="confirmed_3days" operator="greaterThan" value="695.8333333333334"/>
							</Node>
							<Node score="0.030809628429752968">
								<SimplePredicate field="fatalities_3days" operator="greaterThan" value="2.1666666666666674"/>
							</Node>
						</Node>
						<Node score="0.0058899286055825156">
							<SimplePredicate field="confirmed_3days" operator="greaterThan" value="5.500000000000001"/>
						</Node>
					</Node>
				</TreeModel>
			</Segment>
			<Segment id="44">
				<True/>
				<TreeModel functionName="regression" noTrueChildStrategy="returnLastPrediction">
					<MiningSchema>
						<MiningField name="confirmed_3days"/>
					</MiningSchema>
					<Node score="-0.005247811823132758">
						<True/>
						<Node score="0.01862229949622728">
							<SimplePredicate field="confirmed_3days" operator="greaterThan" value="30.166666666666668"/>
							<Node score="0.03566154626093726">
								<SimplePredicate field="confirmed_3days" operator="greaterThan" value="203.33333333333334"/>
								<Node score="0.057034976404864726">
									<SimplePredicate field="confirmed_3days" operator="greaterThan" value="1339.1666666666667"/>
								</Node>
							</Node>
						</Node>
						<Node score="0.002216078442237545">
							<SimplePredicate field="confirmed_3days" operator="greaterThan" value="1.1666666666666667"/>
						</Node>
					</Node>
				</TreeModel>
			</Segment>
			<Segment id="45">
				<True/>
				<TreeModel functionName="regression" noTrueChildStrategy="returnLastPrediction">
					<MiningSchema>
						<MiningField name="confirmed_3days"/>
						<MiningField name="fatalities_3days"/>
					</MiningSchema>
					<Node score="-0.005099585480839833">
						<True/>
						<Node score="0.016259091696328682">
							<SimplePredicate field="fatalities_3days" operator="greaterThan" value="0.5000000000000001"/>
							<Node score="0.03220239831622199">
								<SimplePredicate field="confirmed_3days" operator="greaterThan" value="119.83333333333336"/>
								<Node score="0.053460373652560095">
									<SimplePredicate field="fatalities_3days" operator="greaterThan" value="37.50000000000001"/>
								</Node>
							</Node>
						</Node>
						<Node score="0.002897509395773716">
							<SimplePredicate field="confirmed_3days" operator="greaterThan" value="1.8333333333333337"/>
						</Node>
					</Node>
				</TreeModel>
			</Segment>
			<Segment id="46">
				<True/>
				<TreeModel functionName="regression" noTrueChildStrategy="returnLastPrediction">
					<MiningSchema>
						<MiningField name="fatalities_3days"/>
						<MiningField name="since_4_cases"/>
					</MiningSchema>
					<Node score="-0.005339602299475636">
						<True/>
						<Node score="0.026513991063235737">
							<SimplePredicate field="fatalities_3days" operator="greaterThan" value="1.1666666666666667"/>
							<Node score="0.051475158443536395">
								<SimplePredicate field="fatalities_3days" operator="greaterThan" value="30.166666666666668"/>
							</Node>
						</Node>
						<Node score="0.009652269799860475">
							<SimplePredicate field="fatalities_3days" operator="greaterThan" value="1.0000000180025095E-35"/>
						</Node>
						<Node score="-1.6685915979535796E-4">
							<SimplePredicate field="since_4_cases" operator="lessOrEqual" value="43.50000000000001"/>
						</Node>
					</Node>
				</TreeModel>
			</Segment>
			<Segment id="47">
				<True/>
				<TreeModel functionName="regression" noTrueChildStrategy="returnLastPrediction">
					<MiningSchema>
						<MiningField name="confirmed_3days"/>
						<MiningField name="fatalities_3days"/>
					</MiningSchema>
					<Node score="-0.004505489997421373">
						<True/>
						<Node score="0.016095859057196245">
							<SimplePredicate field="confirmed_3days" operator="greaterThan" value="42.50000000000001"/>
							<Node score="0.04386977596670046">
								<SimplePredicate field="confirmed_3days" operator="greaterThan" value="377.1666666666667"/>
							</Node>
							<Node score="0.028067678938213537">
								<SimplePredicate field="fatalities_3days" operator="greaterThan" value="2.1666666666666674"/>
							</Node>
						</Node>
						<Node score="0.00561353557286894">
							<SimplePredicate field="confirmed_3days" operator="greaterThan" value="5.500000000000001"/>
						</Node>
					</Node>
				</TreeModel>
			</Segment>
			<Segment id="48">
				<True/>
				<TreeModel functionName="regression" noTrueChildStrategy="returnLastPrediction">
					<MiningSchema>
						<MiningField name="confirmed_3days"/>
					</MiningSchema>
					<Node score="-0.004994773440823331">
						<True/>
						<Node score="0.017505595395421417">
							<SimplePredicate field="confirmed_3days" operator="greaterThan" value="28.83333333333334"/>
							<Node score="0.033769606708758615">
								<SimplePredicate field="confirmed_3days" operator="greaterThan" value="196.33333333333334"/>
								<Node score="0.0544268528480273">
									<SimplePredicate field="confirmed_3days" operator="greaterThan" value="1339.1666666666667"/>
								</Node>
							</Node>
						</Node>
						<Node score="0.0020122188097696876">
							<SimplePredicate field="confirmed_3days" operator="greaterThan" value="1.1666666666666667"/>
						</Node>
					</Node>
				</TreeModel>
			</Segment>
			<Segment id="49">
				<True/>
				<TreeModel functionName="regression" noTrueChildStrategy="returnLastPrediction">
					<MiningSchema>
						<MiningField name="confirmed_3days"/>
						<MiningField name="fatalities_3days"/>
					</MiningSchema>
					<Node score="-0.004480899642874854">
						<True/>
						<Node score="0.015504084802101357">
							<SimplePredicate field="fatalities_3days" operator="greaterThan" value="0.5000000000000001"/>
							<Node score="0.03134070262456825">
								<SimplePredicate field="confirmed_3days" operator="greaterThan" value="119.83333333333336"/>
								<Node score="0.05355452693108541">
									<SimplePredicate field="fatalities_3days" operator="greaterThan" value="61.16666666666668"/>
								</Node>
							</Node>
						</Node>
						<Node score="0.004829797114758501">
							<SimplePredicate field="confirmed_3days" operator="greaterThan" value="5.833333333333335"/>
						</Node>
					</Node>
				</TreeModel>
			</Segment>
			<Segment id="50">
				<True/>
				<TreeModel functionName="regression" noTrueChildStrategy="returnLastPrediction">
					<MiningSchema>
						<MiningField name="fatalities_3days"/>
						<MiningField name="since_4_cases"/>
					</MiningSchema>
					<Node score="-0.0050482938682327285">
						<True/>
						<Node score="0.015139993890526875">
							<SimplePredicate field="fatalities_3days" operator="greaterThan" value="0.5000000000000001"/>
							<Node score="0.030379884251409858">
								<SimplePredicate field="fatalities_3days" operator="greaterThan" value="3.1666666666666674"/>
								<Node score="0.0510506041949209">
									<SimplePredicate field="fatalities_3days" operator="greaterThan" value="46.16666666666667"/>
								</Node>
							</Node>
						</Node>
						<Node score="0.0012508432458308487">
							<SimplePredicate field="since_4_cases" operator="lessOrEqual" value="44.50000000000001"/>
						</Node>
					</Node>
				</TreeModel>
			</Segment>
			<Segment id="51">
				<True/>
				<TreeModel functionName="regression" noTrueChildStrategy="returnLastPrediction">
					<MiningSchema>
						<MiningField name="confirmed_3days"/>
						<MiningField name="fatalities_3days"/>
					</MiningSchema>
					<Node score="-0.004815622310284382">
						<True/>
						<Node score="0.01510005688971166">
							<SimplePredicate field="confirmed_3days" operator="greaterThan" value="28.83333333333334"/>
							<Node score="0.029383564903708793">
								<SimplePredicate field="fatalities_3days" operator="greaterThan" value="3.1666666666666674"/>
								<Node score="0.04835328930239165">
									<SimplePredicate field="confirmed_3days" operator="greaterThan" value="887.5000000000001"/>
								</Node>
							</Node>
						</Node>
						<Node score="0.001935679115426299">
							<SimplePredicate field="confirmed_3days" operator="greaterThan" value="1.1666666666666667"/>
						</Node>
					</Node>
				</TreeModel>
			</Segment>
			<Segment id="52">
				<True/>
				<TreeModel functionName="regression" noTrueChildStrategy="returnLastPrediction">
					<MiningSchema>
						<MiningField name="confirmed_3days"/>
						<MiningField name="fatalities_3days"/>
					</MiningSchema>
					<Node score="-0.0039498444522739285">
						<True/>
						<Node score="0.015206592597219537">
							<SimplePredicate field="confirmed_3days" operator="greaterThan" value="42.50000000000001"/>
							<Node score="0.04570579899325532">
								<SimplePredicate field="confirmed_3days" operator="greaterThan" value="695.8333333333334"/>
							</Node>
							<Node score="0.027552741108940425">
								<SimplePredicate field="fatalities_3days" operator="greaterThan" value="2.1666666666666674"/>
							</Node>
						</Node>
						<Node score="0.00790546959796357">
							<SimplePredicate field="fatalities_3days" operator="greaterThan" value="1.0000000180025095E-35"/>
						</Node>
					</Node>
				</TreeModel>
			</Segment>
			<Segment id="53">
				<True/>
				<TreeModel functionName="regression" noTrueChildStrategy="returnLastPrediction">
					<MiningSchema>
						<MiningField name="confirmed_3days"/>
						<MiningField name="fatalities_3days"/>
						<MiningField name="lon"/>
					</MiningSchema>
					<Node score="-0.004703522442154468">
						<True/>
						<Node score="0.02088268556236053">
							<SimplePredicate field="confirmed_3days" operator="greaterThan" value="28.83333333333334"/>
							<Node score="0.037885953768426205">
								<SimplePredicate field="fatalities_3days" operator="greaterThan" value="6.833333333333335"/>
							</Node>
							<Node score="0.007196193706325557">
								<SimplePredicate field="lon" operator="greaterThan" value="45.01910000000001"/>
							</Node>
						</Node>
						<Node score="0.0019205629500971056">
							<SimplePredicate field="confirmed_3days" operator="greaterThan" value="1.1666666666666667"/>
						</Node>
					</Node>
				</TreeModel>
			</Segment>
			<Segment id="54">
				<True/>
				<TreeModel functionName="regression" noTrueChildStrategy="returnLastPrediction">
					<MiningSchema>
						<MiningField name="confirmed_3days"/>
						<MiningField name="fatalities_3days"/>
					</MiningSchema>
					<Node score="-0.004115037028766638">
						<True/>
						<Node score="0.014576537353762938">
							<SimplePredicate field="fatalities_3days" operator="greaterThan" value="0.5000000000000001"/>
							<Node score="0.030140365563120167">
								<SimplePredicate field="confirmed_3days" operator="greaterThan" value="119.83333333333336"/>
								<Node score="0.054397682010499986">
									<SimplePredicate field="fatalities_3days" operator="greaterThan" value="111.16666666666667"/>
								</Node>
							</Node>
						</Node>
						<Node score="0.0055329839380216855">
							<SimplePredicate field="confirmed_3days" operator="greaterThan" value="8.500000000000002"/>
						</Node>
					</Node>
				</TreeModel>
			</Segment>
			<Segment id="55">
				<True/>
				<TreeModel functionName="regression" noTrueChildStrategy="returnLastPrediction">
					<MiningSchema>
						<MiningField name="confirmed_3days"/>
						<MiningField name="fatalities_3days"/>
						<MiningField name="Asia"/>
					</MiningSchema>
					<Node score="-0.003995932201817816">
						<True/>
						<Node score="0.023378963515310047">
							<SimplePredicate field="fatalities_3days" operator="greaterThan" value="1.1666666666666667"/>
							<Node score="0.044846216423494414">
								<SimplePredicate field="confirmed_3days" operator="greaterThan" value="764.5000000000001"/>
							</Node>
						</Node>
						<Node score="0.011188308753310509">
							<SimplePredicate field="confirmed_3days" operator="greaterThan" value="8.500000000000002"/>
							<Node score="1.7669880373578234E-4">
								<SimplePredicate field="Asia" operator="greaterThan" value="1.0000000180025095E-35"/>
							</Node>
						</Node>
					</Node>
				</TreeModel>
			</Segment>
			<Segment id="56">
				<True/>
				<TreeModel functionName="regression" noTrueChildStrategy="returnLastPrediction">
					<MiningSchema>
						<MiningField name="confirmed_3days"/>
					</MiningSchema>
					<Node score="-0.00389405877819336">
						<True/>
						<Node score="0.014468122756020305">
							<SimplePredicate field="confirmed_3days" operator="greaterThan" value="43.833333333333336"/>
							<Node score="0.043542730909203214">
								<SimplePredicate field="confirmed_3days" operator="greaterThan" value="695.8333333333334"/>
							</Node>
							<Node score="0.026013421079613668">
								<SimplePredicate field="confirmed_3days" operator="greaterThan" value="101.50000000000001"/>
							</Node>
						</Node>
						<Node score="0.0062804679033707225">
							<SimplePredicate field="confirmed_3days" operator="greaterThan" value="8.500000000000002"/>
						</Node>
					</Node>
				</TreeModel>
			</Segment>
			<Segment id="57">
				<True/>
				<TreeModel functionName="regression" noTrueChildStrategy="returnLastPrediction">
					<MiningSchema>
						<MiningField name="confirmed_3days"/>
						<MiningField name="fatalities_3days"/>
					</MiningSchema>
					<Node score="-0.0044171560738001095">
						<True/>
						<Node score="0.013931535648097286">
							<SimplePredicate field="fatalities_3days" operator="greaterThan" value="0.5000000000000001"/>
							<Node score="0.02890863008819596">
								<SimplePredicate field="fatalities_3days" operator="greaterThan" value="3.1666666666666674"/>
								<Node score="0.052545455206595475">
									<SimplePredicate field="fatalities_3days" operator="greaterThan" value="111.16666666666667"/>
								</Node>
							</Node>
						</Node>
						<Node score="0.0025627362682167872">
							<SimplePredicate field="confirmed_3days" operator="greaterThan" value="1.8333333333333337"/>
						</Node>
					</Node>
				</TreeModel>
			</Segment>
			<Segment id="58">
				<True/>
				<TreeModel functionName="regression" noTrueChildStrategy="returnLastPrediction">
					<MiningSchema>
						<MiningField name="confirmed_3days"/>
						<MiningField name="fatalities_3days"/>
					</MiningSchema>
					<Node score="-0.0046549047188524355">
						<True/>
						<Node score="0.020379276141472294">
							<SimplePredicate field="confirmed_3days" operator="greaterThan" value="43.833333333333336"/>
							<Node score="0.04247845189196481">
								<SimplePredicate field="confirmed_3days" operator="greaterThan" value="695.8333333333334"/>
							</Node>
						</Node>
						<Node score="0.0075569160772743895">
							<SimplePredicate field="fatalities_3days" operator="greaterThan" value="1.0000000180025095E-35"/>
						</Node>
						<Node score="-3.4946044960184686E-4">
							<SimplePredicate field="confirmed_3days" operator="greaterThan" value="0.5000000000000001"/>
						</Node>
					</Node>
				</TreeModel>
			</Segment>
			<Segment id="59">
				<True/>
				<TreeModel functionName="regression" noTrueChildStrategy="returnLastPrediction">
					<MiningSchema>
						<MiningField name="fatalities_3days"/>
						<MiningField name="since_4_cases"/>
					</MiningSchema>
					<Node score="-0.004601685061119264">
						<True/>
						<Node score="0.02259514889777388">
							<SimplePredicate field="fatalities_3days" operator="greaterThan" value="1.1666666666666667"/>
							<Node score="0.04407203172807321">
								<SimplePredicate field="fatalities_3days" operator="greaterThan" value="30.166666666666668"/>
							</Node>
						</Node>
						<Node score="0.008463798901566654">
							<SimplePredicate field="fatalities_3days" operator="greaterThan" value="1.0000000180025095E-35"/>
						</Node>
						<Node score="-8.760215180510912E-5">
							<SimplePredicate field="since_4_cases" operator="lessOrEqual" value="43.50000000000001"/>
						</Node>
					</Node>
				</TreeModel>
			</Segment>
			<Segment id="60">
				<True/>
				<TreeModel functionName="regression" noTrueChildStrategy="returnLastPrediction">
					<MiningSchema>
						<MiningField name="confirmed_3days"/>
						<MiningField name="fatalities_3days"/>
					</MiningSchema>
					<Node score="-0.0043233904725848635">
						<True/>
						<Node score="0.014847456162845449">
							<SimplePredicate field="confirmed_3days" operator="greaterThan" value="28.83333333333334"/>
							<Node score="0.030148837014106457">
								<SimplePredicate field="confirmed_3days" operator="greaterThan" value="181.50000000000003"/>
								<Node score="0.056025646822134796">
									<SimplePredicate field="fatalities_3days" operator="greaterThan" value="150.83333333333334"/>
								</Node>
							</Node>
						</Node>
						<Node score="0.001780324802161583">
							<SimplePredicate field="confirmed_3days" operator="greaterThan" value="1.1666666666666667"/>
						</Node>
					</Node>
				</TreeModel>
			</Segment>
			<Segment id="61">
				<True/>
				<TreeModel functionName="regression" noTrueChildStrategy="returnLastPrediction">
					<MiningSchema>
						<MiningField name="confirmed_3days"/>
						<MiningField name="fatalities_3days"/>
						<MiningField name="since_16_cases"/>
					</MiningSchema>
					<Node score="-0.004106673159080545">
						<True/>
						<Node score="0.013351117463035014">
							<SimplePredicate field="fatalities_3days" operator="greaterThan" value="0.5000000000000001"/>
							<Node score="0.028299192216438958">
								<SimplePredicate field="confirmed_3days" operator="greaterThan" value="119.83333333333336"/>
								<Node score="0.05529807886321781">
									<SimplePredicate field="fatalities_3days" operator="greaterThan" value="150.83333333333334"/>
								</Node>
							</Node>
						</Node>
						<Node score="0.002904160740995802">
							<SimplePredicate field="since_16_cases" operator="lessOrEqual" value="31.500000000000004"/>
						</Node>
					</Node>
				</TreeModel>
			</Segment>
			<Segment id="62">
				<True/>
				<TreeModel functionName="regression" noTrueChildStrategy="returnLastPrediction">
					<MiningSchema>
						<MiningField name="fatalities_3days"/>
						<MiningField name="since_4_cases"/>
					</MiningSchema>
					<Node score="-0.004436212017186018">
						<True/>
						<Node score="0.02177203658362011">
							<SimplePredicate field="fatalities_3days" operator="greaterThan" value="1.1666666666666667"/>
							<Node score="0.04251712312027734">
								<SimplePredicate field="fatalities_3days" operator="greaterThan" value="30.166666666666668"/>
							</Node>
						</Node>
						<Node score="0.008191315219792978">
							<SimplePredicate field="fatalities_3days" operator="greaterThan" value="1.0000000180025095E-35"/>
						</Node>
						<Node score="-9.548711681990872E-5">
							<SimplePredicate field="since_4_cases" operator="lessOrEqual" value="43.50000000000001"/>
						</Node>
					</Node>
				</TreeModel>
			</Segment>
			<Segment id="63">
				<True/>
				<TreeModel functionName="regression" noTrueChildStrategy="returnLastPrediction">
					<MiningSchema>
						<MiningField name="confirmed_3days"/>
						<MiningField name="fatalities_3days"/>
						<MiningField name="lon"/>
					</MiningSchema>
					<Node score="-0.004165972222562263">
						<True/>
						<Node score="0.01870818744224883">
							<SimplePredicate field="confirmed_3days" operator="greaterThan" value="28.83333333333334"/>
							<Node score="0.03360217076858816">
								<SimplePredicate field="fatalities_3days" operator="greaterThan" value="6.833333333333335"/>
							</Node>
							<Node score="0.005724710990844146">
								<SimplePredicate field="lon" operator="greaterThan" value="45.01910000000001"/>
							</Node>
						</Node>
						<Node score="0.001701973509719585">
							<SimplePredicate field="confirmed_3days" operator="greaterThan" value="1.1666666666666667"/>
						</Node>
					</Node>
				</TreeModel>
			</Segment>
			<Segment id="64">
				<True/>
				<TreeModel functionName="regression" noTrueChildStrategy="returnLastPrediction">
					<MiningSchema>
						<MiningField name="confirmed_3days"/>
						<MiningField name="lon"/>
					</MiningSchema>
					<Node score="-0.003540879826394206">
						<True/>
						<Node score="0.018930818815612767">
							<SimplePredicate field="confirmed_3days" operator="greaterThan" value="43.833333333333336"/>
							<Node score="0.03957154447132279">
								<SimplePredicate field="confirmed_3days" operator="greaterThan" value="695.8333333333334"/>
							</Node>
						</Node>
						<Node score="0.010164623335037055">
							<SimplePredicate field="confirmed_3days" operator="greaterThan" value="8.500000000000002"/>
							<Node score="-2.6531442579251057E-4">
								<SimplePredicate field="lon" operator="greaterThan" value="32.71495000000001"/>
							</Node>
						</Node>
					</Node>
				</TreeModel>
			</Segment>
			<Segment id="65">
				<True/>
				<TreeModel functionName="regression" noTrueChildStrategy="returnLastPrediction">
					<MiningSchema>
						<MiningField name="confirmed_3days"/>
						<MiningField name="since_16_cases"/>
					</MiningSchema>
					<Node score="-0.003879245044343652">
						<True/>
						<Node score="0.011910034093666673">
							<SimplePredicate field="confirmed_3days" operator="greaterThan" value="24.83333333333334"/>
							<Node score="0.02549171890431839">
								<SimplePredicate field="confirmed_3days" operator="greaterThan" value="121.83333333333336"/>
								<Node score="0.04478810520095789">
									<SimplePredicate field="confirmed_3days" operator="greaterThan" value="1339.1666666666667"/>
								</Node>
							</Node>
						</Node>
						<Node score="0.0022985144365024824">
							<SimplePredicate field="since_16_cases" operator="lessOrEqual" value="30.500000000000004"/>
						</Node>
					</Node>
				</TreeModel>
			</Segment>
			<Segment id="66">
				<True/>
				<TreeModel functionName="regression" noTrueChildStrategy="returnLastPrediction">
					<MiningSchema>
						<MiningField name="fatalities_3days"/>
						<MiningField name="since_1_cases"/>
					</MiningSchema>
					<Node score="-0.004516837366531354">
						<True/>
						<Node score="0.02075316227510413">
							<SimplePredicate field="fatalities_3days" operator="greaterThan" value="1.1666666666666667"/>
							<Node score="0.04055884918300335">
								<SimplePredicate field="fatalities_3days" operator="greaterThan" value="30.166666666666668"/>
							</Node>
						</Node>
						<Node score="0.007867912402768087">
							<SimplePredicate field="fatalities_3days" operator="greaterThan" value="1.0000000180025095E-35"/>
						</Node>
						<Node score="-9.379277925090569E-4">
							<SimplePredicate field="since_1_cases" operator="lessOrEqual" value="61.50000000000001"/>
						</Node>
					</Node>
				</TreeModel>
			</Segment>
			<Segment id="67">
				<True/>
				<TreeModel functionName="regression" noTrueChildStrategy="returnLastPrediction">
					<MiningSchema>
						<MiningField name="fatalities_3days"/>
						<MiningField name="since_16_cases"/>
					</MiningSchema>
					<Node score="-0.0038217975973615825">
						<True/>
						<Node score="0.012236171491841908">
							<SimplePredicate field="fatalities_3days" operator="greaterThan" value="0.5000000000000001"/>
							<Node score="0.0262275101678311">
								<SimplePredicate field="fatalities_3days" operator="greaterThan" value="3.1666666666666674"/>
								<Node score="0.051983493073701294">
									<SimplePredicate field="fatalities_3days" operator="greaterThan" value="150.83333333333334"/>
								</Node>
							</Node>
						</Node>
						<Node score="0.002717457663092195">
							<SimplePredicate field="since_16_cases" operator="lessOrEqual" value="31.500000000000004"/>
						</Node>
					</Node>
				</TreeModel>
			</Segment>
			<Segment id="68">
				<True/>
				<TreeModel functionName="regression" noTrueChildStrategy="returnLastPrediction">
					<MiningSchema>
						<MiningField name="confirmed_3days"/>
						<MiningField name="fatalities_3days"/>
						<MiningField name="since_4_cases"/>
					</MiningSchema>
					<Node score="-0.004129703616449544">
						<True/>
						<Node score="0.016897360616269223">
							<SimplePredicate field="confirmed_3days" operator="greaterThan" value="43.833333333333336"/>
							<Node score="0.03386205200800702">
								<SimplePredicate field="fatalities_3days" operator="greaterThan" value="11.16666666666667"/>
							</Node>
						</Node>
						<Node score="0.006719542011180323">
							<SimplePredicate field="fatalities_3days" operator="greaterThan" value="1.0000000180025095E-35"/>
						</Node>
						<Node score="-6.492858433006112E-5">
							<SimplePredicate field="since_4_cases" operator="lessOrEqual" value="36.50000000000001"/>
						</Node>
					</Node>
				</TreeModel>
			</Segment>
			<Segment id="69">
				<True/>
				<TreeModel functionName="regression" noTrueChildStrategy="returnLastPrediction">
					<MiningSchema>
						<MiningField name="confirmed_3days"/>
						<MiningField name="fatalities_3days"/>
						<MiningField name="since_4_cases"/>
					</MiningSchema>
					<Node score="-0.00408023314020943">
						<True/>
						<Node score="0.01991669707572186">
							<SimplePredicate field="fatalities_3days" operator="greaterThan" value="1.1666666666666667"/>
							<Node score="0.03898480615779347">
								<SimplePredicate field="confirmed_3days" operator="greaterThan" value="887.5000000000001"/>
							</Node>
						</Node>
						<Node score="0.007930380347541439">
							<SimplePredicate field="confirmed_3days" operator="greaterThan" value="13.833333333333334"/>
						</Node>
						<Node score="1.014550773745925E-4">
							<SimplePredicate field="since_4_cases" operator="lessOrEqual" value="34.50000000000001"/>
						</Node>
					</Node>
				</TreeModel>
			</Segment>
			<Segment id="70">
				<True/>
				<TreeModel functionName="regression" noTrueChildStrategy="returnLastPrediction">
					<MiningSchema>
						<MiningField name="confirmed_3days"/>
						<MiningField name="fatalities_3days"/>
					</MiningSchema>
					<Node score="-0.003389179319123662">
						<True/>
						<Node score="0.011767694349786358">
							<SimplePredicate field="fatalities_3days" operator="greaterThan" value="0.5000000000000001"/>
							<Node score="0.025265017716785167">
								<SimplePredicate field="fatalities_3days" operator="greaterThan" value="3.1666666666666674"/>
								<Node score="0.05036241318733601">
									<SimplePredicate field="fatalities_3days" operator="greaterThan" value="150.83333333333334"/>
								</Node>
							</Node>
						</Node>
						<Node score="0.004604847808889467">
							<SimplePredicate field="confirmed_3days" operator="greaterThan" value="8.500000000000002"/>
						</Node>
					</Node>
				</TreeModel>
			</Segment>
			<Segment id="71">
				<True/>
				<TreeModel functionName="regression" noTrueChildStrategy="returnLastPrediction">
					<MiningSchema>
						<MiningField name="confirmed_3days"/>
						<MiningField name="fatalities_3days"/>
					</MiningSchema>
					<Node score="-0.0037843426895578978">
						<True/>
						<Node score="0.011006623270491907">
							<SimplePredicate field="confirmed_3days" operator="greaterThan" value="24.500000000000004"/>
							<Node score="0.024740987714569188">
								<SimplePredicate field="confirmed_3days" operator="greaterThan" value="121.83333333333336"/>
								<Node score="0.049708392159127306">
									<SimplePredicate field="fatalities_3days" operator="greaterThan" value="150.83333333333334"/>
								</Node>
							</Node>
						</Node>
						<Node score="0.001255019523041816">
							<SimplePredicate field="confirmed_3days" operator="greaterThan" value="1.1666666666666667"/>
						</Node>
					</Node>
				</TreeModel>
			</Segment>
			<Segment id="72">
				<True/>
				<TreeModel functionName="regression" noTrueChildStrategy="returnLastPrediction">
					<MiningSchema>
						<MiningField name="fatalities_3days"/>
						<MiningField name="since_4_cases"/>
					</MiningSchema>
					<Node score="-0.003898779158069251">
						<True/>
						<Node score="0.019229589534142166">
							<SimplePredicate field="fatalities_3days" operator="greaterThan" value="1.1666666666666667"/>
							<Node score="0.0378115119130313">
								<SimplePredicate field="fatalities_3days" operator="greaterThan" value="30.166666666666668"/>
							</Node>
						</Node>
						<Node score="0.007388492109585473">
							<SimplePredicate field="fatalities_3days" operator="greaterThan" value="1.0000000180025095E-35"/>
						</Node>
						<Node score="4.7061382127414315E-5">
							<SimplePredicate field="since_4_cases" operator="lessOrEqual" value="36.50000000000001"/>
						</Node>
					</Node>
				</TreeModel>
			</Segment>
			<Segment id="73">
				<True/>
				<TreeModel functionName="regression" noTrueChildStrategy="returnLastPrediction">
					<MiningSchema>
						<MiningField name="confirmed_3days"/>
						<MiningField name="lon"/>
					</MiningSchema>
					<Node score="-0.003176337303536759">
						<True/>
						<Node score="0.01646385069574647">
							<SimplePredicate field="confirmed_3days" operator="greaterThan" value="43.833333333333336"/>
							<Node score="0.033728772173951434">
								<SimplePredicate field="confirmed_3days" operator="greaterThan" value="496.3333333333334"/>
							</Node>
						</Node>
						<Node score="0.009454887297029521">
							<SimplePredicate field="confirmed_3days" operator="greaterThan" value="8.500000000000002"/>
							<Node score="-6.357861774268887E-4">
								<SimplePredicate field="lon" operator="greaterThan" value="32.71495000000001"/>
							</Node>
						</Node>
					</Node>
				</TreeModel>
			</Segment>
			<Segment id="74">
				<True/>
				<TreeModel functionName="regression" noTrueChildStrategy="returnLastPrediction">
					<MiningSchema>
						<MiningField name="fatalities_3days"/>
						<MiningField name="since_16_cases"/>
					</MiningSchema>
					<Node score="-0.0035157290303982763">
						<True/>
						<Node score="0.01118756931723943">
							<SimplePredicate field="fatalities_3days" operator="greaterThan" value="0.5000000000000001"/>
							<Node score="0.024131596107483177">
								<SimplePredicate field="fatalities_3days" operator="greaterThan" value="3.1666666666666674"/>
								<Node score="0.04875434089262663">
									<SimplePredicate field="fatalities_3days" operator="greaterThan" value="160.00000000000003"/>
								</Node>
							</Node>
						</Node>
						<Node score="0.002536132966006426">
							<SimplePredicate field="since_16_cases" operator="lessOrEqual" value="31.500000000000004"/>
						</Node>
					</Node>
				</TreeModel>
			</Segment>
			<Segment id="75">
				<True/>
				<TreeModel functionName="regression" noTrueChildStrategy="returnLastPrediction">
					<MiningSchema>
						<MiningField name="confirmed_3days"/>
						<MiningField name="fatalities_3days"/>
						<MiningField name="since_16_cases"/>
					</MiningSchema>
					<Node score="-0.003440221223653183">
						<True/>
						<Node score="0.010066909823882218">
							<SimplePredicate field="confirmed_3days" operator="greaterThan" value="24.83333333333334"/>
							<Node score="0.022657333086646785">
								<SimplePredicate field="confirmed_3days" operator="greaterThan" value="108.83333333333336"/>
								<Node score="0.042933929049006156">
									<SimplePredicate field="fatalities_3days" operator="greaterThan" value="111.16666666666667"/>
								</Node>
							</Node>
						</Node>
						<Node score="0.0020520379374264794">
							<SimplePredicate field="since_16_cases" operator="lessOrEqual" value="30.500000000000004"/>
						</Node>
					</Node>
				</TreeModel>
			</Segment>
			<Segment id="76">
				<True/>
				<TreeModel functionName="regression" noTrueChildStrategy="returnLastPrediction">
					<MiningSchema>
						<MiningField name="confirmed_3days"/>
						<MiningField name="fatalities_3days"/>
						<MiningField name="since_4_cases"/>
					</MiningSchema>
					<Node score="-0.003744103087124626">
						<True/>
						<Node score="0.01824933096683938">
							<SimplePredicate field="fatalities_3days" operator="greaterThan" value="1.1666666666666667"/>
							<Node score="0.035903642745666695">
								<SimplePredicate field="confirmed_3days" operator="greaterThan" value="887.5000000000001"/>
							</Node>
						</Node>
						<Node score="0.007321901896693713">
							<SimplePredicate field="confirmed_3days" operator="greaterThan" value="13.833333333333334"/>
						</Node>
						<Node score="2.131148609807294E-4">
							<SimplePredicate field="since_4_cases" operator="lessOrEqual" value="32.50000000000001"/>
						</Node>
					</Node>
				</TreeModel>
			</Segment>
			<Segment id="77">
				<True/>
				<TreeModel functionName="regression" noTrueChildStrategy="returnLastPrediction">
					<MiningSchema>
						<MiningField name="fatalities_3days"/>
						<MiningField name="since_16_cases"/>
						<MiningField name="Americas"/>
					</MiningSchema>
					<Node score="-0.003385549384085328">
						<True/>
						<Node score="0.012801326417309019">
							<SimplePredicate field="fatalities_3days" operator="greaterThan" value="0.5000000000000001"/>
							<Node score="0.028417078726187223">
								<SimplePredicate field="fatalities_3days" operator="greaterThan" value="6.833333333333335"/>
							</Node>
						</Node>
						<Node score="-7.164392645729614E-5">
							<SimplePredicate field="since_16_cases" operator="lessOrEqual" value="31.500000000000004"/>
							<Node score="0.009101094420716566">
								<SimplePredicate field="Americas" operator="greaterThan" value="1.0000000180025095E-35"/>
							</Node>
						</Node>
					</Node>
				</TreeModel>
			</Segment>
			<Segment id="78">
				<True/>
				<TreeModel functionName="regression" noTrueChildStrategy="returnLastPrediction">
					<MiningSchema>
						<MiningField name="fatalities_3days"/>
						<MiningField name="since_4_cases"/>
					</MiningSchema>
					<Node score="-0.0036792587296170763">
						<True/>
						<Node score="0.017850707597800095">
							<SimplePredicate field="fatalities_3days" operator="greaterThan" value="1.1666666666666667"/>
							<Node score="0.03534940041207055">
								<SimplePredicate field="fatalities_3days" operator="greaterThan" value="30.83333333333334"/>
							</Node>
						</Node>
						<Node score="0.006972912428229892">
							<SimplePredicate field="fatalities_3days" operator="greaterThan" value="1.0000000180025095E-35"/>
						</Node>
						<Node score="-1.298630605060044E-4">
							<SimplePredicate field="since_4_cases" operator="lessOrEqual" value="45.50000000000001"/>
						</Node>
					</Node>
				</TreeModel>
			</Segment>
			<Segment id="79">
				<True/>
				<TreeModel functionName="regression" noTrueChildStrategy="returnLastPrediction">
					<MiningSchema>
						<MiningField name="confirmed_3days"/>
						<MiningField name="fatalities_3days"/>
						<MiningField name="since_1_cases"/>
					</MiningSchema>
					<Node score="-0.003916830500105763">
						<True/>
						<Node score="0.016569047092148168">
							<SimplePredicate field="confirmed_3days" operator="greaterThan" value="51.833333333333336"/>
							<Node score="0.033716414680837754">
								<SimplePredicate field="confirmed_3days" operator="greaterThan" value="764.5000000000001"/>
							</Node>
						</Node>
						<Node score="0.006251864692687326">
							<SimplePredicate field="fatalities_3days" operator="greaterThan" value="1.0000000180025095E-35"/>
						</Node>
						<Node score="-8.434321454254441E-4">
							<SimplePredicate field="since_1_cases" operator="lessOrEqual" value="61.50000000000001"/>
						</Node>
					</Node>
				</TreeModel>
			</Segment>
			<Segment id="80">
				<True/>
				<TreeModel functionName="regression" noTrueChildStrategy="returnLastPrediction">
					<MiningSchema>
						<MiningField name="confirmed_3days"/>
						<MiningField name="fatalities_3days"/>
						<MiningField name="since_16_cases"/>
					</MiningSchema>
					<Node score="-0.0032374380561892907">
						<True/>
						<Node score="0.009821402459146748">
							<SimplePredicate field="confirmed_3days" operator="greaterThan" value="24.500000000000004"/>
							<Node score="0.02234677676991952">
								<SimplePredicate field="confirmed_3days" operator="greaterThan" value="121.83333333333336"/>
								<Node score="0.04692262931605809">
									<SimplePredicate field="fatalities_3days" operator="greaterThan" value="177.33333333333337"/>
								</Node>
							</Node>
						</Node>
						<Node score="0.0018866564179748596">
							<SimplePredicate field="since_16_cases" operator="lessOrEqual" value="30.500000000000004"/>
						</Node>
					</Node>
				</TreeModel>
			</Segment>
			<Segment id="81">
				<True/>
				<TreeModel functionName="regression" noTrueChildStrategy="returnLastPrediction">
					<MiningSchema>
						<MiningField name="confirmed_3days"/>
						<MiningField name="lon"/>
					</MiningSchema>
					<Node score="-0.0028855422156384113">
						<True/>
						<Node score="0.016140073859340243">
							<SimplePredicate field="confirmed_3days" operator="greaterThan" value="51.833333333333336"/>
							<Node score="0.03290852104793263">
								<SimplePredicate field="confirmed_3days" operator="greaterThan" value="764.5000000000001"/>
							</Node>
						</Node>
						<Node score="0.00916005151266506">
							<SimplePredicate field="confirmed_3days" operator="greaterThan" value="8.500000000000002"/>
							<Node score="-9.026748048813911E-4">
								<SimplePredicate field="lon" operator="greaterThan" value="32.71495000000001"/>
							</Node>
						</Node>
					</Node>
				</TreeModel>
			</Segment>
			<Segment id="82">
				<True/>
				<TreeModel functionName="regression" noTrueChildStrategy="returnLastPrediction">
					<MiningSchema>
						<MiningField name="confirmed_3days"/>
						<MiningField name="fatalities_3days"/>
						<MiningField name="lon"/>
					</MiningSchema>
					<Node score="-0.0033629384441531407">
						<True/>
						<Node score="0.010084822265777315">
							<SimplePredicate field="fatalities_3days" operator="greaterThan" value="0.5000000000000001"/>
							<Node score="0.023808869324267255">
								<SimplePredicate field="fatalities_3days" operator="greaterThan" value="3.1666666666666674"/>
							</Node>
						</Node>
						<Node score="0.0049436738134967">
							<SimplePredicate field="confirmed_3days" operator="greaterThan" value="1.1666666666666667"/>
							<Node score="-0.0026831957943327695">
								<SimplePredicate field="lon" operator="greaterThan" value="38.4515"/>
							</Node>
						</Node>
					</Node>
				</TreeModel>
			</Segment>
			<Segment id="83">
				<True/>
				<TreeModel functionName="regression" noTrueChildStrategy="returnLastPrediction">
					<MiningSchema>
						<MiningField name="confirmed_3days"/>
						<MiningField name="fatalities_3days"/>
						<MiningField name="since_16_cases"/>
					</MiningSchema>
					<Node score="-0.0031210486549052194">
						<True/>
						<Node score="0.008778867018793173">
							<SimplePredicate field="confirmed_3days" operator="greaterThan" value="24.500000000000004"/>
							<Node score="0.02084221745419183">
								<SimplePredicate field="confirmed_3days" operator="greaterThan" value="101.50000000000001"/>
								<Node score="0.04451306802927455">
									<SimplePredicate field="fatalities_3days" operator="greaterThan" value="160.00000000000003"/>
								</Node>
							</Node>
						</Node>
						<Node score="0.0018255055811438239">
							<SimplePredicate field="since_16_cases" operator="lessOrEqual" value="30.500000000000004"/>
						</Node>
					</Node>
				</TreeModel>
			</Segment>
			<Segment id="84">
				<True/>
				<TreeModel functionName="regression" noTrueChildStrategy="returnLastPrediction">
					<MiningSchema>
						<MiningField name="confirmed_3days"/>
						<MiningField name="fatalities_3days"/>
						<MiningField name="lon"/>
					</MiningSchema>
					<Node score="-0.0026723986230971016">
						<True/>
						<Node score="0.0165868686205564">
							<SimplePredicate field="fatalities_3days" operator="greaterThan" value="1.1666666666666667"/>
							<Node score="0.03301903026778022">
								<SimplePredicate field="fatalities_3days" operator="greaterThan" value="30.83333333333334"/>
							</Node>
						</Node>
						<Node score="0.011091510173360443">
							<SimplePredicate field="confirmed_3days" operator="greaterThan" value="13.833333333333334"/>
							<Node score="-0.00129652837383926">
								<SimplePredicate field="lon" operator="greaterThan" value="47.223000000000006"/>
							</Node>
						</Node>
					</Node>
				</TreeModel>
			</Segment>
			<Segment id="85">
				<True/>
				<TreeModel functionName="regression" noTrueChildStrategy="returnLastPrediction">
					<MiningSchema>
						<MiningField name="confirmed_3days"/>
						<MiningField name="fatalities_3days"/>
						<MiningField name="since_1_cases"/>
					</MiningSchema>
					<Node score="-0.0036599657421638233">
						<True/>
						<Node score="0.015184360739417556">
							<SimplePredicate field="confirmed_3days" operator="greaterThan" value="51.833333333333336"/>
							<Node score="0.030798900201763582">
								<SimplePredicate field="fatalities_3days" operator="greaterThan" value="22.166666666666668"/>
							</Node>
						</Node>
						<Node score="0.005919065261942728">
							<SimplePredicate field="fatalities_3days" operator="greaterThan" value="1.0000000180025095E-35"/>
						</Node>
						<Node score="-7.319979936264576E-4">
							<SimplePredicate field="since_1_cases" operator="lessOrEqual" value="59.50000000000001"/>
						</Node>
					</Node>
				</TreeModel>
			</Segment>
			<Segment id="86">
				<True/>
				<TreeModel functionName="regression" noTrueChildStrategy="returnLastPrediction">
					<MiningSchema>
						<MiningField name="confirmed_3days"/>
						<MiningField name="fatalities_3days"/>
						<MiningField name="lon"/>
					</MiningSchema>
					<Node score="-0.0026073578129291375">
						<True/>
						<Node score="0.016118648936378478">
							<SimplePredicate field="fatalities_3days" operator="greaterThan" value="1.1666666666666667"/>
							<Node score="0.0319679034432927">
								<SimplePredicate field="confirmed_3days" operator="greaterThan" value="887.5000000000001"/>
							</Node>
						</Node>
						<Node score="0.010866881972780813">
							<SimplePredicate field="confirmed_3days" operator="greaterThan" value="13.833333333333334"/>
							<Node score="-0.0013445689264605367">
								<SimplePredicate field="lon" operator="greaterThan" value="47.223000000000006"/>
							</Node>
						</Node>
					</Node>
				</TreeModel>
			</Segment>
			<Segment id="87">
				<True/>
				<TreeModel functionName="regression" noTrueChildStrategy="returnLastPrediction">
					<MiningSchema>
						<MiningField name="fatalities_3days"/>
						<MiningField name="since_16_cases"/>
						<MiningField name="lon"/>
					</MiningSchema>
					<Node score="-0.0030073002680006456">
						<True/>
						<Node score="0.010405986685948053">
							<SimplePredicate field="fatalities_3days" operator="greaterThan" value="0.5000000000000001"/>
							<Node score="0.023690294176564607">
								<SimplePredicate field="fatalities_3days" operator="greaterThan" value="4.500000000000001"/>
							</Node>
						</Node>
						<Node score="0.005503264761033736">
							<SimplePredicate field="since_16_cases" operator="lessOrEqual" value="31.500000000000004"/>
							<Node score="-0.002592032421740301">
								<SimplePredicate field="lon" operator="greaterThan" value="38.4515"/>
							</Node>
						</Node>
					</Node>
				</TreeModel>
			</Segment>
			<Segment id="88">
				<True/>
				<TreeModel functionName="regression" noTrueChildStrategy="returnLastPrediction">
					<MiningSchema>
						<MiningField name="fatalities_3days"/>
						<MiningField name="since_1_cases"/>
					</MiningSchema>
					<Node score="-0.0035308900196411135">
						<True/>
						<Node score="0.01591181378581747">
							<SimplePredicate field="fatalities_3days" operator="greaterThan" value="1.1666666666666667"/>
							<Node score="0.032292826562329284">
								<SimplePredicate field="fatalities_3days" operator="greaterThan" value="37.16666666666668"/>
							</Node>
						</Node>
						<Node score="0.006292287618397684">
							<SimplePredicate field="fatalities_3days" operator="greaterThan" value="1.0000000180025095E-35"/>
						</Node>
						<Node score="-6.390264272108298E-4">
							<SimplePredicate field="since_1_cases" operator="lessOrEqual" value="61.50000000000001"/>
						</Node>
					</Node>
				</TreeModel>
			</Segment>
			<Segment id="89">
				<True/>
				<TreeModel functionName="regression" noTrueChildStrategy="returnLastPrediction">
					<MiningSchema>
						<MiningField name="confirmed_3days"/>
						<MiningField name="fatalities_3days"/>
						<MiningField name="since_4_cases"/>
					</MiningSchema>
					<Node score="-0.0031258248829090724">
						<True/>
						<Node score="0.008106974468738776">
							<SimplePredicate field="confirmed_3days" operator="greaterThan" value="24.500000000000004"/>
							<Node score="0.01947132023438943">
								<SimplePredicate field="confirmed_3days" operator="greaterThan" value="101.50000000000001"/>
								<Node score="0.04302837195530399">
									<SimplePredicate field="fatalities_3days" operator="greaterThan" value="177.33333333333337"/>
								</Node>
							</Node>
						</Node>
						<Node score="8.727731946719633E-4">
							<SimplePredicate field="since_4_cases" operator="lessOrEqual" value="34.50000000000001"/>
						</Node>
					</Node>
				</TreeModel>
			</Segment>
			<Segment id="90">
				<True/>
				<TreeModel functionName="regression" noTrueChildStrategy="returnLastPrediction">
					<MiningSchema>
						<MiningField name="confirmed_3days"/>
						<MiningField name="fatalities_3days"/>
						<MiningField name="since_4_cases"/>
					</MiningSchema>
					<Node score="-0.003176063997979901">
						<True/>
						<Node score="0.01430307119516873">
							<SimplePredicate field="confirmed_3days" operator="greaterThan" value="51.833333333333336"/>
							<Node score="0.029175713876967203">
								<SimplePredicate field="confirmed_3days" operator="greaterThan" value="695.8333333333334"/>
							</Node>
						</Node>
						<Node score="0.005571088914484795">
							<SimplePredicate field="fatalities_3days" operator="greaterThan" value="1.0000000180025095E-35"/>
						</Node>
						<Node score="6.997675036766667E-6">
							<SimplePredicate field="since_4_cases" operator="lessOrEqual" value="35.50000000000001"/>
						</Node>
					</Node>
				</TreeModel>
			</Segment>
			<Segment id="91">
				<True/>
				<TreeModel functionName="regression" noTrueChildStrategy="returnLastPrediction">
					<MiningSchema>
						<MiningField name="confirmed_3days"/>
						<MiningField name="fatalities_3days"/>
						<MiningField name="since_4_cases"/>
					</MiningSchema>
					<Node score="-0.003046590536483816">
						<True/>
						<Node score="0.008781871304212447">
							<SimplePredicate field="confirmed_3days" operator="greaterThan" value="24.500000000000004"/>
							<Node score="0.01986200419887038">
								<SimplePredicate field="confirmed_3days" operator="greaterThan" value="133.1666666666667"/>
								<Node score="0.04209086056026237">
									<SimplePredicate field="fatalities_3days" operator="greaterThan" value="177.33333333333337"/>
								</Node>
							</Node>
						</Node>
						<Node score="8.470003710095542E-4">
							<SimplePredicate field="since_4_cases" operator="lessOrEqual" value="34.50000000000001"/>
						</Node>
					</Node>
				</TreeModel>
			</Segment>
			<Segment id="92">
				<True/>
				<TreeModel functionName="regression" noTrueChildStrategy="returnLastPrediction">
					<MiningSchema>
						<MiningField name="fatalities_3days"/>
						<MiningField name="since_16_cases"/>
						<MiningField name="Americas"/>
					</MiningSchema>
					<Node score="-0.0028329126370897546">
						<True/>
						<Node score="0.008859416489270676">
							<SimplePredicate field="fatalities_3days" operator="greaterThan" value="0.5000000000000001"/>
							<Node score="0.021156655021450057">
								<SimplePredicate field="fatalities_3days" operator="greaterThan" value="3.1666666666666674"/>
							</Node>
						</Node>
						<Node score="-3.1373142219278023E-4">
							<SimplePredicate field="since_16_cases" operator="lessOrEqual" value="31.500000000000004"/>
							<Node score="0.008472214301968204">
								<SimplePredicate field="Americas" operator="greaterThan" value="1.0000000180025095E-35"/>
							</Node>
						</Node>
					</Node>
				</TreeModel>
			</Segment>
			<Segment id="93">
				<True/>
				<TreeModel functionName="regression" noTrueChildStrategy="returnLastPrediction">
					<MiningSchema>
						<MiningField name="confirmed_3days"/>
						<MiningField name="fatalities_3days"/>
						<MiningField name="since_1_cases"/>
					</MiningSchema>
					<Node score="-0.0033369812852373955">
						<True/>
						<Node score="0.017032785015609484">
							<SimplePredicate field="confirmed_3days" operator="greaterThan" value="78.83333333333336"/>
							<Node score="0.035501628942137466">
								<SimplePredicate field="fatalities_3days" operator="greaterThan" value="111.16666666666667"/>
							</Node>
						</Node>
						<Node score="0.006237004223069182">
							<SimplePredicate field="fatalities_3days" operator="greaterThan" value="1.0000000180025095E-35"/>
						</Node>
						<Node score="-6.57386015947777E-4">
							<SimplePredicate field="since_1_cases" operator="lessOrEqual" value="61.50000000000001"/>
						</Node>
					</Node>
				</TreeModel>
			</Segment>
			<Segment id="94">
				<True/>
				<TreeModel functionName="regression" noTrueChildStrategy="returnLastPrediction">
					<MiningSchema>
						<MiningField name="confirmed_3days"/>
						<MiningField name="since_16_cases"/>
						<MiningField name="lon"/>
					</MiningSchema>
					<Node score="-0.0027388007044529083">
						<True/>
						<Node score="0.012532882658764883">
							<SimplePredicate field="confirmed_3days" operator="greaterThan" value="24.500000000000004"/>
							<Node score="0.022129906874226238">
								<SimplePredicate field="confirmed_3days" operator="greaterThan" value="181.50000000000003"/>
							</Node>
							<Node score="0.0023571791768620025">
								<SimplePredicate field="lon" operator="greaterThan" value="32.71495000000001"/>
							</Node>
						</Node>
						<Node score="0.0016494781416385277">
							<SimplePredicate field="since_16_cases" operator="lessOrEqual" value="30.500000000000004"/>
						</Node>
					</Node>
				</TreeModel>
			</Segment>
			<Segment id="95">
				<True/>
				<TreeModel functionName="regression" noTrueChildStrategy="returnLastPrediction">
					<MiningSchema>
						<MiningField name="fatalities_3days"/>
						<MiningField name="lon"/>
					</MiningSchema>
					<Node score="-0.002309273345322853">
						<True/>
						<Node score="0.014446491878523282">
							<SimplePredicate field="fatalities_3days" operator="greaterThan" value="1.1666666666666667"/>
							<Node score="0.02915498317237822">
								<SimplePredicate field="fatalities_3days" operator="greaterThan" value="30.83333333333334"/>
							</Node>
						</Node>
						<Node score="0.007970226495586652">
							<SimplePredicate field="fatalities_3days" operator="greaterThan" value="1.0000000180025095E-35"/>
							<Node score="-0.0028371667831059958">
								<SimplePredicate field="lon" operator="greaterThan" value="101.02915000000002"/>
							</Node>
						</Node>
					</Node>
				</TreeModel>
			</Segment>
			<Segment id="96">
				<True/>
				<TreeModel functionName="regression" noTrueChildStrategy="returnLastPrediction">
					<MiningSchema>
						<MiningField name="confirmed_3days"/>
						<MiningField name="fatalities_3days"/>
						<MiningField name="since_1_cases"/>
					</MiningSchema>
					<Node score="-0.0032284963824116804">
						<True/>
						<Node score="0.01677180860876249">
							<SimplePredicate field="confirmed_3days" operator="greaterThan" value="78.83333333333336"/>
							<Node score="0.03857947807688432">
								<SimplePredicate field="fatalities_3days" operator="greaterThan" value="150.83333333333334"/>
							</Node>
						</Node>
						<Node score="0.00599880496536537">
							<SimplePredicate field="fatalities_3days" operator="greaterThan" value="1.0000000180025095E-35"/>
						</Node>
						<Node score="-6.09151452128532E-4">
							<SimplePredicate field="since_1_cases" operator="lessOrEqual" value="61.50000000000001"/>
						</Node>
					</Node>
				</TreeModel>
			</Segment>
			<Segment id="97">
				<True/>
				<TreeModel functionName="regression" noTrueChildStrategy="returnLastPrediction">
					<MiningSchema>
						<MiningField name="confirmed_3days"/>
						<MiningField name="since_4_cases"/>
						<MiningField name="lon"/>
					</MiningSchema>
					<Node score="-0.0028414326262916918">
						<True/>
						<Node score="0.012126125952381116">
							<SimplePredicate field="confirmed_3days" operator="greaterThan" value="24.500000000000004"/>
							<Node score="0.0213466093988949">
								<SimplePredicate field="confirmed_3days" operator="greaterThan" value="181.50000000000003"/>
							</Node>
							<Node score="0.002188502586272221">
								<SimplePredicate field="lon" operator="greaterThan" value="32.71495000000001"/>
							</Node>
						</Node>
						<Node score="8.12615199044803E-4">
