<?xml version="1.0" encoding="UTF-8" standalone="yes"?>
<PMML xmlns="http://www.dmg.org/PMML-4_3" xmlns:data="http://jpmml.org/jpmml-model/InlineTable" version="4.3">
	<Header>
		<Application name="JPMML-LightGBM" version="1.2-SNAPSHOT"/>
		<Timestamp>2020-04-25T01:59:22Z</Timestamp>
	</Header>
	<DataDictionary>
		<DataField name="_target" optype="continuous" dataType="double"/>
		<DataField name="confirmed_9_ago" optype="continuous" dataType="double">
			<Interval closure="closedClosed" leftMargin="0.0" rightMargin="195749.0"/>
		</DataField>
		<DataField name="recovered_9_ago" optype="continuous" dataType="double">
			<Interval closure="closedClosed" leftMargin="0.0" rightMargin="64727.0"/>
		</DataField>
		<DataField name="confirmed_3days" optype="continuous" dataType="double">
			<Interval closure="closedClosed" leftMargin="0.0" rightMargin="11433.0"/>
		</DataField>
		<DataField name="fatalities_3days" optype="continuous" dataType="double">
			<Interval closure="closedClosed" leftMargin="0.0" rightMargin="1099.6666666666667"/>
		</DataField>
		<DataField name="since_1_cases" optype="continuous" dataType="double">
			<Interval closure="closedClosed" leftMargin="9.0" rightMargin="91.0"/>
		</DataField>
		<DataField name="since_4_cases" optype="continuous" dataType="double">
			<Interval closure="closedClosed" leftMargin="9.0" rightMargin="91.0"/>
		</DataField>
		<DataField name="since_16_cases" optype="continuous" dataType="double">
			<Interval closure="closedClosed" leftMargin="9.0" rightMargin="91.0"/>
		</DataField>
		<DataField name="since_64_cases" optype="continuous" dataType="double">
			<Interval closure="closedClosed" leftMargin="9.0" rightMargin="91.0"/>
		</DataField>
		<DataField name="lat" optype="continuous" dataType="double">
			<Interval closure="closedClosed" leftMargin="-51.7963" rightMargin="71.7069"/>
		</DataField>
		<DataField name="lon" optype="continuous" dataType="double">
			<Interval closure="closedClosed" leftMargin="-157.4983" rightMargin="178.065"/>
		</DataField>
		<DataField name="population" optype="continuous" dataType="double">
			<Interval closure="closedClosed" leftMargin="799.0" rightMargin="1.366417754E9"/>
		</DataField>
		<DataField name="area" optype="continuous" dataType="double">
			<Interval closure="closedClosed" leftMargin="0.0" rightMargin="1.7098246E7"/>
		</DataField>
	</DataDictionary>
	<MiningModel functionName="regression" algorithmName="LightGBM">
		<MiningSchema>
			<MiningField name="_target" usageType="target"/>
			<MiningField name="confirmed_9_ago" importance="47.0" invalidValueTreatment="asIs"/>
			<MiningField name="recovered_9_ago" importance="6.0" invalidValueTreatment="asIs"/>
			<MiningField name="confirmed_3days" importance="425.0" invalidValueTreatment="asIs"/>
			<MiningField name="fatalities_3days" importance="46.0" invalidValueTreatment="asIs"/>
			<MiningField name="since_1_cases" importance="81.0" invalidValueTreatment="asIs"/>
			<MiningField name="since_4_cases" importance="36.0" invalidValueTreatment="asIs"/>
			<MiningField name="since_16_cases" importance="26.0" invalidValueTreatment="asIs"/>
			<MiningField name="since_64_cases" importance="12.0" invalidValueTreatment="asIs"/>
			<MiningField name="lat" importance="41.0" invalidValueTreatment="asIs"/>
			<MiningField name="lon" importance="43.0" invalidValueTreatment="asIs"/>
			<MiningField name="population" importance="34.0" invalidValueTreatment="asIs"/>
			<MiningField name="area" importance="3.0" invalidValueTreatment="asIs"/>
		</MiningSchema>
		<Segmentation multipleModelMethod="sum">
			<Segment id="1">
				<True/>
				<TreeModel functionName="regression" noTrueChildStrategy="returnLastPrediction">
					<MiningSchema>
						<MiningField name="confirmed_3days"/>
					</MiningSchema>
					<Node score="2.312748702498124">
						<True/>
						<Node score="2.3702065839397175">
							<SimplePredicate field="confirmed_3days" operator="greaterThan" value="2.5000000000000004"/>
							<Node score="2.4003504653099883">
								<SimplePredicate field="confirmed_3days" operator="greaterThan" value="55.16666666666668"/>
								<Node score="2.427356709587012">
									<SimplePredicate field="confirmed_3days" operator="greaterThan" value="333.8333333333334"/>
								</Node>
							</Node>
						</Node>
						<Node score="2.338172483534521">
							<SimplePredicate field="confirmed_3days" operator="greaterThan" value="1.0000000180025095E-35"/>
						</Node>
					</Node>
				</TreeModel>
			</Segment>
			<Segment id="2">
				<True/>
				<TreeModel functionName="regression" noTrueChildStrategy="returnLastPrediction">
					<MiningSchema>
						<MiningField name="confirmed_3days"/>
					</MiningSchema>
					<Node score="-0.023296633169524832">
						<True/>
						<Node score="0.0321778498904506">
							<SimplePredicate field="confirmed_3days" operator="greaterThan" value="2.5000000000000004"/>
							<Node score="0.06156085477227475">
								<SimplePredicate field="confirmed_3days" operator="greaterThan" value="43.833333333333336"/>
								<Node score="0.08982164682270105">
									<SimplePredicate field="confirmed_3days" operator="greaterThan" value="333.8333333333334"/>
								</Node>
							</Node>
						</Node>
						<Node score="0.0017966427407936005">
							<SimplePredicate field="confirmed_3days" operator="greaterThan" value="1.0000000180025095E-35"/>
						</Node>
					</Node>
				</TreeModel>
			</Segment>
			<Segment id="3">
				<True/>
				<TreeModel functionName="regression" noTrueChildStrategy="returnLastPrediction">
					<MiningSchema>
						<MiningField name="confirmed_3days"/>
					</MiningSchema>
					<Node score="-0.02299377996121526">
						<True/>
						<Node score="0.030562861651144007">
							<SimplePredicate field="confirmed_3days" operator="greaterThan" value="2.1666666666666674"/>
							<Node score="0.06036563868066275">
								<SimplePredicate field="confirmed_3days" operator="greaterThan" value="41.50000000000001"/>
								<Node score="0.08865413299749247">
									<SimplePredicate field="confirmed_3days" operator="greaterThan" value="333.8333333333334"/>
								</Node>
							</Node>
						</Node>
						<Node score="9.348901604441504E-4">
							<SimplePredicate field="confirmed_3days" operator="greaterThan" value="1.0000000180025095E-35"/>
						</Node>
					</Node>
				</TreeModel>
			</Segment>
			<Segment id="4">
				<True/>
				<TreeModel functionName="regression" noTrueChildStrategy="returnLastPrediction">
					<MiningSchema>
						<MiningField name="confirmed_3days"/>
						<MiningField name="since_1_cases"/>
					</MiningSchema>
					<Node score="-0.02364887913075852">
						<True/>
						<Node score="0.03254504637270639">
							<SimplePredicate field="confirmed_3days" operator="greaterThan" value="2.5000000000000004"/>
							<Node score="0.061581453893124284">
								<SimplePredicate field="confirmed_3days" operator="greaterThan" value="55.16666666666668"/>
								<Node score="0.08750179873682551">
									<SimplePredicate field="confirmed_3days" operator="greaterThan" value="333.8333333333334"/>
								</Node>
							</Node>
						</Node>
						<Node score="-0.0015023666787512035">
							<SimplePredicate field="since_1_cases" operator="lessOrEqual" value="46.50000000000001"/>
						</Node>
					</Node>
				</TreeModel>
			</Segment>
			<Segment id="5">
				<True/>
				<TreeModel functionName="regression" noTrueChildStrategy="returnLastPrediction">
					<MiningSchema>
						<MiningField name="confirmed_3days"/>
					</MiningSchema>
					<Node score="-0.02241995641611854">
						<True/>
						<Node score="0.029144608077119473">
							<SimplePredicate field="confirmed_3days" operator="greaterThan" value="2.1666666666666674"/>
							<Node score="0.05603022397962158">
								<SimplePredicate field="confirmed_3days" operator="greaterThan" value="36.833333333333336"/>
								<Node score="0.08238293258803021">
									<SimplePredicate field="confirmed_3days" operator="greaterThan" value="209.33333333333334"/>
								</Node>
							</Node>
						</Node>
						<Node score="9.861507158735864E-4">
							<SimplePredicate field="confirmed_3days" operator="greaterThan" value="1.0000000180025095E-35"/>
						</Node>
					</Node>
				</TreeModel>
			</Segment>
			<Segment id="6">
				<True/>
				<TreeModel functionName="regression" noTrueChildStrategy="returnLastPrediction">
					<MiningSchema>
						<MiningField name="confirmed_3days"/>
					</MiningSchema>
					<Node score="-0.02212849977356511">
						<True/>
						<Node score="0.03053585359466244">
							<SimplePredicate field="confirmed_3days" operator="greaterThan" value="2.5000000000000004"/>
							<Node score="0.058448745423097415">
								<SimplePredicate field="confirmed_3days" operator="greaterThan" value="43.833333333333336"/>
								<Node score="0.08529361869735472">
									<SimplePredicate field="confirmed_3days" operator="greaterThan" value="333.8333333333334"/>
								</Node>
							</Node>
						</Node>
						<Node score="0.0017630060353117586">
							<SimplePredicate field="confirmed_3days" operator="greaterThan" value="1.0000000180025095E-35"/>
						</Node>
					</Node>
				</TreeModel>
			</Segment>
			<Segment id="7">
				<True/>
				<TreeModel functionName="regression" noTrueChildStrategy="returnLastPrediction">
					<MiningSchema>
						<MiningField name="confirmed_3days"/>
						<MiningField name="since_1_cases"/>
					</MiningSchema>
					<Node score="-0.0228691905032031">
						<True/>
						<Node score="0.028388015549642567">
							<SimplePredicate field="confirmed_3days" operator="greaterThan" value="2.1666666666666674"/>
							<Node score="0.05434329719031264">
								<SimplePredicate field="confirmed_3days" operator="greaterThan" value="36.833333333333336"/>
								<Node score="0.07993179625649886">
									<SimplePredicate field="confirmed_3days" operator="greaterThan" value="198.50000000000003"/>
								</Node>
							</Node>
						</Node>
						<Node score="-0.0019487718015259237">
							<SimplePredicate field="since_1_cases" operator="lessOrEqual" value="46.50000000000001"/>
						</Node>
					</Node>
				</TreeModel>
			</Segment>
			<Segment id="8">
				<True/>
				<TreeModel functionName="regression" noTrueChildStrategy="returnLastPrediction">
					<MiningSchema>
						<MiningField name="confirmed_3days"/>
						<MiningField name="since_1_cases"/>
					</MiningSchema>
					<Node score="-0.022491198682183404">
						<True/>
						<Node score="0.022534357133943566">
							<SimplePredicate field="confirmed_3days" operator="greaterThan" value="2.5000000000000004"/>
							<Node score="0.07042397736473367">
								<SimplePredicate field="confirmed_3days" operator="greaterThan" value="78.16666666666667"/>
							</Node>
							<Node score="0.041995659111712276">
								<SimplePredicate field="confirmed_3days" operator="greaterThan" value="12.16666666666667"/>
							</Node>
						</Node>
						<Node score="-0.0013020907651122055">
							<SimplePredicate field="since_1_cases" operator="lessOrEqual" value="46.50000000000001"/>
						</Node>
					</Node>
				</TreeModel>
			</Segment>
			<Segment id="9">
				<True/>
				<TreeModel functionName="regression" noTrueChildStrategy="returnLastPrediction">
					<MiningSchema>
						<MiningField name="confirmed_3days"/>
					</MiningSchema>
					<Node score="-0.021312998439269766">
						<True/>
						<Node score="0.02524290234235586">
							<SimplePredicate field="confirmed_3days" operator="greaterThan" value="3.1666666666666674"/>
							<Node score="0.07048953813372959">
								<SimplePredicate field="confirmed_3days" operator="greaterThan" value="84.83333333333336"/>
							</Node>
							<Node score="0.04340094973659763">
								<SimplePredicate field="confirmed_3days" operator="greaterThan" value="15.833333333333334"/>
							</Node>
						</Node>
						<Node score="0.002943893302300837">
							<SimplePredicate field="confirmed_3days" operator="greaterThan" value="1.0000000180025095E-35"/>
						</Node>
					</Node>
				</TreeModel>
			</Segment>
			<Segment id="10">
				<True/>
				<TreeModel functionName="regression" noTrueChildStrategy="returnLastPrediction">
					<MiningSchema>
						<MiningField name="confirmed_9_ago"/>
						<MiningField name="fatalities_3days"/>
						<MiningField name="since_16_cases"/>
						<MiningField name="lon"/>
					</MiningSchema>
					<Node score="-0.02290188319615193">
						<True/>
						<Node score="0.061193256520519844">
							<SimplePredicate field="since_16_cases" operator="lessOrEqual" value="54.50000000000001"/>
							<Node score="0.030455478255308418">
								<SimplePredicate field="fatalities_3days" operator="lessOrEqual" value="0.8333333333333334"/>
								<Node score="0.005841874278952157">
									<SimplePredicate field="lon" operator="greaterThan" value="84.74505"/>
								</Node>
							</Node>
						</Node>
						<Node score="-5.3433090294057396E-5">
							<SimplePredicate field="confirmed_9_ago" operator="greaterThan" value="1.0000000180025095E-35"/>
						</Node>
					</Node>
				</TreeModel>
			</Segment>
			<Segment id="11">
				<True/>
				<TreeModel functionName="regression" noTrueChildStrategy="returnLastPrediction">
					<MiningSchema>
						<MiningField name="confirmed_3days"/>
						<MiningField name="since_1_cases"/>
					</MiningSchema>
					<Node score="-0.021749947439135758">
						<True/>
						<Node score="0.026765634862382027">
							<SimplePredicate field="confirmed_3days" operator="greaterThan" value="2.1666666666666674"/>
							<Node score="0.053443004785306565">
								<SimplePredicate field="confirmed_3days" operator="greaterThan" value="35.50000000000001"/>
								<Node score="0.08030427518757122">
									<SimplePredicate field="confirmed_3days" operator="greaterThan" value="323.00000000000006"/>
								</Node>
							</Node>
						</Node>
						<Node score="-0.0018765494475892455">
							<SimplePredicate field="since_1_cases" operator="lessOrEqual" value="46.50000000000001"/>
						</Node>
					</Node>
				</TreeModel>
			</Segment>
			<Segment id="12">
				<True/>
				<TreeModel functionName="regression" noTrueChildStrategy="returnLastPrediction">
					<MiningSchema>
						<MiningField name="confirmed_3days"/>
					</MiningSchema>
					<Node score="-0.020542757768710392">
						<True/>
						<Node score="0.024259716276545745">
							<SimplePredicate field="confirmed_3days" operator="greaterThan" value="3.1666666666666674"/>
							<Node score="0.06800977176062793">
								<SimplePredicate field="confirmed_3days" operator="greaterThan" value="84.83333333333336"/>
							</Node>
							<Node score="0.041858372043894754">
								<SimplePredicate field="confirmed_3days" operator="greaterThan" value="15.833333333333334"/>
							</Node>
						</Node>
						<Node score="0.0028334961239264477">
							<SimplePredicate field="confirmed_3days" operator="greaterThan" value="1.0000000180025095E-35"/>
						</Node>
					</Node>
				</TreeModel>
			</Segment>
			<Segment id="13">
				<True/>
				<TreeModel functionName="regression" noTrueChildStrategy="returnLastPrediction">
					<MiningSchema>
						<MiningField name="confirmed_3days"/>
						<MiningField name="since_1_cases"/>
					</MiningSchema>
					<Node score="-0.021191038530168193">
						<True/>
						<Node score="0.025227014007447215">
							<SimplePredicate field="confirmed_3days" operator="greaterThan" value="1.8333333333333337"/>
							<Node score="0.05132006622365666">
								<SimplePredicate field="confirmed_3days" operator="greaterThan" value="35.50000000000001"/>
								<Node score="0.07677980239894022">
									<SimplePredicate field="confirmed_3days" operator="greaterThan" value="264.8333333333334"/>
								</Node>
							</Node>
						</Node>
						<Node score="-0.0023878515437672624">
							<SimplePredicate field="since_1_cases" operator="lessOrEqual" value="44.50000000000001"/>
						</Node>
					</Node>
				</TreeModel>
			</Segment>
			<Segment id="14">
				<True/>
				<TreeModel functionName="regression" noTrueChildStrategy="returnLastPrediction">
					<MiningSchema>
						<MiningField name="confirmed_3days"/>
					</MiningSchema>
					<Node score="-0.020026901681178648">
						<True/>
						<Node score="0.022741095244076418">
							<SimplePredicate field="confirmed_3days" operator="greaterThan" value="3.1666666666666674"/>
							<Node score="0.06629148664723772">
								<SimplePredicate field="confirmed_3days" operator="greaterThan" value="84.83333333333336"/>
							</Node>
							<Node score="0.03997620636839613">
								<SimplePredicate field="confirmed_3days" operator="greaterThan" value="13.500000000000002"/>
							</Node>
						</Node>
						<Node score="0.0027798835367692986">
							<SimplePredicate field="confirmed_3days" operator="greaterThan" value="1.0000000180025095E-35"/>
						</Node>
					</Node>
				</TreeModel>
			</Segment>
			<Segment id="15">
				<True/>
				<TreeModel functionName="regression" noTrueChildStrategy="returnLastPrediction">
					<MiningSchema>
						<MiningField name="confirmed_3days"/>
						<MiningField name="since_1_cases"/>
					</MiningSchema>
					<Node score="-0.02066626007996667">
						<True/>
						<Node score="0.024581580109097858">
							<SimplePredicate field="confirmed_3days" operator="greaterThan" value="1.8333333333333337"/>
							<Node score="0.050751302772634">
								<SimplePredicate field="confirmed_3days" operator="greaterThan" value="35.50000000000001"/>
								<Node score="0.07676760041641319">
									<SimplePredicate field="confirmed_3days" operator="greaterThan" value="333.8333333333334"/>
								</Node>
							</Node>
						</Node>
						<Node score="-0.002275566663751461">
							<SimplePredicate field="since_1_cases" operator="lessOrEqual" value="44.50000000000001"/>
						</Node>
					</Node>
				</TreeModel>
			</Segment>
			<Segment id="16">
				<True/>
				<TreeModel functionName="regression" noTrueChildStrategy="returnLastPrediction">
					<MiningSchema>
						<MiningField name="confirmed_9_ago"/>
						<MiningField name="since_16_cases"/>
						<MiningField name="lon"/>
					</MiningSchema>
					<Node score="-0.021249876249452092">
						<True/>
						<Node score="0.032105306648308685">
							<SimplePredicate field="since_16_cases" operator="lessOrEqual" value="54.50000000000001"/>
							<Node score="0.06591740610712794">
								<SimplePredicate field="confirmed_9_ago" operator="greaterThan" value="1355.5000000000002"/>
							</Node>
							<Node score="0.0069643526671216965">
								<SimplePredicate field="lon" operator="greaterThan" value="79.50000000000001"/>
							</Node>
						</Node>
						<Node score="6.229167995430439E-5">
							<SimplePredicate field="confirmed_9_ago" operator="greaterThan" value="1.0000000180025095E-35"/>
						</Node>
					</Node>
				</TreeModel>
			</Segment>
			<Segment id="17">
				<True/>
				<TreeModel functionName="regression" noTrueChildStrategy="returnLastPrediction">
					<MiningSchema>
						<MiningField name="confirmed_9_ago"/>
						<MiningField name="fatalities_3days"/>
						<MiningField name="since_16_cases"/>
						<MiningField name="lon"/>
					</MiningSchema>
					<Node score="-0.02097363057923324">
						<True/>
						<Node score="0.05606421112007354">
							<SimplePredicate field="since_16_cases" operator="lessOrEqual" value="54.50000000000001"/>
							<Node score="0.027944039009310685">
								<SimplePredicate field="fatalities_3days" operator="lessOrEqual" value="0.8333333333333334"/>
								<Node score="0.004948763160978402">
									<SimplePredicate field="lon" operator="greaterThan" value="84.74505"/>
								</Node>
							</Node>
						</Node>
						<Node score="6.148164771992812E-5">
							<SimplePredicate field="confirmed_9_ago" operator="greaterThan" value="1.0000000180025095E-35"/>
						</Node>
					</Node>
				</TreeModel>
			</Segment>
			<Segment id="18">
				<True/>
				<TreeModel functionName="regression" noTrueChildStrategy="returnLastPrediction">
					<MiningSchema>
						<MiningField name="confirmed_3days"/>
					</MiningSchema>
					<Node score="-0.01908273362217133">
						<True/>
						<Node score="0.023093428535399828">
							<SimplePredicate field="confirmed_3days" operator="greaterThan" value="3.5000000000000004"/>
							<Node score="0.06326974431895394">
								<SimplePredicate field="confirmed_3days" operator="greaterThan" value="84.83333333333336"/>
							</Node>
							<Node score="0.0390380631012734">
								<SimplePredicate field="confirmed_3days" operator="greaterThan" value="15.833333333333334"/>
							</Node>
						</Node>
						<Node score="0.003016507363723917">
							<SimplePredicate field="confirmed_3days" operator="greaterThan" value="1.0000000180025095E-35"/>
						</Node>
					</Node>
				</TreeModel>
			</Segment>
			<Segment id="19">
				<True/>
				<TreeModel functionName="regression" noTrueChildStrategy="returnLastPrediction">
					<MiningSchema>
						<MiningField name="confirmed_3days"/>
					</MiningSchema>
					<Node score="-0.01883465976366219">
						<True/>
						<Node score="0.022793229996826824">
							<SimplePredicate field="confirmed_3days" operator="greaterThan" value="3.5000000000000004"/>
							<Node score="0.06293541942825245">
								<SimplePredicate field="confirmed_3days" operator="greaterThan" value="89.83333333333336"/>
							</Node>
							<Node score="0.03873553133296963">
								<SimplePredicate field="confirmed_3days" operator="greaterThan" value="15.833333333333334"/>
							</Node>
						</Node>
						<Node score="0.002977293799989106">
							<SimplePredicate field="confirmed_3days" operator="greaterThan" value="1.0000000180025095E-35"/>
						</Node>
					</Node>
				</TreeModel>
			</Segment>
			<Segment id="20">
				<True/>
				<TreeModel functionName="regression" noTrueChildStrategy="returnLastPrediction">
					<MiningSchema>
						<MiningField name="confirmed_3days"/>
						<MiningField name="since_1_cases"/>
					</MiningSchema>
					<Node score="-0.01937526652465985">
						<True/>
						<Node score="0.022321177177590693">
							<SimplePredicate field="confirmed_3days" operator="greaterThan" value="1.8333333333333337"/>
							<Node score="0.04484273597349554">
								<SimplePredicate field="confirmed_3days" operator="greaterThan" value="30.166666666666668"/>
								<Node score="0.06829684617651598">
									<SimplePredicate field="confirmed_3days" operator="greaterThan" value="187.33333333333334"/>
								</Node>
							</Node>
						</Node>
						<Node score="-0.0019390023730605165">
							<SimplePredicate field="since_1_cases" operator="lessOrEqual" value="42.50000000000001"/>
						</Node>
					</Node>
				</TreeModel>
			</Segment>
			<Segment id="21">
				<True/>
				<TreeModel functionName="regression" noTrueChildStrategy="returnLastPrediction">
					<MiningSchema>
						<MiningField name="confirmed_3days"/>
					</MiningSchema>
					<Node score="-0.018361758701914706">
						<True/>
						<Node score="0.02137546956191032">
							<SimplePredicate field="confirmed_3days" operator="greaterThan" value="3.5000000000000004"/>
							<Node score="0.06086514595579697">
								<SimplePredicate field="confirmed_3days" operator="greaterThan" value="84.83333333333336"/>
							</Node>
							<Node score="0.03680065045411687">
								<SimplePredicate field="confirmed_3days" operator="greaterThan" value="13.500000000000002"/>
							</Node>
						</Node>
						<Node score="0.002914607604135051">
							<SimplePredicate field="confirmed_3days" operator="greaterThan" value="1.0000000180025095E-35"/>
						</Node>
					</Node>
				</TreeModel>
			</Segment>
			<Segment id="22">
				<True/>
				<TreeModel functionName="regression" noTrueChildStrategy="returnLastPrediction">
					<MiningSchema>
						<MiningField name="confirmed_3days"/>
					</MiningSchema>
					<Node score="-0.01812305851891902">
						<True/>
						<Node score="0.02027292244433863">
							<SimplePredicate field="confirmed_3days" operator="greaterThan" value="3.1666666666666674"/>
							<Node score="0.060073948132433316">
								<SimplePredicate field="confirmed_3days" operator="greaterThan" value="84.83333333333336"/>
							</Node>
							<Node score="0.03617080900514949">
								<SimplePredicate field="confirmed_3days" operator="greaterThan" value="13.16666666666667"/>
							</Node>
						</Node>
						<Node score="0.0024545062480399145">
							<SimplePredicate field="confirmed_3days" operator="greaterThan" value="1.0000000180025095E-35"/>
						</Node>
					</Node>
				</TreeModel>
			</Segment>
			<Segment id="23">
				<True/>
				<TreeModel functionName="regression" noTrueChildStrategy="returnLastPrediction">
					<MiningSchema>
						<MiningField name="confirmed_3days"/>
						<MiningField name="since_1_cases"/>
					</MiningSchema>
					<Node score="-0.018671248941168627">
						<True/>
						<Node score="0.02147557994294356">
							<SimplePredicate field="confirmed_3days" operator="greaterThan" value="1.8333333333333337"/>
							<Node score="0.045115747843919536">
								<SimplePredicate field="confirmed_3days" operator="greaterThan" value="30.166666666666668"/>
								<Node score="0.07041435491627135">
									<SimplePredicate field="confirmed_3days" operator="greaterThan" value="346.1666666666667"/>
								</Node>
							</Node>
						</Node>
						<Node score="-0.0017703106183575318">
							<SimplePredicate field="since_1_cases" operator="lessOrEqual" value="42.50000000000001"/>
						</Node>
					</Node>
				</TreeModel>
			</Segment>
			<Segment id="24">
				<True/>
				<TreeModel functionName="regression" noTrueChildStrategy="returnLastPrediction">
					<MiningSchema>
						<MiningField name="confirmed_3days"/>
					</MiningSchema>
					<Node score="-0.017667828846033407">
						<True/>
						<Node score="0.021340204762728056">
							<SimplePredicate field="confirmed_3days" operator="greaterThan" value="3.5000000000000004"/>
							<Node score="0.05903401874166222">
								<SimplePredicate field="confirmed_3days" operator="greaterThan" value="89.83333333333336"/>
							</Node>
							<Node score="0.03634795290074133">
								<SimplePredicate field="confirmed_3days" operator="greaterThan" value="15.833333333333334"/>
							</Node>
						</Node>
						<Node score="0.002811184266356675">
							<SimplePredicate field="confirmed_3days" operator="greaterThan" value="1.0000000180025095E-35"/>
						</Node>
					</Node>
				</TreeModel>
			</Segment>
			<Segment id="25">
				<True/>
				<TreeModel functionName="regression" noTrueChildStrategy="returnLastPrediction">
					<MiningSchema>
						<MiningField name="confirmed_3days"/>
						<MiningField name="since_1_cases"/>
					</MiningSchema>
					<Node score="-0.018316773165184267">
						<True/>
						<Node score="0.0199739121692184">
							<SimplePredicate field="confirmed_3days" operator="greaterThan" value="1.5000000000000002"/>
							<Node score="0.0436636082699878">
								<SimplePredicate field="confirmed_3days" operator="greaterThan" value="28.83333333333334"/>
								<Node score="0.06848088832668058">
									<SimplePredicate field="confirmed_3days" operator="greaterThan" value="333.8333333333334"/>
								</Node>
							</Node>
						</Node>
						<Node score="-0.0024519895662695294">
							<SimplePredicate field="since_1_cases" operator="lessOrEqual" value="42.50000000000001"/>
						</Node>
					</Node>
				</TreeModel>
			</Segment>
			<Segment id="26">
				<True/>
				<TreeModel functionName="regression" noTrueChildStrategy="returnLastPrediction">
					<MiningSchema>
						<MiningField name="confirmed_3days"/>
					</MiningSchema>
					<Node score="-0.017221709132968256">
						<True/>
						<Node score="0.020803150505047753">
							<SimplePredicate field="confirmed_3days" operator="greaterThan" value="3.5000000000000004"/>
							<Node score="0.05755345074162999">
								<SimplePredicate field="confirmed_3days" operator="greaterThan" value="89.83333333333336"/>
							</Node>
							<Node score="0.035429242138465815">
								<SimplePredicate field="confirmed_3days" operator="greaterThan" value="15.833333333333334"/>
							</Node>
						</Node>
						<Node score="0.0027348806695557514">
							<SimplePredicate field="confirmed_3days" operator="greaterThan" value="1.0000000180025095E-35"/>
						</Node>
					</Node>
				</TreeModel>
			</Segment>
			<Segment id="27">
				<True/>
				<TreeModel functionName="regression" noTrueChildStrategy="returnLastPrediction">
					<MiningSchema>
						<MiningField name="fatalities_3days"/>
						<MiningField name="since_4_cases"/>
						<MiningField name="lon"/>
						<MiningField name="population"/>
					</MiningSchema>
					<Node score="-0.016252517823658177">
						<True/>
						<Node score="0.048807579266968895">
							<SimplePredicate field="since_4_cases" operator="lessOrEqual" value="80.50000000000001"/>
							<Node score="2.7790775746492876E-4">
								<SimplePredicate field="fatalities_3days" operator="lessOrEqual" value="0.8333333333333334"/>
								<Node score="0.0016182641338168982">
									<SimplePredicate field="lon" operator="greaterThan" value="70.57150000000001"/>
								</Node>
								<Node score="0.024363575741840296">
									<SimplePredicate field="population" operator="greaterThan" value="598550.5000000001"/>
								</Node>
							</Node>
						</Node>
					</Node>
				</TreeModel>
			</Segment>
			<Segment id="28">
				<True/>
				<TreeModel functionName="regression" noTrueChildStrategy="returnLastPrediction">
					<MiningSchema>
						<MiningField name="confirmed_3days"/>
					</MiningSchema>
					<Node score="-0.016815261392123436">
						<True/>
						<Node score="0.01954431090661384">
							<SimplePredicate field="confirmed_3days" operator="greaterThan" value="3.5000000000000004"/>
							<Node score="0.0562180790214521">
								<SimplePredicate field="confirmed_3days" operator="greaterThan" value="89.83333333333336"/>
							</Node>
							<Node score="0.033919979040155736">
								<SimplePredicate field="confirmed_3days" operator="greaterThan" value="13.500000000000002"/>
							</Node>
						</Node>
						<Node score="0.002640593897311103">
							<SimplePredicate field="confirmed_3days" operator="greaterThan" value="1.0000000180025095E-35"/>
						</Node>
					</Node>
				</TreeModel>
			</Segment>
			<Segment id="29">
				<True/>
				<TreeModel functionName="regression" noTrueChildStrategy="returnLastPrediction">
					<MiningSchema>
						<MiningField name="confirmed_9_ago"/>
						<MiningField name="confirmed_3days"/>
					</MiningSchema>
					<Node score="-0.018117607036014186">
						<True/>
						<Node score="0.02063057011050416">
							<SimplePredicate field="confirmed_3days" operator="greaterThan" value="1.8333333333333337"/>
							<Node score="0.04345143953738554">
								<SimplePredicate field="confirmed_3days" operator="greaterThan" value="35.50000000000001"/>
								<Node score="0.06921636874709179">
									<SimplePredicate field="confirmed_3days" operator="greaterThan" value="493.1666666666667"/>
								</Node>
							</Node>
						</Node>
						<Node score="-0.004408272490264082">
							<SimplePredicate field="confirmed_9_ago" operator="greaterThan" value="1.0000000180025095E-35"/>
						</Node>
					</Node>
				</TreeModel>
			</Segment>
			<Segment id="30">
				<True/>
				<TreeModel functionName="regression" noTrueChildStrategy="returnLastPrediction">
					<MiningSchema>
						<MiningField name="recovered_9_ago"/>
						<MiningField name="fatalities_3days"/>
						<MiningField name="since_1_cases"/>
						<MiningField name="since_16_cases"/>
					</MiningSchema>
					<Node score="-0.01788208126984506">
						<True/>
						<Node score="0.04764561676326614">
							<SimplePredicate field="since_16_cases" operator="lessOrEqual" value="61.50000000000001"/>
							<Node score="0.020774730131223322">
								<SimplePredicate field="fatalities_3days" operator="lessOrEqual" value="0.8333333333333334"/>
								<Node score="-0.0022220953173476624">
									<SimplePredicate field="recovered_9_ago" operator="greaterThan" value="58.50000000000001"/>
								</Node>
							</Node>
						</Node>
						<Node score="-7.695133415810599E-5">
							<SimplePredicate field="since_1_cases" operator="greaterThan" value="1.0000000180025095E-35"/>
						</Node>
					</Node>
				</TreeModel>
			</Segment>
			<Segment id="31">
				<True/>
				<TreeModel functionName="regression" noTrueChildStrategy="returnLastPrediction">
					<MiningSchema>
						<MiningField name="confirmed_3days"/>
					</MiningSchema>
					<Node score="-0.016204175612320303">
						<True/>
						<Node score="0.01803125362012752">
							<SimplePredicate field="confirmed_3days" operator="greaterThan" value="3.5000000000000004"/>
							<Node score="0.05439593363976888">
								<SimplePredicate field="confirmed_3days" operator="greaterThan" value="91.83333333333336"/>
							</Node>
							<Node score="0.03224799422925525">
								<SimplePredicate field="confirmed_3days" operator="greaterThan" value="11.833333333333334"/>
							</Node>
						</Node>
						<Node score="0.002511493957596662">
							<SimplePredicate field="confirmed_3days" operator="greaterThan" value="1.0000000180025095E-35"/>
						</Node>
					</Node>
				</TreeModel>
			</Segment>
			<Segment id="32">
				<True/>
				<TreeModel functionName="regression" noTrueChildStrategy="returnLastPrediction">
					<MiningSchema>
						<MiningField name="confirmed_9_ago"/>
						<MiningField name="confirmed_3days"/>
					</MiningSchema>
					<Node score="-0.017438963544856568">
						<True/>
						<Node score="0.017893265340742603">
							<SimplePredicate field="confirmed_3days" operator="greaterThan" value="1.5000000000000002"/>
							<Node score="0.040517143758816376">
								<SimplePredicate field="confirmed_3days" operator="greaterThan" value="26.166666666666668"/>
								<Node score="0.06700338830567475">
									<SimplePredicate field="confirmed_3days" operator="greaterThan" value="493.1666666666667"/>
								</Node>
							</Node>
						</Node>
						<Node score="-0.005077817550517872">
							<SimplePredicate field="confirmed_9_ago" operator="greaterThan" value="1.0000000180025095E-35"/>
						</Node>
					</Node>
				</TreeModel>
			</Segment>
			<Segment id="33">
				<True/>
				<TreeModel functionName="regression" noTrueChildStrategy="returnLastPrediction">
					<MiningSchema>
						<MiningField name="confirmed_9_ago"/>
						<MiningField name="confirmed_3days"/>
					</MiningSchema>
					<Node score="-0.017212260240776437">
						<True/>
						<Node score="0.02858449308695444">
							<SimplePredicate field="confirmed_3days" operator="greaterThan" value="4.833333333333335"/>
							<Node score="0.055869218123979235">
								<SimplePredicate field="confirmed_3days" operator="greaterThan" value="130.83333333333334"/>
							</Node>
						</Node>
						<Node score="0.006504467463908091">
							<SimplePredicate field="confirmed_3days" operator="greaterThan" value="0.5000000000000001"/>
						</Node>
						<Node score="-0.007937673188318029">
							<SimplePredicate field="confirmed_9_ago" operator="greaterThan" value="1.0000000180025095E-35"/>
						</Node>
					</Node>
				</TreeModel>
			</Segment>
			<Segment id="34">
				<True/>
				<TreeModel functionName="regression" noTrueChildStrategy="returnLastPrediction">
					<MiningSchema>
						<MiningField name="confirmed_3days"/>
						<MiningField name="since_1_cases"/>
					</MiningSchema>
					<Node score="-0.016591877111317523">
						<True/>
						<Node score="0.028212904915670335">
							<SimplePredicate field="confirmed_3days" operator="greaterThan" value="4.833333333333335"/>
							<Node score="0.055142977502588716">
								<SimplePredicate field="confirmed_3days" operator="greaterThan" value="130.83333333333334"/>
							</Node>
						</Node>
						<Node score="0.006419912743461335">
							<SimplePredicate field="confirmed_3days" operator="greaterThan" value="0.5000000000000001"/>
						</Node>
						<Node score="-0.0035744319437723436">
							<SimplePredicate field="since_1_cases" operator="lessOrEqual" value="34.50000000000001"/>
						</Node>
					</Node>
				</TreeModel>
			</Segment>
			<Segment id="35">
				<True/>
				<TreeModel functionName="regression" noTrueChildStrategy="returnLastPrediction">
					<MiningSchema>
						<MiningField name="recovered_9_ago"/>
						<MiningField name="fatalities_3days"/>
						<MiningField name="since_1_cases"/>
						<MiningField name="since_16_cases"/>
					</MiningSchema>
					<Node score="-0.016772810569749035">
						<True/>
						<Node score="0.04673808751623864">
							<SimplePredicate field="since_16_cases" operator="lessOrEqual" value="61.50000000000001"/>
							<Node score="0.020270443354981675">
								<SimplePredicate field="fatalities_3days" operator="lessOrEqual" value="1.1666666666666667"/>
								<Node score="-9.290669436473869E-4">
									<SimplePredicate field="recovered_9_ago" operator="greaterThan" value="54.50000000000001"/>
								</Node>
							</Node>
						</Node>
						<Node score="-1.6392307277880995E-5">
							<SimplePredicate field="since_1_cases" operator="greaterThan" value="1.0000000180025095E-35"/>
						</Node>
					</Node>
				</TreeModel>
			</Segment>
			<Segment id="36">
				<True/>
				<TreeModel functionName="regression" noTrueChildStrategy="returnLastPrediction">
					<MiningSchema>
						<MiningField name="confirmed_3days"/>
						<MiningField name="since_1_cases"/>
					</MiningSchema>
					<Node score="-0.016186074162381877">
						<True/>
						<Node score="0.027971965567613184">
							<SimplePredicate field="confirmed_3days" operator="greaterThan" value="5.166666666666667"/>
							<Node score="0.053864515830100504">
								<SimplePredicate field="confirmed_3days" operator="greaterThan" value="130.83333333333334"/>
							</Node>
						</Node>
						<Node score="0.006419873195424306">
							<SimplePredicate field="confirmed_3days" operator="greaterThan" value="0.5000000000000001"/>
						</Node>
						<Node score="-0.003550069962253232">
							<SimplePredicate field="since_1_cases" operator="lessOrEqual" value="34.50000000000001"/>
						</Node>
					</Node>
				</TreeModel>
			</Segment>
			<Segment id="37">
				<True/>
				<TreeModel functionName="regression" noTrueChildStrategy="returnLastPrediction">
					<MiningSchema>
						<MiningField name="confirmed_9_ago"/>
						<MiningField name="since_16_cases"/>
						<MiningField name="lon"/>
					</MiningSchema>
					<Node score="-0.01634434975087074">
						<True/>
						<Node score="0.024802681822221822">
							<SimplePredicate field="since_16_cases" operator="lessOrEqual" value="61.50000000000001"/>
							<Node score="0.05076069695512572">
								<SimplePredicate field="confirmed_9_ago" operator="greaterThan" value="1355.5000000000002"/>
							</Node>
							<Node score="0.0035731512521167425">
								<SimplePredicate field="lon" operator="greaterThan" value="79.50000000000001"/>
							</Node>
						</Node>
						<Node score="-9.899789059325716E-6">
							<SimplePredicate field="confirmed_9_ago" operator="greaterThan" value="1.0000000180025095E-35"/>
						</Node>
					</Node>
				</TreeModel>
			</Segment>
			<Segment id="38">
				<True/>
				<TreeModel functionName="regression" noTrueChildStrategy="returnLastPrediction">
					<MiningSchema>
						<MiningField name="confirmed_9_ago"/>
						<MiningField name="since_16_cases"/>
						<MiningField name="lon"/>
					</MiningSchema>
					<Node score="-0.016131875843695017">
						<True/>
						<Node score="0.024480256038505243">
							<SimplePredicate field="since_16_cases" operator="lessOrEqual" value="61.50000000000001"/>
							<Node score="0.050100861448939264">
								<SimplePredicate field="confirmed_9_ago" operator="greaterThan" value="1355.5000000000002"/>
							</Node>
							<Node score="0.003526702714692768">
								<SimplePredicate field="lon" operator="greaterThan" value="79.50000000000001"/>
							</Node>
						</Node>
						<Node score="-9.770977651599762E-6">
							<SimplePredicate field="confirmed_9_ago" operator="greaterThan" value="1.0000000180025095E-35"/>
						</Node>
					</Node>
				</TreeModel>
			</Segment>
			<Segment id="39">
				<True/>
				<TreeModel functionName="regression" noTrueChildStrategy="returnLastPrediction">
					<MiningSchema>
						<MiningField name="confirmed_9_ago"/>
						<MiningField name="confirmed_3days"/>
					</MiningSchema>
					<Node score="-0.015922163617859253">
						<True/>
						<Node score="0.027067559672375577">
							<SimplePredicate field="confirmed_3days" operator="greaterThan" value="5.166666666666667"/>
							<Node score="0.051976406357232864">
								<SimplePredicate field="confirmed_3days" operator="greaterThan" value="130.83333333333334"/>
							</Node>
						</Node>
						<Node score="0.0061319561967311045">
							<SimplePredicate field="confirmed_3days" operator="greaterThan" value="0.5000000000000001"/>
						</Node>
						<Node score="-0.007669841064102749">
							<SimplePredicate field="confirmed_9_ago" operator="greaterThan" value="1.0000000180025095E-35"/>
						</Node>
					</Node>
				</TreeModel>
			</Segment>
			<Segment id="40">
				<True/>
				<TreeModel functionName="regression" noTrueChildStrategy="returnLastPrediction">
					<MiningSchema>
						<MiningField name="confirmed_3days"/>
						<MiningField name="since_1_cases"/>
					</MiningSchema>
					<Node score="-0.01539917010873755">
						<True/>
						<Node score="0.02671569130305752">
							<SimplePredicate field="confirmed_3days" operator="greaterThan" value="5.166666666666667"/>
							<Node score="0.05130076683616209">
								<SimplePredicate field="confirmed_3days" operator="greaterThan" value="130.83333333333334"/>
							</Node>
						</Node>
						<Node score="0.0060522436108328866">
							<SimplePredicate field="confirmed_3days" operator="greaterThan" value="0.5000000000000001"/>
						</Node>
						<Node score="-0.003317129692756436">
							<SimplePredicate field="since_1_cases" operator="lessOrEqual" value="33.50000000000001"/>
						</Node>
					</Node>
				</TreeModel>
			</Segment>
			<Segment id="41">
				<True/>
				<TreeModel functionName="regression" noTrueChildStrategy="returnLastPrediction">
					<MiningSchema>
						<MiningField name="confirmed_3days"/>
						<MiningField name="since_1_cases"/>
					</MiningSchema>
					<Node score="-0.0151989822629746">
						<True/>
						<Node score="0.025652423058305958">
							<SimplePredicate field="confirmed_3days" operator="greaterThan" value="5.166666666666667"/>
							<Node score="0.04880418435303255">
								<SimplePredicate field="confirmed_3days" operator="greaterThan" value="102.00000000000001"/>
							</Node>
						</Node>
						<Node score="0.005973567359438886">
							<SimplePredicate field="confirmed_3days" operator="greaterThan" value="0.5000000000000001"/>
						</Node>
						<Node score="-0.003274009494040312">
							<SimplePredicate field="since_1_cases" operator="lessOrEqual" value="33.50000000000001"/>
						</Node>
					</Node>
				</TreeModel>
			</Segment>
			<Segment id="42">
				<True/>
				<TreeModel functionName="regression" noTrueChildStrategy="returnLastPrediction">
					<MiningSchema>
						<MiningField name="confirmed_9_ago"/>
						<MiningField name="fatalities_3days"/>
						<MiningField name="since_16_cases"/>
						<MiningField name="lon"/>
					</MiningSchema>
					<Node score="-0.015317405473985085">
						<True/>
						<Node score="0.04111449576951073">
							<SimplePredicate field="since_16_cases" operator="lessOrEqual" value="61.50000000000001"/>
							<Node score="0.020701694090995818">
								<SimplePredicate field="fatalities_3days" operator="lessOrEqual" value="0.8333333333333334"/>
								<Node score="0.0016482193576302128">
									<SimplePredicate field="lon" operator="greaterThan" value="84.74505"/>
								</Node>
							</Node>
						</Node>
						<Node score="1.4244944390812837E-5">
							<SimplePredicate field="confirmed_9_ago" operator="greaterThan" value="1.0000000180025095E-35"/>
						</Node>
					</Node>
				</TreeModel>
			</Segment>
			<Segment id="43">
				<True/>
				<TreeModel functionName="regression" noTrueChildStrategy="returnLastPrediction">
					<MiningSchema>
						<MiningField name="confirmed_3days"/>
						<MiningField name="since_1_cases"/>
					</MiningSchema>
					<Node score="-0.01482855769276039">
						<True/>
						<Node score="0.026174488949040283">
							<SimplePredicate field="confirmed_3days" operator="greaterThan" value="5.166666666666667"/>
							<Node score="0.05087519780579731">
								<SimplePredicate field="confirmed_3days" operator="greaterThan" value="155.83333333333334"/>
							</Node>
						</Node>
						<Node score="0.00581057940177492">
							<SimplePredicate field="confirmed_3days" operator="greaterThan" value="0.5000000000000001"/>
						</Node>
						<Node score="-0.003246854831483136">
							<SimplePredicate field="since_1_cases" operator="lessOrEqual" value="33.50000000000001"/>
						</Node>
					</Node>
				</TreeModel>
			</Segment>
			<Segment id="44">
				<True/>
				<TreeModel functionName="regression" noTrueChildStrategy="returnLastPrediction">
					<MiningSchema>
						<MiningField name="confirmed_9_ago"/>
						<MiningField name="confirmed_3days"/>
					</MiningSchema>
					<Node score="-0.014925511585277001">
						<True/>
						<Node score="0.015217365027490092">
							<SimplePredicate field="confirmed_3days" operator="greaterThan" value="1.5000000000000002"/>
							<Node score="0.03538676537932052">
								<SimplePredicate field="confirmed_3days" operator="greaterThan" value="26.166666666666668"/>
								<Node score="0.059952484068290526">
									<SimplePredicate field="confirmed_3days" operator="greaterThan" value="578.5000000000001"/>
								</Node>
							</Node>
						</Node>
						<Node score="-0.004735950861017612">
							<SimplePredicate field="confirmed_9_ago" operator="greaterThan" value="1.0000000180025095E-35"/>
						</Node>
					</Node>
				</TreeModel>
			</Segment>
			<Segment id="45">
				<True/>
				<TreeModel functionName="regression" noTrueChildStrategy="returnLastPrediction">
					<MiningSchema>
						<MiningField name="confirmed_3days"/>
						<MiningField name="since_1_cases"/>
					</MiningSchema>
					<Node score="-0.014457438357922094">
						<True/>
						<Node score="0.025078463979639316">
							<SimplePredicate field="confirmed_3days" operator="greaterThan" value="5.166666666666667"/>
							<Node score="0.048284726592160494">
								<SimplePredicate field="confirmed_3days" operator="greaterThan" value="130.83333333333334"/>
							</Node>
						</Node>
						<Node score="0.005649481354476597">
							<SimplePredicate field="confirmed_3days" operator="greaterThan" value="0.5000000000000001"/>
						</Node>
						<Node score="-0.003143084478246724">
							<SimplePredicate field="since_1_cases" operator="lessOrEqual" value="33.50000000000001"/>
						</Node>
					</Node>
				</TreeModel>
			</Segment>
			<Segment id="46">
				<True/>
				<TreeModel functionName="regression" noTrueChildStrategy="returnLastPrediction">
					<MiningSchema>
						<MiningField name="confirmed_9_ago"/>
						<MiningField name="fatalities_3days"/>
						<MiningField name="since_16_cases"/>
						<MiningField name="lon"/>
					</MiningSchema>
					<Node score="-0.014543537299973888">
						<True/>
						<Node score="0.0408498792114993">
							<SimplePredicate field="since_16_cases" operator="lessOrEqual" value="61.50000000000001"/>
							<Node score="0.020319763776883177">
								<SimplePredicate field="fatalities_3days" operator="lessOrEqual" value="1.1666666666666667"/>
								<Node score="0.0015856548553417167">
									<SimplePredicate field="lon" operator="greaterThan" value="84.74505"/>
								</Node>
							</Node>
						</Node>
						<Node score="3.5112241830147336E-5">
							<SimplePredicate field="confirmed_9_ago" operator="greaterThan" value="1.0000000180025095E-35"/>
						</Node>
					</Node>
				</TreeModel>
			</Segment>
			<Segment id="47">
				<True/>
				<TreeModel functionName="regression" noTrueChildStrategy="returnLastPrediction">
					<MiningSchema>
						<MiningField name="confirmed_3days"/>
						<MiningField name="since_1_cases"/>
					</MiningSchema>
					<Node score="-0.014105468059645755">
						<True/>
						<Node score="0.023570229504009266">
							<SimplePredicate field="confirmed_3days" operator="greaterThan" value="5.166666666666667"/>
							<Node score="0.04492333141674677">
								<SimplePredicate field="confirmed_3days" operator="greaterThan" value="91.83333333333336"/>
							</Node>
						</Node>
						<Node score="0.00549394781732765">
							<SimplePredicate field="confirmed_3days" operator="greaterThan" value="0.5000000000000001"/>
						</Node>
						<Node score="-0.003117518694849144">
							<SimplePredicate field="since_1_cases" operator="lessOrEqual" value="33.50000000000001"/>
						</Node>
					</Node>
				</TreeModel>
			</Segment>
			<Segment id="48">
				<True/>
				<TreeModel functionName="regression" noTrueChildStrategy="returnLastPrediction">
					<MiningSchema>
						<MiningField name="confirmed_3days"/>
						<MiningField name="since_1_cases"/>
					</MiningSchema>
					<Node score="-0.013659813096182565">
						<True/>
						<Node score="0.01442845469223005">
							<SimplePredicate field="confirmed_3days" operator="greaterThan" value="1.5000000000000002"/>
							<Node score="0.033688545217694994">
								<SimplePredicate field="confirmed_3days" operator="greaterThan" value="26.166666666666668"/>
								<Node score="0.057442015912581204">
									<SimplePredicate field="confirmed_3days" operator="greaterThan" value="578.5000000000001"/>
								</Node>
							</Node>
						</Node>
						<Node score="-0.0011567805233764707">
							<SimplePredicate field="since_1_cases" operator="lessOrEqual" value="35.50000000000001"/>
						</Node>
					</Node>
				</TreeModel>
			</Segment>
			<Segment id="49">
				<True/>
				<TreeModel functionName="regression" noTrueChildStrategy="returnLastPrediction">
					<MiningSchema>
						<MiningField name="confirmed_3days"/>
						<MiningField name="since_1_cases"/>
					</MiningSchema>
					<Node score="-0.013745430763964409">
						<True/>
						<Node score="0.024410229389599077">
							<SimplePredicate field="confirmed_3days" operator="greaterThan" value="5.166666666666667"/>
							<Node score="0.047814909085956044">
								<SimplePredicate field="confirmed_3days" operator="greaterThan" value="167.16666666666669"/>
							</Node>
						</Node>
						<Node score="0.005340404650265769">
							<SimplePredicate field="confirmed_3days" operator="greaterThan" value="0.5000000000000001"/>
						</Node>
						<Node score="-0.0030619561264728446">
							<SimplePredicate field="since_1_cases" operator="lessOrEqual" value="33.50000000000001"/>
						</Node>
					</Node>
				</TreeModel>
			</Segment>
			<Segment id="50">
				<True/>
				<TreeModel functionName="regression" noTrueChildStrategy="returnLastPrediction">
					<MiningSchema>
						<MiningField name="fatalities_3days"/>
						<MiningField name="since_4_cases"/>
						<MiningField name="since_64_cases"/>
						<MiningField name="lon"/>
					</MiningSchema>
					<Node score="-0.012088400701975682">
						<True/>
						<Node score="0.03683069434866986">
							<SimplePredicate field="since_4_cases" operator="lessOrEqual" value="79.50000000000001"/>
							<Node score="0.010339119103638827">
								<SimplePredicate field="fatalities_3days" operator="lessOrEqual" value="0.8333333333333334"/>
								<Node score="0.021473591572177934">
									<SimplePredicate field="since_64_cases" operator="lessOrEqual" value="21.500000000000004"/>
								</Node>
								<Node score="-0.0029985876822896562">
									<SimplePredicate field="lon" operator="greaterThan" value="70.57150000000001"/>
								</Node>
							</Node>
						</Node>
					</Node>
				</TreeModel>
			</Segment>
			<Segment id="51">
				<True/>
				<TreeModel functionName="regression" noTrueChildStrategy="returnLastPrediction">
					<MiningSchema>
						<MiningField name="confirmed_3days"/>
						<MiningField name="since_1_cases"/>
					</MiningSchema>
					<Node score="-0.013423606893466125">
						<True/>
						<Node score="0.023820969596315092">
							<SimplePredicate field="confirmed_3days" operator="greaterThan" value="5.166666666666667"/>
							<Node score="0.04673809331044045">
								<SimplePredicate field="confirmed_3days" operator="greaterThan" value="167.16666666666669"/>
							</Node>
						</Node>
						<Node score="0.0052027915627217815">
							<SimplePredicate field="confirmed_3days" operator="greaterThan" value="0.5000000000000001"/>
						</Node>
						<Node score="-0.0029573033439700656">
							<SimplePredicate field="since_1_cases" operator="lessOrEqual" value="33.50000000000001"/>
						</Node>
					</Node>
				</TreeModel>
			</Segment>
			<Segment id="52">
				<True/>
				<TreeModel functionName="regression" noTrueChildStrategy="returnLastPrediction">
					<MiningSchema>
						<MiningField name="confirmed_3days"/>
						<MiningField name="since_1_cases"/>
					</MiningSchema>
					<Node score="-0.013249102033885537">
						<True/>
						<Node score="0.021754249533819527">
							<SimplePredicate field="confirmed_3days" operator="greaterThan" value="4.833333333333335"/>
							<Node score="0.042313584765933575">
								<SimplePredicate field="confirmed_3days" operator="greaterThan" value="91.83333333333336"/>
							</Node>
						</Node>
						<Node score="0.0049712681135290985">
							<SimplePredicate field="confirmed_3days" operator="greaterThan" value="0.5000000000000001"/>
						</Node>
						<Node score="-0.0029188609168803916">
							<SimplePredicate field="since_1_cases" operator="lessOrEqual" value="33.50000000000001"/>
						</Node>
					</Node>
				</TreeModel>
			</Segment>
			<Segment id="53">
				<True/>
				<TreeModel functionName="regression" noTrueChildStrategy="returnLastPrediction">
					<MiningSchema>
						<MiningField name="confirmed_3days"/>
						<MiningField name="since_1_cases"/>
					</MiningSchema>
					<Node score="-0.012788103781282709">
						<True/>
						<Node score="0.013474098674412776">
							<SimplePredicate field="confirmed_3days" operator="greaterThan" value="1.5000000000000002"/>
							<Node score="0.03195211896893427">
								<SimplePredicate field="confirmed_3days" operator="greaterThan" value="26.166666666666668"/>
								<Node score="0.05587438451860474">
									<SimplePredicate field="confirmed_3days" operator="greaterThan" value="685.1666666666669"/>
								</Node>
							</Node>
						</Node>
						<Node score="-8.721379879716301E-4">
							<SimplePredicate field="since_1_cases" operator="lessOrEqual" value="33.50000000000001"/>
						</Node>
					</Node>
				</TreeModel>
			</Segment>
			<Segment id="54">
				<True/>
				<TreeModel functionName="regression" noTrueChildStrategy="returnLastPrediction">
					<MiningSchema>
						<MiningField name="confirmed_3days"/>
						<MiningField name="since_1_cases"/>
					</MiningSchema>
					<Node score="-0.012925301719194328">
						<True/>
						<Node score="0.02299230024316589">
							<SimplePredicate field="confirmed_3days" operator="greaterThan" value="5.166666666666667"/>
							<Node score="0.04533764275468391">
								<SimplePredicate field="confirmed_3days" operator="greaterThan" value="174.50000000000003"/>
							</Node>
						</Node>
						<Node score="0.004987336652818666">
							<SimplePredicate field="confirmed_3days" operator="greaterThan" value="0.5000000000000001"/>
						</Node>
						<Node score="-0.0029627782589962235">
							<SimplePredicate field="since_1_cases" operator="lessOrEqual" value="34.50000000000001"/>
						</Node>
					</Node>
				</TreeModel>
			</Segment>
			<Segment id="55">
				<True/>
				<TreeModel functionName="regression" noTrueChildStrategy="returnLastPrediction">
					<MiningSchema>
						<MiningField name="confirmed_3days"/>
						<MiningField name="since_1_cases"/>
					</MiningSchema>
					<Node score="-0.01274296975478283">
						<True/>
						<Node score="0.020618693505181362">
							<SimplePredicate field="confirmed_3days" operator="greaterThan" value="5.166666666666667"/>
							<Node score="0.0395389891552902">
								<SimplePredicate field="confirmed_3days" operator="greaterThan" value="71.83333333333336"/>
							</Node>
						</Node>
						<Node score="0.004922503699799964">
							<SimplePredicate field="confirmed_3days" operator="greaterThan" value="0.5000000000000001"/>
						</Node>
						<Node score="-0.0028310672168643226">
							<SimplePredicate field="since_1_cases" operator="lessOrEqual" value="33.50000000000001"/>
						</Node>
					</Node>
				</TreeModel>
			</Segment>
			<Segment id="56">
				<True/>
				<TreeModel functionName="regression" noTrueChildStrategy="returnLastPrediction">
					<MiningSchema>
						<MiningField name="confirmed_3days"/>
						<MiningField name="since_1_cases"/>
					</MiningSchema>
					<Node score="-0.011905703888225691">
						<True/>
						<Node score="0.017648981718551348">
							<SimplePredicate field="confirmed_3days" operator="greaterThan" value="3.5000000000000004"/>
							<Node score="0.03327028350867748">
								<SimplePredicate field="confirmed_3days" operator="greaterThan" value="51.833333333333336"/>
								<Node score="0.055613540996894494">
									<SimplePredicate field="confirmed_3days" operator="greaterThan" value="824.6666666666669"/>
								</Node>
							</Node>
						</Node>
						<Node score="0.0015145334120510454">
							<SimplePredicate field="since_1_cases" operator="lessOrEqual" value="33.50000000000001"/>
						</Node>
					</Node>
				</TreeModel>
			</Segment>
			<Segment id="57">
				<True/>
				<TreeModel functionName="regression" noTrueChildStrategy="returnLastPrediction">
					<MiningSchema>
						<MiningField name="confirmed_3days"/>
						<MiningField name="since_1_cases"/>
					</MiningSchema>
					<Node score="-0.012147323498564438">
						<True/>
						<Node score="0.012649246847700888">
							<SimplePredicate field="confirmed_3days" operator="greaterThan" value="1.5000000000000002"/>
							<Node score="0.030266624161899867">
								<SimplePredicate field="confirmed_3days" operator="greaterThan" value="25.166666666666668"/>
								<Node score="0.05335920829943529">
									<SimplePredicate field="confirmed_3days" operator="greaterThan" value="685.1666666666669"/>
								</Node>
							</Node>
						</Node>
						<Node score="-8.742420243350912E-4">
							<SimplePredicate field="since_1_cases" operator="lessOrEqual" value="33.50000000000001"/>
						</Node>
					</Node>
				</TreeModel>
			</Segment>
			<Segment id="58">
				<True/>
				<TreeModel functionName="regression" noTrueChildStrategy="returnLastPrediction">
					<MiningSchema>
						<MiningField name="confirmed_3days"/>
						<MiningField name="since_1_cases"/>
					</MiningSchema>
					<Node score="-0.012054078281485577">
						<True/>
						<Node score="0.021611610385832584">
							<SimplePredicate field="confirmed_3days" operator="greaterThan" value="5.166666666666667"/>
							<Node score="0.04246100474129987">
								<SimplePredicate field="confirmed_3days" operator="greaterThan" value="155.83333333333334"/>
							</Node>
						</Node>
						<Node score="0.004773160452360935">
							<SimplePredicate field="confirmed_3days" operator="greaterThan" value="0.5000000000000001"/>
						</Node>
						<Node score="-0.0010201518667168894">
							<SimplePredicate field="since_1_cases" operator="lessOrEqual" value="22.500000000000004"/>
						</Node>
					</Node>
				</TreeModel>
			</Segment>
			<Segment id="59">
				<True/>
				<TreeModel functionName="regression" noTrueChildStrategy="returnLastPrediction">
					<MiningSchema>
						<MiningField name="confirmed_9_ago"/>
						<MiningField name="recovered_9_ago"/>
						<MiningField name="fatalities_3days"/>
						<MiningField name="since_16_cases"/>
					</MiningSchema>
					<Node score="-0.011843952506188382">
						<True/>
						<Node score="0.03475308675020483">
							<SimplePredicate field="since_16_cases" operator="lessOrEqual" value="61.50000000000001"/>
							<Node score="0.01504234592852748">
								<SimplePredicate field="fatalities_3days" operator="lessOrEqual" value="1.1666666666666667"/>
								<Node score="-0.0022596506441395097">
									<SimplePredicate field="recovered_9_ago" operator="greaterThan" value="54.50000000000001"/>
								</Node>
							</Node>
						</Node>
						<Node score="0.0016828487936421824">
							<SimplePredicate field="confirmed_9_ago" operator="greaterThan" value="1.5000000000000002"/>
						</Node>
					</Node>
				</TreeModel>
			</Segment>
			<Segment id="60">
				<True/>
				<TreeModel functionName="regression" noTrueChildStrategy="returnLastPrediction">
					<MiningSchema>
						<MiningField name="confirmed_3days"/>
						<MiningField name="since_1_cases"/>
					</MiningSchema>
					<Node score="-0.011769520110632287">
						<True/>
						<Node score="0.021305830368455826">
							<SimplePredicate field="confirmed_3days" operator="greaterThan" value="5.166666666666667"/>
							<Node score="0.042200040505707415">
								<SimplePredicate field="confirmed_3days" operator="greaterThan" value="174.50000000000003"/>
							</Node>
						</Node>
						<Node score="0.0046211510598600175">
							<SimplePredicate field="confirmed_3days" operator="greaterThan" value="0.5000000000000001"/>
						</Node>
						<Node score="-9.437604676721612E-4">
							<SimplePredicate field="since_1_cases" operator="lessOrEqual" value="22.500000000000004"/>
						</Node>
					</Node>
				</TreeModel>
			</Segment>
			<Segment id="61">
				<True/>
				<TreeModel functionName="regression" noTrueChildStrategy="returnLastPrediction">
					<MiningSchema>
						<MiningField name="confirmed_3days"/>
						<MiningField name="since_1_cases"/>
					</MiningSchema>
					<Node score="-0.011616517605638721">
						<True/>
						<Node score="0.01968057054477823">
							<SimplePredicate field="confirmed_3days" operator="greaterThan" value="5.166666666666667"/>
							<Node score="0.03792579955181671">
								<SimplePredicate field="confirmed_3days" operator="greaterThan" value="91.83333333333336"/>
							</Node>
						</Node>
						<Node score="0.0045610783298615">
							<SimplePredicate field="confirmed_3days" operator="greaterThan" value="0.5000000000000001"/>
						</Node>
						<Node score="-9.314925284201826E-4">
							<SimplePredicate field="since_1_cases" operator="lessOrEqual" value="22.500000000000004"/>
						</Node>
					</Node>
				</TreeModel>
			</Segment>
			<Segment id="62">
				<True/>
				<TreeModel functionName="regression" noTrueChildStrategy="returnLastPrediction">
					<MiningSchema>
						<MiningField name="confirmed_9_ago"/>
						<MiningField name="recovered_9_ago"/>
						<MiningField name="fatalities_3days"/>
						<MiningField name="since_16_cases"/>
					</MiningSchema>
					<Node score="-0.011402474366681386">
						<True/>
						<Node score="0.03346849937140586">
							<SimplePredicate field="since_16_cases" operator="lessOrEqual" value="61.50000000000001"/>
							<Node score="0.014480901314515786">
								<SimplePredicate field="fatalities_3days" operator="lessOrEqual" value="1.1666666666666667"/>
								<Node score="-0.0023157262398533804">
									<SimplePredicate field="recovered_9_ago" operator="greaterThan" value="54.50000000000001"/>
								</Node>
							</Node>
						</Node>
						<Node score="0.0016650788736898212">
							<SimplePredicate field="confirmed_9_ago" operator="greaterThan" value="1.5000000000000002"/>
						</Node>
					</Node>
				</TreeModel>
			</Segment>
			<Segment id="63">
				<True/>
				<TreeModel functionName="regression" noTrueChildStrategy="returnLastPrediction">
					<MiningSchema>
						<MiningField name="confirmed_3days"/>
						<MiningField name="since_1_cases"/>
					</MiningSchema>
					<Node score="-0.011342380603659946">
						<True/>
						<Node score="0.020862498093268133">
							<SimplePredicate field="confirmed_3days" operator="greaterThan" value="5.500000000000001"/>
							<Node score="0.04103377327876997">
								<SimplePredicate field="confirmed_3days" operator="greaterThan" value="182.50000000000003"/>
							</Node>
						</Node>
						<Node score="0.0045357947522066035">
							<SimplePredicate field="confirmed_3days" operator="greaterThan" value="0.5000000000000001"/>
						</Node>
						<Node score="-8.58878118626461E-4">
							<SimplePredicate field="since_1_cases" operator="lessOrEqual" value="22.500000000000004"/>
						</Node>
					</Node>
				</TreeModel>
			</Segment>
			<Segment id="64">
				<True/>
				<TreeModel functionName="regression" noTrueChildStrategy="returnLastPrediction">
					<MiningSchema>
						<MiningField name="confirmed_9_ago"/>
						<MiningField name="confirmed_3days"/>
					</MiningSchema>
					<Node score="-0.011587970090795978">
						<True/>
						<Node score="0.011477782447054441">
							<SimplePredicate field="confirmed_3days" operator="greaterThan" value="1.5000000000000002"/>
							<Node score="0.028104241397772674">
								<SimplePredicate field="confirmed_3days" operator="greaterThan" value="25.166666666666668"/>
								<Node score="0.05120171133363994">
									<SimplePredicate field="confirmed_3days" operator="greaterThan" value="824.6666666666669"/>
								</Node>
							</Node>
						</Node>
						<Node score="-0.0038405568892937525">
							<SimplePredicate field="confirmed_9_ago" operator="greaterThan" value="1.0000000180025095E-35"/>
						</Node>
					</Node>
				</TreeModel>
			</Segment>
			<Segment id="65">
				<True/>
				<TreeModel functionName="regression" noTrueChildStrategy="returnLastPrediction">
					<MiningSchema>
						<MiningField name="confirmed_3days"/>
					</MiningSchema>
					<Node score="-0.01009220469262413">
						<True/>
						<Node score="0.014611798133813267">
							<SimplePredicate field="confirmed_3days" operator="greaterThan" value="5.500000000000001"/>
							<Node score="0.040023783946684724">
								<SimplePredicate field="confirmed_3days" operator="greaterThan" value="182.50000000000003"/>
							</Node>
							<Node score="0.025107760484463348">
								<SimplePredicate field="confirmed_3days" operator="greaterThan" value="21.500000000000004"/>
							</Node>
						</Node>
						<Node score="0.004411340763924995">
							<SimplePredicate field="confirmed_3days" operator="greaterThan" value="0.5000000000000001"/>
						</Node>
					</Node>
				</TreeModel>
			</Segment>
			<Segment id="66">
				<True/>
				<TreeModel functionName="regression" noTrueChildStrategy="returnLastPrediction">
					<MiningSchema>
						<MiningField name="confirmed_9_ago"/>
						<MiningField name="fatalities_3days"/>
						<MiningField name="since_16_cases"/>
						<MiningField name="lon"/>
					</MiningSchema>
					<Node score="-0.010840595038901493">
						<True/>
						<Node score="0.030444123375249446">
							<SimplePredicate field="since_16_cases" operator="lessOrEqual" value="61.50000000000001"/>
							<Node score="0.01570840862801">
								<SimplePredicate field="fatalities_3days" operator="lessOrEqual" value="0.8333333333333334"/>
								<Node score="1.3586405803395655E-4">
									<SimplePredicate field="lon" operator="greaterThan" value="79.50000000000001"/>
								</Node>
							</Node>
						</Node>
						<Node score="0.0016630493755282537">
							<SimplePredicate field="confirmed_9_ago" operator="greaterThan" value="1.5000000000000002"/>
						</Node>
					</Node>
				</TreeModel>
			</Segment>
			<Segment id="67">
				<True/>
				<TreeModel functionName="regression" noTrueChildStrategy="returnLastPrediction">
					<MiningSchema>
						<MiningField name="confirmed_9_ago"/>
						<MiningField name="fatalities_3days"/>
						<MiningField name="since_16_cases"/>
						<MiningField name="lon"/>
					</MiningSchema>
					<Node score="-0.011165204475497029">
						<True/>
						<Node score="0.0314122996222913">
							<SimplePredicate field="since_16_cases" operator="lessOrEqual" value="61.50000000000001"/>
							<Node score="0.015951437874437452">
								<SimplePredicate field="fatalities_3days" operator="lessOrEqual" value="1.1666666666666667"/>
								<Node score="2.982151722550454E-4">
									<SimplePredicate field="lon" operator="greaterThan" value="79.50000000000001"/>
								</Node>
							</Node>
						</Node>
						<Node score="2.572801748784479E-4">
							<SimplePredicate field="confirmed_9_ago" operator="greaterThan" value="1.0000000180025095E-35"/>
						</Node>
					</Node>
				</TreeModel>
			</Segment>
			<Segment id="68">
				<True/>
				<TreeModel functionName="regression" noTrueChildStrategy="returnLastPrediction">
					<MiningSchema>
						<MiningField name="confirmed_3days"/>
						<MiningField name="since_1_cases"/>
					</MiningSchema>
					<Node score="-0.010667232445249497">
						<True/>
						<Node score="0.019636985792329885">
							<SimplePredicate field="confirmed_3days" operator="greaterThan" value="5.500000000000001"/>
							<Node score="0.038730237035499944">
								<SimplePredicate field="confirmed_3days" operator="greaterThan" value="182.50000000000003"/>
							</Node>
						</Node>
						<Node score="0.004214179808440413">
							<SimplePredicate field="confirmed_3days" operator="greaterThan" value="0.5000000000000001"/>
						</Node>
						<Node score="-3.63408167419091E-4">
							<SimplePredicate field="since_1_cases" operator="lessOrEqual" value="21.500000000000004"/>
						</Node>
					</Node>
				</TreeModel>
			</Segment>
			<Segment id="69">
				<True/>
				<TreeModel functionName="regression" noTrueChildStrategy="returnLastPrediction">
					<MiningSchema>
						<MiningField name="confirmed_3days"/>
						<MiningField name="since_4_cases"/>
					</MiningSchema>
					<Node score="-0.010412988206895502">
						<True/>
						<Node score="0.01930760730488044">
							<SimplePredicate field="confirmed_3days" operator="greaterThan" value="5.500000000000001"/>
							<Node score="0.037965556272202154">
								<SimplePredicate field="confirmed_3days" operator="greaterThan" value="174.50000000000003"/>
							</Node>
						</Node>
						<Node score="0.007113709960472913">
							<SimplePredicate field="since_4_cases" operator="lessOrEqual" value="21.500000000000004"/>
						</Node>
						<Node score="-0.0018995514819652444">
							<SimplePredicate field="confirmed_3days" operator="greaterThan" value="1.0000000180025095E-35"/>
						</Node>
					</Node>
				</TreeModel>
			</Segment>
			<Segment id="70">
				<True/>
				<TreeModel functionName="regression" noTrueChildStrategy="returnLastPrediction">
					<MiningSchema>
						<MiningField name="confirmed_3days"/>
						<MiningField name="since_1_cases"/>
					</MiningSchema>
					<Node score="-0.010096294722130462">
						<True/>
						<Node score="0.01060997292650728">
							<SimplePredicate field="confirmed_3days" operator="greaterThan" value="1.5000000000000002"/>
							<Node score="0.026434129874665594">
								<SimplePredicate field="confirmed_3days" operator="greaterThan" value="25.166666666666668"/>
								<Node score="0.050483704746597656">
									<SimplePredicate field="confirmed_3days" operator="greaterThan" value="1019.1666666666667"/>
								</Node>
							</Node>
						</Node>
						<Node score="0.00114378798185941">
							<SimplePredicate field="since_1_cases" operator="lessOrEqual" value="22.500000000000004"/>
						</Node>
					</Node>
				</TreeModel>
			</Segment>
			<Segment id="71">
				<True/>
				<TreeModel functionName="regression" noTrueChildStrategy="returnLastPrediction">
					<MiningSchema>
						<MiningField name="confirmed_3days"/>
						<MiningField name="since_4_cases"/>
					</MiningSchema>
					<Node score="-0.010152698352457707">
						<True/>
						<Node score="0.01635633385431496">
							<SimplePredicate field="confirmed_3days" operator="greaterThan" value="5.500000000000001"/>
							<Node score="0.03166694608654695">
								<SimplePredicate field="confirmed_3days" operator="greaterThan" value="56.16666666666668"/>
							</Node>
						</Node>
						<Node score="0.0069716206394143795">
							<SimplePredicate field="since_4_cases" operator="lessOrEqual" value="21.500000000000004"/>
						</Node>
						<Node score="-0.0018822113167294284">
							<SimplePredicate field="confirmed_3days" operator="greaterThan" value="1.0000000180025095E-35"/>
						</Node>
					</Node>
				</TreeModel>
			</Segment>
			<Segment id="72">
				<True/>
				<TreeModel functionName="regression" noTrueChildStrategy="returnLastPrediction">
					<MiningSchema>
						<MiningField name="fatalities_3days"/>
						<MiningField name="since_4_cases"/>
						<MiningField name="lon"/>
						<MiningField name="population"/>
					</MiningSchema>
					<Node score="-0.009033429392133942">
						<True/>
						<Node score="0.028061696156765948">
							<SimplePredicate field="since_4_cases" operator="lessOrEqual" value="75.50000000000001"/>
							<Node score="-0.0037888007490066004">
								<SimplePredicate field="fatalities_3days" operator="lessOrEqual" value="0.8333333333333334"/>
								<Node score="-3.6904436198403277E-4">
									<SimplePredicate field="lon" operator="greaterThan" value="70.57150000000001"/>
								</Node>
								<Node score="0.01586802319339491">
									<SimplePredicate field="population" operator="greaterThan" value="598550.5000000001"/>
								</Node>
							</Node>
						</Node>
					</Node>
				</TreeModel>
			</Segment>
			<Segment id="73">
				<True/>
				<TreeModel functionName="regression" noTrueChildStrategy="returnLastPrediction">
					<MiningSchema>
						<MiningField name="confirmed_3days"/>
					</MiningSchema>
					<Node score="-0.00915967282351595">
						<True/>
						<Node score="0.015741641985231963">
							<SimplePredicate field="confirmed_3days" operator="greaterThan" value="5.166666666666667"/>
							<Node score="0.02787921791953389">
								<SimplePredicate field="confirmed_3days" operator="greaterThan" value="56.16666666666668"/>
								<Node score="0.05063252523044961">
									<SimplePredicate field="confirmed_3days" operator="greaterThan" value="1156.8333333333335"/>
								</Node>
							</Node>
						</Node>
						<Node score="0.0038516685221118064">
							<SimplePredicate field="confirmed_3days" operator="greaterThan" value="0.5000000000000001"/>
						</Node>
					</Node>
				</TreeModel>
			</Segment>
			<Segment id="74">
				<True/>
				<TreeModel functionName="regression" noTrueChildStrategy="returnLastPrediction">
					<MiningSchema>
						<MiningField name="confirmed_3days"/>
						<MiningField name="since_4_cases"/>
					</MiningSchema>
					<Node score="-0.009783011368266935">
						<True/>
						<Node score="0.01895807446417829">
							<SimplePredicate field="confirmed_3days" operator="greaterThan" value="5.500000000000001"/>
							<Node score="0.039672234968536044">
								<SimplePredicate field="confirmed_3days" operator="greaterThan" value="333.8333333333334"/>
							</Node>
						</Node>
						<Node score="0.007558585528644622">
							<SimplePredicate field="since_4_cases" operator="lessOrEqual" value="19.500000000000004"/>
						</Node>
						<Node score="-0.00165817496177508">
							<SimplePredicate field="confirmed_3days" operator="greaterThan" value="1.0000000180025095E-35"/>
						</Node>
					</Node>
				</TreeModel>
			</Segment>
			<Segment id="75">
				<True/>
				<TreeModel functionName="regression" noTrueChildStrategy="returnLastPrediction">
					<MiningSchema>
						<MiningField name="confirmed_9_ago"/>
						<MiningField name="confirmed_3days"/>
					</MiningSchema>
					<Node score="-0.010119098157309898">
						<True/>
						<Node score="0.00984386116470639">
							<SimplePredicate field="confirmed_3days" operator="greaterThan" value="1.5000000000000002"/>
							<Node score="0.02449243399596004">
								<SimplePredicate field="confirmed_3days" operator="greaterThan" value="24.500000000000004"/>
								<Node score="0.045784842118225165">
									<SimplePredicate field="confirmed_3days" operator="greaterThan" value="824.6666666666669"/>
								</Node>
							</Node>
						</Node>
						<Node score="-0.0033953790279418316">
							<SimplePredicate field="confirmed_9_ago" operator="greaterThan" value="1.0000000180025095E-35"/>
						</Node>
					</Node>
				</TreeModel>
			</Segment>
			<Segment id="76">
				<True/>
				<TreeModel functionName="regression" noTrueChildStrategy="returnLastPrediction">
					<MiningSchema>
						<MiningField name="confirmed_3days"/>
						<MiningField name="since_4_cases"/>
					</MiningSchema>
					<Node score="-0.009538207809633794">
						<True/>
						<Node score="0.017747855870425436">
							<SimplePredicate field="confirmed_3days" operator="greaterThan" value="5.500000000000001"/>
							<Node score="0.03537915239323606">
								<SimplePredicate field="confirmed_3days" operator="greaterThan" value="187.33333333333334"/>
							</Node>
						</Node>
						<Node score="0.0074206692621871">
							<SimplePredicate field="since_4_cases" operator="lessOrEqual" value="19.500000000000004"/>
						</Node>
						<Node score="-0.0016538020973521194">
							<SimplePredicate field="confirmed_3days" operator="greaterThan" value="1.0000000180025095E-35"/>
						</Node>
					</Node>
				</TreeModel>
			</Segment>
			<Segment id="77">
				<True/>
				<TreeModel functionName="regression" noTrueChildStrategy="returnLastPrediction">
					<MiningSchema>
						<MiningField name="confirmed_9_ago"/>
						<MiningField name="confirmed_3days"/>
					</MiningSchema>
					<Node score="-0.009863556446324698">
						<True/>
						<Node score="0.00986212034412912">
							<SimplePredicate field="confirmed_3days" operator="greaterThan" value="1.5000000000000002"/>
							<Node score="0.024455968944310374">
								<SimplePredicate field="confirmed_3days" operator="greaterThan" value="27.166666666666668"/>
								<Node score="0.04688564301957495">
									<SimplePredicate field="confirmed_3days" operator="greaterThan" value="1019.1666666666667"/>
								</Node>
							</Node>
						</Node>
						<Node score="-0.0033095907670939416">
							<SimplePredicate field="confirmed_9_ago" operator="greaterThan" value="1.0000000180025095E-35"/>
						</Node>
					</Node>
				</TreeModel>
			</Segment>
			<Segment id="78">
				<True/>
				<TreeModel functionName="regression" noTrueChildStrategy="returnLastPrediction">
					<MiningSchema>
						<MiningField name="fatalities_3days"/>
						<MiningField name="since_4_cases"/>
						<MiningField name="lon"/>
						<MiningField name="population"/>
					</MiningSchema>
					<Node score="-0.008358130643260827">
						<True/>
						<Node score="0.02603498392218255">
							<SimplePredicate field="since_4_cases" operator="lessOrEqual" value="75.50000000000001"/>
							<Node score="-0.004035182859439904">
								<SimplePredicate field="fatalities_3days" operator="lessOrEqual" value="0.8333333333333334"/>
								<Node score="-5.88544338187262E-4">
									<SimplePredicate field="lon" operator="greaterThan" value="70.57150000000001"/>
								</Node>
								<Node score="0.014979810027533002">
									<SimplePredicate field="population" operator="greaterThan" value="598550.5000000001"/>
								</Node>
							</Node>
						</Node>
					</Node>
				</TreeModel>
			</Segment>
			<Segment id="79">
				<True/>
				<TreeModel functionName="regression" noTrueChildStrategy="returnLastPrediction">
					<MiningSchema>
						<MiningField name="confirmed_3days"/>
						<MiningField name="since_1_cases"/>
					</MiningSchema>
					<Node score="-0.00861426839048054">
						<True/>
						<Node score="0.018257915254411488">
							<SimplePredicate field="confirmed_3days" operator="greaterThan" value="5.500000000000001"/>
							<Node score="0.04046117739069029">
								<SimplePredicate field="confirmed_3days" operator="greaterThan" value="493.1666666666667"/>
							</Node>
						</Node>
						<Node score="0.010249360101869437">
							<SimplePredicate field="since_1_cases" operator="lessOrEqual" value="26.500000000000004"/>
							<Node score="-0.00212473507577493">
								<SimplePredicate field="confirmed_3days" operator="lessOrEqual" value="0.8333333333333334"/>
							</Node>
						</Node>
					</Node>
				</TreeModel>
			</Segment>
			<Segment id="80">
				<True/>
				<TreeModel functionName="regression" noTrueChildStrategy="returnLastPrediction">
					<MiningSchema>
						<MiningField name="confirmed_3days"/>
						<MiningField name="since_1_cases"/>
					</MiningSchema>
					<Node score="-0.009246777335036756">
						<True/>
						<Node score="0.01855556009750394">
							<SimplePredicate field="confirmed_3days" operator="greaterThan" value="6.500000000000001"/>
							<Node score="0.039935284063258435">
								<SimplePredicate field="confirmed_3days" operator="greaterThan" value="493.1666666666667"/>
							</Node>
						</Node>
						<Node score="0.0038848499569661085">
							<SimplePredicate field="confirmed_3days" operator="greaterThan" value="0.5000000000000001"/>
						</Node>
						<Node score="1.5135819797618849E-4">
							<SimplePredicate field="since_1_cases" operator="lessOrEqual" value="21.500000000000004"/>
						</Node>
					</Node>
				</TreeModel>
			</Segment>
			<Segment id="81">
				<True/>
				<TreeModel functionName="regression" noTrueChildStrategy="returnLastPrediction">
					<MiningSchema>
						<MiningField name="confirmed_3days"/>
						<MiningField name="since_1_cases"/>
					</MiningSchema>
					<Node score="-0.008675399159283498">
						<True/>
						<Node score="0.010471986632304526">
							<SimplePredicate field="confirmed_3days" operator="greaterThan" value="2.5000000000000004"/>
							<Node score="0.023519709363091525">
								<SimplePredicate field="confirmed_3days" operator="greaterThan" value="28.83333333333334"/>
								<Node score="0.044915809032745835">
									<SimplePredicate field="confirmed_3days" operator="greaterThan" value="1019.1666666666667"/>
								</Node>
							</Node>
						</Node>
						<Node score="0.0024513455410170018">
							<SimplePredicate field="since_1_cases" operator="lessOrEqual" value="23.500000000000004"/>
						</Node>
					</Node>
				</TreeModel>
			</Segment>
			<Segment id="82">
				<True/>
				<TreeModel functionName="regression" noTrueChildStrategy="returnLastPrediction">
					<MiningSchema>
						<MiningField name="confirmed_3days"/>
						<MiningField name="since_4_cases"/>
					</MiningSchema>
					<Node score="-0.0088806496579506">
						<True/>
						<Node score="0.0180866633675442">
							<SimplePredicate field="confirmed_3days" operator="greaterThan" value="6.500000000000001"/>
							<Node score="0.0389468211790909">
								<SimplePredicate field="confirmed_3days" operator="greaterThan" value="493.1666666666667"/>
							</Node>
						</Node>
						<Node score="0.006573167459278939">
							<SimplePredicate field="since_4_cases" operator="lessOrEqual" value="21.500000000000004"/>
						</Node>
						<Node score="-0.0016550031269278623">
							<SimplePredicate field="confirmed_3days" operator="greaterThan" value="1.0000000180025095E-35"/>
						</Node>
					</Node>
				</TreeModel>
			</Segment>
			<Segment id="83">
				<True/>
				<TreeModel functionName="regression" noTrueChildStrategy="returnLastPrediction">
					<MiningSchema>
						<MiningField name="confirmed_3days"/>
						<MiningField name="since_1_cases"/>
					</MiningSchema>
					<Node score="-0.008620442713502255">
						<True/>
						<Node score="0.008826699190225952">
							<SimplePredicate field="confirmed_3days" operator="greaterThan" value="1.5000000000000002"/>
							<Node score="0.022692712252502613">
								<SimplePredicate field="confirmed_3days" operator="greaterThan" value="24.500000000000004"/>
								<Node score="0.04534808676479701">
									<SimplePredicate field="confirmed_3days" operator="greaterThan" value="1156.8333333333335"/>
								</Node>
							</Node>
						</Node>
						<Node score="0.001568660362924063">
							<SimplePredicate field="since_1_cases" operator="lessOrEqual" value="21.500000000000004"/>
						</Node>
					</Node>
				</TreeModel>
			</Segment>
			<Segment id="84">
				<True/>
				<TreeModel functionName="regression" noTrueChildStrategy="returnLastPrediction">
					<MiningSchema>
						<MiningField name="confirmed_3days"/>
						<MiningField name="since_4_cases"/>
					</MiningSchema>
					<Node score="-0.008649418253310505">
						<True/>
						<Node score="0.017136766611630445">
							<SimplePredicate field="confirmed_3days" operator="greaterThan" value="6.500000000000001"/>
							<Node score="0.03494589996481743">
								<SimplePredicate field="confirmed_3days" operator="greaterThan" value="312.00000000000006"/>
							</Node>
						</Node>
						<Node score="0.007637538823162607">
							<SimplePredicate field="since_4_cases" operator="lessOrEqual" value="18.500000000000004"/>
						</Node>
						<Node score="-0.001358150928749791">
							<SimplePredicate field="confirmed_3days" operator="greaterThan" value="1.0000000180025095E-35"/>
						</Node>
					</Node>
				</TreeModel>
			</Segment>
			<Segment id="85">
				<True/>
				<TreeModel functionName="regression" noTrueChildStrategy="returnLastPrediction">
					<MiningSchema>
						<MiningField name="confirmed_3days"/>
						<MiningField name="since_1_cases"/>
					</MiningSchema>
					<Node score="-0.008406540357763588">
						<True/>
						<Node score="0.008214073000151348">
							<SimplePredicate field="confirmed_3days" operator="greaterThan" value="1.5000000000000002"/>
							<Node score="0.021629779597212975">
								<SimplePredicate field="confirmed_3days" operator="greaterThan" value="21.500000000000004"/>
								<Node score="0.04282048833963042">
									<SimplePredicate field="confirmed_3days" operator="greaterThan" value="1019.1666666666667"/>
								</Node>
							</Node>
						</Node>
						<Node score="0.0015532983472367355">
							<SimplePredicate field="since_1_cases" operator="lessOrEqual" value="21.500000000000004"/>
						</Node>
					</Node>
				</TreeModel>
			</Segment>
			<Segment id="86">
				<True/>
				<TreeModel functionName="regression" noTrueChildStrategy="returnLastPrediction">
					<MiningSchema>
						<MiningField name="confirmed_3days"/>
						<MiningField name="since_4_cases"/>
					</MiningSchema>
					<Node score="-0.008433063034766616">
						<True/>
						<Node score="0.016089642527737546">
							<SimplePredicate field="confirmed_3days" operator="greaterThan" value="6.500000000000001"/>
							<Node score="0.03151468937132784">
								<SimplePredicate field="confirmed_3days" operator="greaterThan" value="187.33333333333334"/>
							</Node>
						</Node>
						<Node score="0.007492115908284304">
							<SimplePredicate field="since_4_cases" operator="lessOrEqual" value="18.500000000000004"/>
						</Node>
						<Node score="-0.0013520703967962937">
							<SimplePredicate field="confirmed_3days" operator="greaterThan" value="1.0000000180025095E-35"/>
						</Node>
					</Node>
				</TreeModel>
			</Segment>
			<Segment id="87">
				<True/>
				<TreeModel functionName="regression" noTrueChildStrategy="returnLastPrediction">
					<MiningSchema>
						<MiningField name="confirmed_3days"/>
						<MiningField name="since_1_cases"/>
					</MiningSchema>
					<Node score="-0.008197954404970573">
						<True/>
						<Node score="0.00875289846164135">
							<SimplePredicate field="confirmed_3days" operator="greaterThan" value="1.5000000000000002"/>
							<Node score="0.022190629654281386">
								<SimplePredicate field="confirmed_3days" operator="greaterThan" value="28.83333333333334"/>
								<Node score="0.04513749238477085">
									<SimplePredicate field="confirmed_3days" operator="greaterThan" value="1342.0000000000002"/>
								</Node>
							</Node>
						</Node>
						<Node score="0.0015379579602380602">
							<SimplePredicate field="since_1_cases" operator="lessOrEqual" value="21.500000000000004"/>
						</Node>
					</Node>
				</TreeModel>
			</Segment>
			<Segment id="88">
				<True/>
				<TreeModel functionName="regression" noTrueChildStrategy="returnLastPrediction">
					<MiningSchema>
						<MiningField name="confirmed_9_ago"/>
						<MiningField name="fatalities_3days"/>
						<MiningField name="since_16_cases"/>
						<MiningField name="lon"/>
					</MiningSchema>
					<Node score="-0.008255812487670908">
						<True/>
						<Node score="0.026219364796000604">
							<SimplePredicate field="since_16_cases" operator="lessOrEqual" value="63.50000000000001"/>
							<Node score="0.012974721711981854">
								<SimplePredicate field="fatalities_3days" operator="lessOrEqual" value="2.1666666666666674"/>
								<Node score="-3.416519941583993E-4">
									<SimplePredicate field="lon" operator="greaterThan" value="79.50000000000001"/>
								</Node>
							</Node>
						</Node>
						<Node score="0.0015108327903178122">
							<SimplePredicate field="confirmed_9_ago" operator="greaterThan" value="1.5000000000000002"/>
						</Node>
					</Node>
				</TreeModel>
			</Segment>
			<Segment id="89">
				<True/>
				<TreeModel functionName="regression" noTrueChildStrategy="returnLastPrediction">
					<MiningSchema>
						<MiningField name="confirmed_3days"/>
						<MiningField name="since_4_cases"/>
					</MiningSchema>
					<Node score="-0.008129928456074579">
						<True/>
						<Node score="0.01656150005684011">
							<SimplePredicate field="confirmed_3days" operator="greaterThan" value="6.500000000000001"/>
							<Node score="0.035935967648800034">
								<SimplePredicate field="confirmed_3days" operator="greaterThan" value="493.1666666666667"/>
							</Node>
						</Node>
						<Node score="0.007287916233423322">
							<SimplePredicate field="since_4_cases" operator="lessOrEqual" value="18.500000000000004"/>
						</Node>
						<Node score="-0.0013845055552996611">
							<SimplePredicate field="confirmed_3days" operator="greaterThan" value="1.0000000180025095E-35"/>
						</Node>
					</Node>
				</TreeModel>
			</Segment>
			<Segment id="90">
				<True/>
				<TreeModel functionName="regression" noTrueChildStrategy="returnLastPrediction">
					<MiningSchema>
						<MiningField name="confirmed_3days"/>
						<MiningField name="since_4_cases"/>
					</MiningSchema>
					<Node score="-0.008032670847945485">
						<True/>
						<Node score="0.01706733049125425">
							<SimplePredicate field="confirmed_3days" operator="greaterThan" value="8.16666666666667"/>
							<Node score="0.03623671293077291">
								<SimplePredicate field="confirmed_3days" operator="greaterThan" value="578.5000000000001"/>
							</Node>
						</Node>
						<Node score="0.006387043384212799">
							<SimplePredicate field="since_4_cases" operator="lessOrEqual" value="21.500000000000004"/>
						</Node>
						<Node score="-0.0015022323295895157">
							<SimplePredicate field="confirmed_3days" operator="greaterThan" value="1.0000000180025095E-35"/>
						</Node>
					</Node>
				</TreeModel>
			</Segment>
			<Segment id="91">
				<True/>
				<TreeModel functionName="regression" noTrueChildStrategy="returnLastPrediction">
					<MiningSchema>
						<MiningField name="confirmed_3days"/>
						<MiningField name="since_4_cases"/>
					</MiningSchema>
					<Node score="-0.007921063099058127">
						<True/>
						<Node score="0.01674538073611538">
							<SimplePredicate field="confirmed_3days" operator="greaterThan" value="8.16666666666667"/>
							<Node score="0.035017213375409625">
								<SimplePredicate field="confirmed_3days" operator="greaterThan" value="493.1666666666667"/>
							</Node>
						</Node>
						<Node score="0.007008829285223479">
							<SimplePredicate field="since_4_cases" operator="lessOrEqual" value="19.500000000000004"/>
						</Node>
						<Node score="-0.0012902985551117249">
							<SimplePredicate field="confirmed_3days" operator="greaterThan" value="1.0000000180025095E-35"/>
						</Node>
					</Node>
				</TreeModel>
			</Segment>
			<Segment id="92">
				<True/>
				<TreeModel functionName="regression" noTrueChildStrategy="returnLastPrediction">
					<MiningSchema>
						<MiningField name="confirmed_3days"/>
						<MiningField name="since_1_cases"/>
					</MiningSchema>
					<Node score="-0.007726656658516089">
						<True/>
						<Node score="0.008174014670014364">
							<SimplePredicate field="confirmed_3days" operator="greaterThan" value="1.5000000000000002"/>
							<Node score="0.020927531777376718">
								<SimplePredicate field="confirmed_3days" operator="greaterThan" value="28.83333333333334"/>
								<Node score="0.04282618147528241">
									<SimplePredicate field="confirmed_3days" operator="greaterThan" value="1342.0000000000002"/>
								</Node>
							</Node>
						</Node>
						<Node score="0.0015538307738621386">
							<SimplePredicate field="since_1_cases" operator="lessOrEqual" value="21.500000000000004"/>
						</Node>
					</Node>
				</TreeModel>
			</Segment>
			<Segment id="93">
				<True/>
				<TreeModel functionName="regression" noTrueChildStrategy="returnLastPrediction">
					<MiningSchema>
						<MiningField name="confirmed_3days"/>
						<MiningField name="since_1_cases"/>
					</MiningSchema>
					<Node score="-0.007351940982794167">
						<True/>
						<Node score="0.011003839765071603">
							<SimplePredicate field="confirmed_3days" operator="greaterThan" value="3.8333333333333335"/>
							<Node score="0.022005247261036507">
								<SimplePredicate field="confirmed_3days" operator="greaterThan" value="51.833333333333336"/>
								<Node score="0.04226968801505115">
									<SimplePredicate field="confirmed_3days" operator="greaterThan" value="1342.0000000000002"/>
								</Node>
							</Node>
						</Node>
						<Node score="0.0028507353040632005">
							<SimplePredicate field="since_1_cases" operator="lessOrEqual" value="24.500000000000004"/>
						</Node>
					</Node>
				</TreeModel>
			</Segment>
			<Segment id="94">
				<True/>
				<TreeModel functionName="regression" noTrueChildStrategy="returnLastPrediction">
					<MiningSchema>
						<MiningField name="confirmed_3days"/>
						<MiningField name="since_1_cases"/>
					</MiningSchema>
					<Node score="-0.007733683079020434">
						<True/>
						<Node score="0.01621934557788568">
							<SimplePredicate field="confirmed_3days" operator="greaterThan" value="8.16666666666667"/>
							<Node score="0.03449320183030112">
								<SimplePredicate field="confirmed_3days" operator="greaterThan" value="578.5000000000001"/>
							</Node>
						</Node>
						<Node score="0.003543422697427967">
							<SimplePredicate field="confirmed_3days" operator="greaterThan" value="0.5000000000000001"/>
						</Node>
						<Node score="0.0010551613085497873">
							<SimplePredicate field="since_1_cases" operator="lessOrEqual" value="18.500000000000004"/>
						</Node>
					</Node>
				</TreeModel>
			</Segment>
			<Segment id="95">
				<True/>
				<TreeModel functionName="regression" noTrueChildStrategy="returnLastPrediction">
					<MiningSchema>
						<MiningField name="fatalities_3days"/>
						<MiningField name="since_4_cases"/>
						<MiningField name="since_16_cases"/>
					</MiningSchema>
					<Node score="-0.006755289697722936">
						<True/>
						<Node score="0.03840388889941227">
							<SimplePredicate field="since_4_cases" operator="lessOrEqual" value="75.50000000000001"/>
							<Node score="5.91253025681853E-4">
								<SimplePredicate field="fatalities_3days" operator="lessOrEqual" value="0.8333333333333334"/>
								<Node score="0.011152803210742728">
									<SimplePredicate field="since_16_cases" operator="lessOrEqual" value="24.500000000000004"/>
								</Node>
							</Node>
							<Node score="0.018733692773594966">
								<SimplePredicate field="fatalities_3days" operator="lessOrEqual" value="61.16666666666668"/>
							</Node>
						</Node>
					</Node>
				</TreeModel>
			</Segment>
			<Segment id="96">
				<True/>
				<TreeModel functionName="regression" noTrueChildStrategy="returnLastPrediction">
					<MiningSchema>
						<MiningField name="confirmed_3days"/>
						<MiningField name="since_4_cases"/>
					</MiningSchema>
					<Node score="-0.00745772355319046">
						<True/>
						<Node score="0.015372819555617163">
							<SimplePredicate field="confirmed_3days" operator="greaterThan" value="8.16666666666667"/>
							<Node score="0.030673481579750864">
								<SimplePredicate field="confirmed_3days" operator="greaterThan" value="333.8333333333334"/>
							</Node>
						</Node>
						<Node score="0.006733537953822326">
							<SimplePredicate field="since_4_cases" operator="lessOrEqual" value="19.500000000000004"/>
						</Node>
						<Node score="-0.0013145739947459793">
							<SimplePredicate field="confirmed_3days" operator="greaterThan" value="1.0000000180025095E-35"/>
						</Node>
					</Node>
				</TreeModel>
			</Segment>
			<Segment id="97">
				<True/>
				<TreeModel functionName="regression" noTrueChildStrategy="returnLastPrediction">
					<MiningSchema>
						<MiningField name="confirmed_9_ago"/>
						<MiningField name="confirmed_3days"/>
					</MiningSchema>
					<Node score="-0.00771453611989502">
						<True/>
						<Node score="0.006962176187364183">
							<SimplePredicate field="confirmed_3days" operator="greaterThan" value="1.5000000000000002"/>
							<Node score="0.019050709651092818">
								<SimplePredicate field="confirmed_3days" operator="greaterThan" value="21.500000000000004"/>
								<Node score="0.04045915095656383">
									<SimplePredicate field="confirmed_3days" operator="greaterThan" value="1342.0000000000002"/>
								</Node>
							</Node>
						</Node>
						<Node score="-0.002578389849591219">
							<SimplePredicate field="confirmed_9_ago" operator="greaterThan" value="1.0000000180025095E-35"/>
						</Node>
					</Node>
				</TreeModel>
			</Segment>
			<Segment id="98">
				<True/>
				<TreeModel functionName="regression" noTrueChildStrategy="returnLastPrediction">
					<MiningSchema>
						<MiningField name="confirmed_3days"/>
						<MiningField name="since_4_cases"/>
					</MiningSchema>
					<Node score="-0.007271120538573124">
						<True/>
						<Node score="0.015445948190412378">
							<SimplePredicate field="confirmed_3days" operator="greaterThan" value="8.16666666666667"/>
							<Node score="0.032919248918098915">
								<SimplePredicate field="confirmed_3days" operator="greaterThan" value="578.5000000000001"/>
							</Node>
						</Node>
						<Node score="0.006611975386852296">
							<SimplePredicate field="since_4_cases" operator="lessOrEqual" value="19.500000000000004"/>
						</Node>
						<Node score="-0.0013152587317567534">
							<SimplePredicate field="confirmed_3days" operator="greaterThan" value="1.0000000180025095E-35"/>
						</Node>
					</Node>
				</TreeModel>
			</Segment>
			<Segment id="99">
				<True/>
				<TreeModel functionName="regression" noTrueChildStrategy="returnLastPrediction">
					<MiningSchema>
						<MiningField name="confirmed_3days"/>
						<MiningField name="since_1_cases"/>
					</MiningSchema>
					<Node score="-0.007109741784222284">
						<True/>
						<Node score="0.007446429657429935">
							<SimplePredicate field="confirmed_3days" operator="greaterThan" value="1.5000000000000002"/>
							<Node score="0.01926353191838207">
