<?xml version="1.0" encoding="UTF-8" standalone="yes"?>
<PMML xmlns="http://www.dmg.org/PMML-4_3" xmlns:data="http://jpmml.org/jpmml-model/InlineTable" version="4.3">
	<Header>
		<Application name="JPMML-LightGBM" version="1.2-SNAPSHOT"/>
		<Timestamp>2020-04-21T05:28:54Z</Timestamp>
	</Header>
	<DataDictionary>
		<DataField name="_target" optype="continuous" dataType="double"/>
		<DataField name="confirmed_24_ago" optype="continuous" dataType="double">
			<Interval closure="closedClosed" leftMargin="0.0" rightMargin="86498.0"/>
		</DataField>
		<DataField name="recovered_24_ago" optype="continuous" dataType="double">
			<Interval closure="closedClosed" leftMargin="0.0" rightMargin="61732.0"/>
		</DataField>
		<DataField name="confirmed_3days" optype="continuous" dataType="double">
			<Interval closure="closedClosed" leftMargin="0.0" rightMargin="8611.333333333334"/>
		</DataField>
		<DataField name="fatalities_3days" optype="continuous" dataType="double">
			<Interval closure="closedClosed" leftMargin="0.0" rightMargin="776.6666666666666"/>
		</DataField>
		<DataField name="since_1_cases" optype="continuous" dataType="double">
			<Interval closure="closedClosed" leftMargin="24.0" rightMargin="89.0"/>
		</DataField>
		<DataField name="since_4_cases" optype="continuous" dataType="double">
			<Interval closure="closedClosed" leftMargin="24.0" rightMargin="89.0"/>
		</DataField>
		<DataField name="since_16_cases" optype="continuous" dataType="double">
			<Interval closure="closedClosed" leftMargin="24.0" rightMargin="89.0"/>
		</DataField>
		<DataField name="since_64_cases" optype="continuous" dataType="double">
			<Interval closure="closedClosed" leftMargin="24.0" rightMargin="89.0"/>
		</DataField>
		<DataField name="since_4096_cases" optype="continuous" dataType="double">
			<Interval closure="closedClosed" leftMargin="24.0" rightMargin="81.0"/>
		</DataField>
		<DataField name="lat" optype="continuous" dataType="double">
			<Interval closure="closedClosed" leftMargin="-51.7963" rightMargin="71.7069"/>
		</DataField>
		<DataField name="lon" optype="continuous" dataType="double">
			<Interval closure="closedClosed" leftMargin="-157.4983" rightMargin="178.065"/>
		</DataField>
		<DataField name="Americas" optype="continuous" dataType="double">
			<Interval closure="closedClosed" leftMargin="0.0" rightMargin="1.0"/>
		</DataField>
		<DataField name="Asia" optype="continuous" dataType="double">
			<Interval closure="closedClosed" leftMargin="0.0" rightMargin="1.0"/>
		</DataField>
		<DataField name="Europe" optype="continuous" dataType="double">
			<Interval closure="closedClosed" leftMargin="0.0" rightMargin="1.0"/>
		</DataField>
		<DataField name="population" optype="continuous" dataType="double">
			<Interval closure="closedClosed" leftMargin="799.0" rightMargin="1.366417754E9"/>
		</DataField>
		<DataField name="area" optype="continuous" dataType="double">
			<Interval closure="closedClosed" leftMargin="0.0" rightMargin="1.7098246E7"/>
		</DataField>
		<DataField name="density" optype="continuous" dataType="double">
			<Interval closure="closedClosed" leftMargin="0.03" rightMargin="21496.67"/>
		</DataField>
	</DataDictionary>
	<MiningModel functionName="regression" algorithmName="LightGBM">
		<MiningSchema>
			<MiningField name="_target" usageType="target"/>
			<MiningField name="confirmed_24_ago" importance="39.0" invalidValueTreatment="asIs"/>
			<MiningField name="recovered_24_ago" importance="6.0" invalidValueTreatment="asIs"/>
			<MiningField name="confirmed_3days" importance="262.0" invalidValueTreatment="asIs"/>
			<MiningField name="fatalities_3days" importance="44.0" invalidValueTreatment="asIs"/>
			<MiningField name="since_1_cases" importance="94.0" invalidValueTreatment="asIs"/>
			<MiningField name="since_4_cases" importance="19.0" invalidValueTreatment="asIs"/>
			<MiningField name="since_16_cases" importance="7.0" invalidValueTreatment="asIs"/>
			<MiningField name="since_64_cases" importance="19.0" invalidValueTreatment="asIs"/>
			<MiningField name="since_4096_cases" importance="2.0" invalidValueTreatment="asIs"/>
			<MiningField name="lat" importance="84.0" invalidValueTreatment="asIs"/>
			<MiningField name="lon" importance="121.0" invalidValueTreatment="asIs"/>
			<MiningField name="Americas" importance="1.0" invalidValueTreatment="asIs"/>
			<MiningField name="Asia" importance="5.0" invalidValueTreatment="asIs"/>
			<MiningField name="Europe" importance="2.0" invalidValueTreatment="asIs"/>
			<MiningField name="population" importance="90.0" invalidValueTreatment="asIs"/>
			<MiningField name="area" importance="1.0" invalidValueTreatment="asIs"/>
			<MiningField name="density" importance="4.0" invalidValueTreatment="asIs"/>
		</MiningSchema>
		<Segmentation multipleModelMethod="sum">
			<Segment id="1">
				<True/>
				<TreeModel functionName="regression" noTrueChildStrategy="returnLastPrediction">
					<MiningSchema>
						<MiningField name="confirmed_24_ago"/>
						<MiningField name="confirmed_3days"/>
						<MiningField name="lon"/>
					</MiningSchema>
					<Node score="3.077341819667596">
						<True/>
						<Node score="3.1335931258745036">
							<SimplePredicate field="confirmed_3days" operator="greaterThan" value="1.0000000180025095E-35"/>
							<Node score="3.1659209663504546">
								<SimplePredicate field="confirmed_3days" operator="greaterThan" value="20.83333333333334"/>
							</Node>
							<Node score="3.1080009081661344">
								<SimplePredicate field="lon" operator="greaterThan" value="79.50000000000001"/>
							</Node>
						</Node>
						<Node score="3.095218290140961">
							<SimplePredicate field="confirmed_24_ago" operator="greaterThan" value="1.0000000180025095E-35"/>
						</Node>
					</Node>
				</TreeModel>
			</Segment>
			<Segment id="2">
				<True/>
				<TreeModel functionName="regression" noTrueChildStrategy="returnLastPrediction">
					<MiningSchema>
						<MiningField name="confirmed_3days"/>
						<MiningField name="since_1_cases"/>
						<MiningField name="lon"/>
					</MiningSchema>
					<Node score="-0.018690056784296458">
						<True/>
						<Node score="0.04125293722664543">
							<SimplePredicate field="confirmed_3days" operator="greaterThan" value="0.5000000000000001"/>
							<Node score="0.07119806663472937">
								<SimplePredicate field="confirmed_3days" operator="greaterThan" value="26.166666666666668"/>
							</Node>
							<Node score="0.015521184918108053">
								<SimplePredicate field="lon" operator="greaterThan" value="79.50000000000001"/>
							</Node>
						</Node>
						<Node score="0.011352599412684197">
							<SimplePredicate field="since_1_cases" operator="lessOrEqual" value="55.50000000000001"/>
						</Node>
					</Node>
				</TreeModel>
			</Segment>
			<Segment id="3">
				<True/>
				<TreeModel functionName="regression" noTrueChildStrategy="returnLastPrediction">
					<MiningSchema>
						<MiningField name="confirmed_24_ago"/>
						<MiningField name="confirmed_3days"/>
						<MiningField name="since_16_cases"/>
					</MiningSchema>
					<Node score="-0.01875254546718356">
						<True/>
						<Node score="0.03127764577909034">
							<SimplePredicate field="confirmed_3days" operator="greaterThan" value="0.5000000000000001"/>
							<Node score="0.0702725749955281">
								<SimplePredicate field="confirmed_3days" operator="greaterThan" value="26.166666666666668"/>
							</Node>
						</Node>
						<Node score="0.011449811603060942">
							<SimplePredicate field="confirmed_24_ago" operator="greaterThan" value="1.0000000180025095E-35"/>
							<Node score="-0.017500356915009705">
								<SimplePredicate field="since_16_cases" operator="greaterThan" value="43.50000000000001"/>
							</Node>
						</Node>
					</Node>
				</TreeModel>
			</Segment>
			<Segment id="4">
				<True/>
				<TreeModel functionName="regression" noTrueChildStrategy="returnLastPrediction">
					<MiningSchema>
						<MiningField name="confirmed_3days"/>
						<MiningField name="since_1_cases"/>
						<MiningField name="since_16_cases"/>
					</MiningSchema>
					<Node score="-0.018377855703214534">
						<True/>
						<Node score="0.01839080726085952">
							<SimplePredicate field="confirmed_3days" operator="greaterThan" value="1.0000000180025095E-35"/>
							<Node score="0.06671920148579594">
								<SimplePredicate field="confirmed_3days" operator="greaterThan" value="20.83333333333334"/>
							</Node>
							<Node score="0.04024126864577935">
								<SimplePredicate field="since_16_cases" operator="lessOrEqual" value="36.50000000000001"/>
							</Node>
						</Node>
						<Node score="0.008651578262581137">
							<SimplePredicate field="since_1_cases" operator="lessOrEqual" value="55.50000000000001"/>
						</Node>
					</Node>
				</TreeModel>
			</Segment>
			<Segment id="5">
				<True/>
				<TreeModel functionName="regression" noTrueChildStrategy="returnLastPrediction">
					<MiningSchema>
						<MiningField name="confirmed_3days"/>
						<MiningField name="lon"/>
					</MiningSchema>
					<Node score="-0.015994847778720196">
						<True/>
						<Node score="0.03989487236758018">
							<SimplePredicate field="confirmed_3days" operator="greaterThan" value="0.5000000000000001"/>
							<Node score="0.06849184959585322">
								<SimplePredicate field="confirmed_3days" operator="greaterThan" value="26.166666666666668"/>
							</Node>
							<Node score="0.01455750511862763">
								<SimplePredicate field="lon" operator="greaterThan" value="79.50000000000001"/>
							</Node>
						</Node>
						<Node score="0.01143691212940554">
							<SimplePredicate field="confirmed_3days" operator="greaterThan" value="1.0000000180025095E-35"/>
						</Node>
					</Node>
				</TreeModel>
			</Segment>
			<Segment id="6">
				<True/>
				<TreeModel functionName="regression" noTrueChildStrategy="returnLastPrediction">
					<MiningSchema>
						<MiningField name="confirmed_24_ago"/>
						<MiningField name="confirmed_3days"/>
						<MiningField name="lon"/>
					</MiningSchema>
					<Node score="-0.01806192532242896">
						<True/>
						<Node score="0.03937626614728363">
							<SimplePredicate field="confirmed_3days" operator="greaterThan" value="0.5000000000000001"/>
							<Node score="0.06760153736186723">
								<SimplePredicate field="confirmed_3days" operator="greaterThan" value="26.166666666666668"/>
							</Node>
							<Node score="0.01436827421067357">
								<SimplePredicate field="lon" operator="greaterThan" value="79.50000000000001"/>
							</Node>
						</Node>
						<Node score="0.002739418934506236">
							<SimplePredicate field="confirmed_24_ago" operator="greaterThan" value="1.0000000180025095E-35"/>
						</Node>
					</Node>
				</TreeModel>
			</Segment>
			<Segment id="7">
				<True/>
				<TreeModel functionName="regression" noTrueChildStrategy="returnLastPrediction">
					<MiningSchema>
						<MiningField name="confirmed_3days"/>
						<MiningField name="since_1_cases"/>
						<MiningField name="since_64_cases"/>
					</MiningSchema>
					<Node score="-0.017712069533347252">
						<True/>
						<Node score="0.028224043314187174">
							<SimplePredicate field="confirmed_3days" operator="greaterThan" value="1.0000000180025095E-35"/>
							<Node score="0.05983204406839326">
								<SimplePredicate field="confirmed_3days" operator="greaterThan" value="13.16666666666667"/>
							</Node>
							<Node score="-0.0012171090578086542">
								<SimplePredicate field="since_64_cases" operator="greaterThan" value="32.50000000000001"/>
							</Node>
						</Node>
						<Node score="0.008711421325664026">
							<SimplePredicate field="since_1_cases" operator="lessOrEqual" value="55.50000000000001"/>
						</Node>
					</Node>
				</TreeModel>
			</Segment>
			<Segment id="8">
				<True/>
				<TreeModel functionName="regression" noTrueChildStrategy="returnLastPrediction">
					<MiningSchema>
						<MiningField name="confirmed_3days"/>
						<MiningField name="since_1_cases"/>
						<MiningField name="lon"/>
					</MiningSchema>
					<Node score="-0.017328077752214364">
						<True/>
						<Node score="0.03956327159065514">
							<SimplePredicate field="confirmed_3days" operator="greaterThan" value="0.5000000000000001"/>
							<Node score="0.06986321943140053">
								<SimplePredicate field="confirmed_3days" operator="greaterThan" value="36.833333333333336"/>
							</Node>
							<Node score="0.015020593823352366">
								<SimplePredicate field="lon" operator="greaterThan" value="79.50000000000001"/>
							</Node>
						</Node>
						<Node score="0.010731736194025785">
							<SimplePredicate field="since_1_cases" operator="lessOrEqual" value="55.50000000000001"/>
						</Node>
					</Node>
				</TreeModel>
			</Segment>
			<Segment id="9">
				<True/>
				<TreeModel functionName="regression" noTrueChildStrategy="returnLastPrediction">
					<MiningSchema>
						<MiningField name="confirmed_3days"/>
						<MiningField name="since_1_cases"/>
						<MiningField name="lon"/>
					</MiningSchema>
					<Node score="-0.0171028153482575">
						<True/>
						<Node score="0.03792131381163634">
							<SimplePredicate field="confirmed_3days" operator="greaterThan" value="0.5000000000000001"/>
							<Node score="0.06513066796912546">
								<SimplePredicate field="confirmed_3days" operator="greaterThan" value="26.166666666666668"/>
							</Node>
							<Node score="0.01368050221030347">
								<SimplePredicate field="lon" operator="greaterThan" value="79.50000000000001"/>
							</Node>
						</Node>
						<Node score="0.010592233323854627">
							<SimplePredicate field="since_1_cases" operator="lessOrEqual" value="55.50000000000001"/>
						</Node>
					</Node>
				</TreeModel>
			</Segment>
			<Segment id="10">
				<True/>
				<TreeModel functionName="regression" noTrueChildStrategy="returnLastPrediction">
					<MiningSchema>
						<MiningField name="confirmed_24_ago"/>
						<MiningField name="since_1_cases"/>
						<MiningField name="lon"/>
					</MiningSchema>
					<Node score="-0.016933939268387318">
						<True/>
						<Node score="0.021538271856228645">
							<SimplePredicate field="since_1_cases" operator="lessOrEqual" value="85.50000000000001"/>
							<Node score="0.006786126142393904">
								<SimplePredicate field="lon" operator="greaterThan" value="72.50930000000001"/>
							</Node>
							<Node score="0.0474229454118592">
								<SimplePredicate field="confirmed_24_ago" operator="greaterThan" value="11.500000000000002"/>
								<Node score="0.08276053112635881">
									<SimplePredicate field="confirmed_24_ago" operator="greaterThan" value="739.0000000000001"/>
								</Node>
							</Node>
						</Node>
					</Node>
				</TreeModel>
			</Segment>
			<Segment id="11">
				<True/>
				<TreeModel functionName="regression" noTrueChildStrategy="returnLastPrediction">
					<MiningSchema>
						<MiningField name="confirmed_3days"/>
						<MiningField name="since_1_cases"/>
						<MiningField name="lon"/>
					</MiningSchema>
					<Node score="-0.01668093844287034">
						<True/>
						<Node score="0.03802698087814592">
							<SimplePredicate field="confirmed_3days" operator="greaterThan" value="0.5000000000000001"/>
							<Node score="0.06744873741000763">
								<SimplePredicate field="confirmed_3days" operator="greaterThan" value="36.833333333333336"/>
							</Node>
							<Node score="0.014532404184032116">
								<SimplePredicate field="lon" operator="greaterThan" value="79.50000000000001"/>
							</Node>
						</Node>
						<Node score="0.010235644144390066">
							<SimplePredicate field="since_1_cases" operator="lessOrEqual" value="55.50000000000001"/>
						</Node>
					</Node>
				</TreeModel>
			</Segment>
			<Segment id="12">
				<True/>
				<TreeModel functionName="regression" noTrueChildStrategy="returnLastPrediction">
					<MiningSchema>
						<MiningField name="confirmed_3days"/>
						<MiningField name="since_1_cases"/>
					</MiningSchema>
					<Node score="-0.016614824808901932">
						<True/>
						<Node score="0.020361395488555502">
							<SimplePredicate field="confirmed_3days" operator="greaterThan" value="1.0000000180025095E-35"/>
							<Node score="0.04518436921304597">
								<SimplePredicate field="confirmed_3days" operator="greaterThan" value="8.833333333333334"/>
								<Node score="0.07678708725463225">
									<SimplePredicate field="confirmed_3days" operator="greaterThan" value="89.83333333333336"/>
								</Node>
							</Node>
						</Node>
						<Node score="0.007991316277823448">
							<SimplePredicate field="since_1_cases" operator="lessOrEqual" value="55.50000000000001"/>
						</Node>
					</Node>
				</TreeModel>
			</Segment>
			<Segment id="13">
				<True/>
				<TreeModel functionName="regression" noTrueChildStrategy="returnLastPrediction">
					<MiningSchema>
						<MiningField name="confirmed_3days"/>
						<MiningField name="since_1_cases"/>
						<MiningField name="since_64_cases"/>
					</MiningSchema>
					<Node score="-0.016253613384792632">
						<True/>
						<Node score="0.0311093066586049">
							<SimplePredicate field="confirmed_3days" operator="greaterThan" value="0.5000000000000001"/>
							<Node score="0.062111919469248766">
								<SimplePredicate field="confirmed_3days" operator="greaterThan" value="26.166666666666668"/>
							</Node>
							<Node score="0.002704151308966239">
								<SimplePredicate field="since_64_cases" operator="greaterThan" value="36.50000000000001"/>
							</Node>
						</Node>
						<Node score="0.00993707524833866">
							<SimplePredicate field="since_1_cases" operator="lessOrEqual" value="55.50000000000001"/>
						</Node>
					</Node>
				</TreeModel>
			</Segment>
			<Segment id="14">
				<True/>
				<TreeModel functionName="regression" noTrueChildStrategy="returnLastPrediction">
					<MiningSchema>
						<MiningField name="confirmed_3days"/>
						<MiningField name="since_1_cases"/>
						<MiningField name="lon"/>
					</MiningSchema>
					<Node score="-0.016042317850185943">
						<True/>
						<Node score="0.036741048174466606">
							<SimplePredicate field="confirmed_3days" operator="greaterThan" value="0.5000000000000001"/>
							<Node score="0.0649533440489098">
								<SimplePredicate field="confirmed_3days" operator="greaterThan" value="36.833333333333336"/>
							</Node>
							<Node score="0.013668143054059714">
								<SimplePredicate field="lon" operator="greaterThan" value="79.50000000000001"/>
							</Node>
						</Node>
						<Node score="0.00980790248139993">
							<SimplePredicate field="since_1_cases" operator="lessOrEqual" value="55.50000000000001"/>
						</Node>
					</Node>
				</TreeModel>
			</Segment>
			<Segment id="15">
				<True/>
				<TreeModel functionName="regression" noTrueChildStrategy="returnLastPrediction">
					<MiningSchema>
						<MiningField name="confirmed_3days"/>
						<MiningField name="since_1_cases"/>
						<MiningField name="lat"/>
					</MiningSchema>
					<Node score="-0.021046711093422852">
						<True/>
						<Node score="0.02673901768479535">
							<SimplePredicate field="confirmed_3days" operator="greaterThan" value="0.5000000000000001"/>
							<Node score="0.06054770384585296">
								<SimplePredicate field="confirmed_3days" operator="greaterThan" value="26.166666666666668"/>
							</Node>
						</Node>
						<Node score="0.009680409101144198">
							<SimplePredicate field="since_1_cases" operator="lessOrEqual" value="55.50000000000001"/>
						</Node>
						<Node score="-0.010151324041251613">
							<SimplePredicate field="lat" operator="greaterThan" value="27.690150000000006"/>
						</Node>
					</Node>
				</TreeModel>
			</Segment>
			<Segment id="16">
				<True/>
				<TreeModel functionName="regression" noTrueChildStrategy="returnLastPrediction">
					<MiningSchema>
						<MiningField name="confirmed_24_ago"/>
						<MiningField name="since_1_cases"/>
						<MiningField name="lon"/>
						<MiningField name="population"/>
					</MiningSchema>
					<Node score="-0.015673048311302548">
						<True/>
						<Node score="0.02001680640761193">
							<SimplePredicate field="since_1_cases" operator="lessOrEqual" value="85.50000000000001"/>
							<Node score="0.005821919175547606">
								<SimplePredicate field="lon" operator="greaterThan" value="72.50930000000001"/>
							</Node>
							<Node score="0.032367462320256765">
								<SimplePredicate field="confirmed_24_ago" operator="greaterThan" value="11.500000000000002"/>
								<Node score="0.05805216894145673">
									<SimplePredicate field="population" operator="greaterThan" value="4232088.000000001"/>
								</Node>
							</Node>
						</Node>
					</Node>
				</TreeModel>
			</Segment>
			<Segment id="17">
				<True/>
				<TreeModel functionName="regression" noTrueChildStrategy="returnLastPrediction">
					<MiningSchema>
						<MiningField name="confirmed_24_ago"/>
						<MiningField name="since_1_cases"/>
						<MiningField name="lat"/>
						<MiningField name="lon"/>
					</MiningSchema>
					<Node score="-0.02091356932059489">
						<True/>
						<Node score="0.019756605740504696">
							<SimplePredicate field="since_1_cases" operator="lessOrEqual" value="85.50000000000001"/>
							<Node score="0.005746237029883059">
								<SimplePredicate field="lon" operator="greaterThan" value="72.50930000000001"/>
							</Node>
							<Node score="0.048804519439927606">
								<SimplePredicate field="confirmed_24_ago" operator="greaterThan" value="11.500000000000002"/>
							</Node>
						</Node>
						<Node score="-0.009266414518693892">
							<SimplePredicate field="lat" operator="greaterThan" value="27.690150000000006"/>
						</Node>
					</Node>
				</TreeModel>
			</Segment>
			<Segment id="18">
				<True/>
				<TreeModel functionName="regression" noTrueChildStrategy="returnLastPrediction">
					<MiningSchema>
						<MiningField name="confirmed_3days"/>
						<MiningField name="since_1_cases"/>
						<MiningField name="lon"/>
					</MiningSchema>
					<Node score="-0.0150660275294896">
						<True/>
						<Node score="0.03855336877643168">
							<SimplePredicate field="confirmed_3days" operator="greaterThan" value="1.1666666666666667"/>
							<Node score="0.06226402386289824">
								<SimplePredicate field="confirmed_3days" operator="greaterThan" value="36.833333333333336"/>
							</Node>
							<Node score="0.015144227643977833">
								<SimplePredicate field="lon" operator="greaterThan" value="79.50000000000001"/>
							</Node>
						</Node>
						<Node score="0.009673577784552778">
							<SimplePredicate field="since_1_cases" operator="lessOrEqual" value="57.50000000000001"/>
						</Node>
					</Node>
				</TreeModel>
			</Segment>
			<Segment id="19">
				<True/>
				<TreeModel functionName="regression" noTrueChildStrategy="returnLastPrediction">
					<MiningSchema>
						<MiningField name="confirmed_3days"/>
						<MiningField name="since_1_cases"/>
						<MiningField name="lat"/>
					</MiningSchema>
					<Node score="-0.020132156636645998">
						<True/>
						<Node score="0.024577831972000117">
							<SimplePredicate field="confirmed_3days" operator="greaterThan" value="0.5000000000000001"/>
							<Node score="0.055906774141525874">
								<SimplePredicate field="confirmed_3days" operator="greaterThan" value="20.83333333333334"/>
							</Node>
						</Node>
						<Node score="0.00902433279306769">
							<SimplePredicate field="since_1_cases" operator="lessOrEqual" value="55.50000000000001"/>
						</Node>
						<Node score="-0.009542798401087228">
							<SimplePredicate field="lat" operator="greaterThan" value="27.690150000000006"/>
						</Node>
					</Node>
				</TreeModel>
			</Segment>
			<Segment id="20">
				<True/>
				<TreeModel functionName="regression" noTrueChildStrategy="returnLastPrediction">
					<MiningSchema>
						<MiningField name="confirmed_3days"/>
						<MiningField name="since_1_cases"/>
						<MiningField name="lon"/>
					</MiningSchema>
					<Node score="-0.014679264250055328">
						<True/>
						<Node score="0.037678785618311554">
							<SimplePredicate field="confirmed_3days" operator="greaterThan" value="1.1666666666666667"/>
							<Node score="0.06072797901384626">
								<SimplePredicate field="confirmed_3days" operator="greaterThan" value="36.833333333333336"/>
							</Node>
							<Node score="0.014577539157646563">
								<SimplePredicate field="lon" operator="greaterThan" value="79.50000000000001"/>
							</Node>
						</Node>
						<Node score="0.00938693070030303">
							<SimplePredicate field="since_1_cases" operator="lessOrEqual" value="57.50000000000001"/>
						</Node>
					</Node>
				</TreeModel>
			</Segment>
			<Segment id="21">
				<True/>
				<TreeModel functionName="regression" noTrueChildStrategy="returnLastPrediction">
					<MiningSchema>
						<MiningField name="confirmed_24_ago"/>
						<MiningField name="confirmed_3days"/>
						<MiningField name="lon"/>
					</MiningSchema>
					<Node score="-0.01487939385911451">
						<True/>
						<Node score="0.028883628925448254">
							<SimplePredicate field="confirmed_3days" operator="greaterThan" value="1.1666666666666667"/>
							<Node score="0.060048871455106345">
								<SimplePredicate field="confirmed_3days" operator="greaterThan" value="37.16666666666668"/>
							</Node>
						</Node>
						<Node score="0.017082344009925785">
							<SimplePredicate field="confirmed_24_ago" operator="greaterThan" value="1.0000000180025095E-35"/>
							<Node score="-0.007180268580836847">
								<SimplePredicate field="lon" operator="greaterThan" value="72.50930000000001"/>
							</Node>
						</Node>
					</Node>
				</TreeModel>
			</Segment>
			<Segment id="22">
				<True/>
				<TreeModel functionName="regression" noTrueChildStrategy="returnLastPrediction">
					<MiningSchema>
						<MiningField name="confirmed_3days"/>
						<MiningField name="since_1_cases"/>
						<MiningField name="lon"/>
					</MiningSchema>
					<Node score="-0.014608243494866646">
						<True/>
						<Node score="0.02566558000016477">
							<SimplePredicate field="confirmed_3days" operator="greaterThan" value="1.0000000180025095E-35"/>
							<Node score="0.04739649182837016">
								<SimplePredicate field="confirmed_3days" operator="greaterThan" value="8.833333333333334"/>
							</Node>
							<Node score="0.004239590483985582">
								<SimplePredicate field="lon" operator="greaterThan" value="72.50930000000001"/>
							</Node>
						</Node>
						<Node score="0.006985103941295604">
							<SimplePredicate field="since_1_cases" operator="lessOrEqual" value="54.50000000000001"/>
						</Node>
					</Node>
				</TreeModel>
			</Segment>
			<Segment id="23">
				<True/>
				<TreeModel functionName="regression" noTrueChildStrategy="returnLastPrediction">
					<MiningSchema>
						<MiningField name="confirmed_3days"/>
						<MiningField name="since_1_cases"/>
						<MiningField name="lon"/>
					</MiningSchema>
					<Node score="-0.01411798345074852">
						<True/>
						<Node score="0.036817817064550735">
							<SimplePredicate field="confirmed_3days" operator="greaterThan" value="1.1666666666666667"/>
							<Node score="0.06026031500682861">
								<SimplePredicate field="confirmed_3days" operator="greaterThan" value="43.833333333333336"/>
							</Node>
							<Node score="0.01416948180971845">
								<SimplePredicate field="lon" operator="greaterThan" value="79.50000000000001"/>
							</Node>
						</Node>
						<Node score="0.008983532913636204">
							<SimplePredicate field="since_1_cases" operator="lessOrEqual" value="57.50000000000001"/>
						</Node>
					</Node>
				</TreeModel>
			</Segment>
			<Segment id="24">
				<True/>
				<TreeModel functionName="regression" noTrueChildStrategy="returnLastPrediction">
					<MiningSchema>
						<MiningField name="confirmed_24_ago"/>
						<MiningField name="confirmed_3days"/>
						<MiningField name="lat"/>
					</MiningSchema>
					<Node score="-0.01959572443015417">
						<True/>
						<Node score="0.026504697837324658">
							<SimplePredicate field="confirmed_3days" operator="greaterThan" value="0.8333333333333334"/>
							<Node score="0.05780136561923256">
								<SimplePredicate field="confirmed_3days" operator="greaterThan" value="36.833333333333336"/>
							</Node>
						</Node>
						<Node score="0.003093668337638302">
							<SimplePredicate field="confirmed_24_ago" operator="greaterThan" value="1.0000000180025095E-35"/>
						</Node>
						<Node score="-0.008249829260120268">
							<SimplePredicate field="lat" operator="greaterThan" value="27.690150000000006"/>
						</Node>
					</Node>
				</TreeModel>
			</Segment>
			<Segment id="25">
				<True/>
				<TreeModel functionName="regression" noTrueChildStrategy="returnLastPrediction">
					<MiningSchema>
						<MiningField name="confirmed_3days"/>
						<MiningField name="since_1_cases"/>
						<MiningField name="lon"/>
					</MiningSchema>
					<Node score="-0.014064279614398432">
						<True/>
						<Node score="0.024775266489918013">
							<SimplePredicate field="confirmed_3days" operator="greaterThan" value="1.0000000180025095E-35"/>
							<Node score="0.04570483038533753">
								<SimplePredicate field="confirmed_3days" operator="greaterThan" value="8.833333333333334"/>
							</Node>
							<Node score="0.003837799428136137">
								<SimplePredicate field="lon" operator="greaterThan" value="72.50930000000001"/>
							</Node>
						</Node>
						<Node score="0.0067373225821943964">
							<SimplePredicate field="since_1_cases" operator="lessOrEqual" value="54.50000000000001"/>
						</Node>
					</Node>
				</TreeModel>
			</Segment>
			<Segment id="26">
				<True/>
				<TreeModel functionName="regression" noTrueChildStrategy="returnLastPrediction">
					<MiningSchema>
						<MiningField name="confirmed_3days"/>
						<MiningField name="since_1_cases"/>
						<MiningField name="lat"/>
					</MiningSchema>
					<Node score="-0.018355433934519834">
						<True/>
						<Node score="0.027505086411534485">
							<SimplePredicate field="confirmed_3days" operator="greaterThan" value="1.1666666666666667"/>
							<Node score="0.05813162224240343">
								<SimplePredicate field="confirmed_3days" operator="greaterThan" value="43.833333333333336"/>
							</Node>
						</Node>
						<Node score="0.008809024662937448">
							<SimplePredicate field="since_1_cases" operator="lessOrEqual" value="56.50000000000001"/>
						</Node>
						<Node score="-0.008330446127817368">
							<SimplePredicate field="lat" operator="greaterThan" value="27.690150000000006"/>
						</Node>
					</Node>
				</TreeModel>
			</Segment>
			<Segment id="27">
				<True/>
				<TreeModel functionName="regression" noTrueChildStrategy="returnLastPrediction">
					<MiningSchema>
						<MiningField name="confirmed_24_ago"/>
						<MiningField name="lat"/>
						<MiningField name="lon"/>
					</MiningSchema>
					<Node score="-0.01891953616675712">
						<True/>
						<Node score="0.01763894557213303">
							<SimplePredicate field="confirmed_24_ago" operator="greaterThan" value="1.0000000180025095E-35"/>
							<Node score="0.0041210613356631835">
								<SimplePredicate field="lon" operator="greaterThan" value="72.50930000000001"/>
							</Node>
							<Node score="0.043646033141494914">
								<SimplePredicate field="confirmed_24_ago" operator="greaterThan" value="11.500000000000002"/>
							</Node>
						</Node>
						<Node score="-0.007851458107416692">
							<SimplePredicate field="lat" operator="greaterThan" value="27.690150000000006"/>
						</Node>
					</Node>
				</TreeModel>
			</Segment>
			<Segment id="28">
				<True/>
				<TreeModel functionName="regression" noTrueChildStrategy="returnLastPrediction">
					<MiningSchema>
						<MiningField name="confirmed_24_ago"/>
						<MiningField name="confirmed_3days"/>
						<MiningField name="lon"/>
					</MiningSchema>
					<Node score="-0.013586757033927963">
						<True/>
						<Node score="0.028440314753622152">
							<SimplePredicate field="confirmed_3days" operator="greaterThan" value="1.1666666666666667"/>
							<Node score="0.06473585588323706">
								<SimplePredicate field="confirmed_3days" operator="greaterThan" value="86.16666666666667"/>
							</Node>
						</Node>
						<Node score="0.015834102950520488">
							<SimplePredicate field="confirmed_24_ago" operator="greaterThan" value="1.0000000180025095E-35"/>
							<Node score="-0.0070678992440626285">
								<SimplePredicate field="lon" operator="greaterThan" value="72.50930000000001"/>
							</Node>
						</Node>
					</Node>
				</TreeModel>
			</Segment>
			<Segment id="29">
				<True/>
				<TreeModel functionName="regression" noTrueChildStrategy="returnLastPrediction">
					<MiningSchema>
						<MiningField name="confirmed_24_ago"/>
						<MiningField name="confirmed_3days"/>
						<MiningField name="lon"/>
					</MiningSchema>
					<Node score="-0.013410131117121235">
						<True/>
						<Node score="0.02643862284932703">
							<SimplePredicate field="confirmed_3days" operator="greaterThan" value="1.1666666666666667"/>
							<Node score="0.05626442067734941">
								<SimplePredicate field="confirmed_3days" operator="greaterThan" value="43.833333333333336"/>
							</Node>
						</Node>
						<Node score="0.015628276113424926">
							<SimplePredicate field="confirmed_24_ago" operator="greaterThan" value="1.0000000180025095E-35"/>
							<Node score="-0.006976022613114822">
								<SimplePredicate field="lon" operator="greaterThan" value="72.50930000000001"/>
							</Node>
						</Node>
					</Node>
				</TreeModel>
			</Segment>
			<Segment id="30">
				<True/>
				<TreeModel functionName="regression" noTrueChildStrategy="returnLastPrediction">
					<MiningSchema>
						<MiningField name="since_1_cases"/>
						<MiningField name="since_16_cases"/>
						<MiningField name="since_4096_cases"/>
						<MiningField name="Asia"/>
					</MiningSchema>
					<Node score="-0.01302555296614935">
						<True/>
						<Node score="0.007691103541368381">
							<SimplePredicate field="since_1_cases" operator="lessOrEqual" value="84.50000000000001"/>
							<Node score="0.04290053862039474">
								<SimplePredicate field="since_16_cases" operator="lessOrEqual" value="45.50000000000001"/>
								<Node score="0.020938120558634192">
									<SimplePredicate field="Asia" operator="greaterThan" value="1.0000000180025095E-35"/>
								</Node>
							</Node>
							<Node score="0.06942422153558465">
								<SimplePredicate field="since_4096_cases" operator="lessOrEqual" value="52.50000000000001"/>
							</Node>
						</Node>
					</Node>
				</TreeModel>
			</Segment>
			<Segment id="31">
				<True/>
				<TreeModel functionName="regression" noTrueChildStrategy="returnLastPrediction">
					<MiningSchema>
						<MiningField name="confirmed_3days"/>
						<MiningField name="since_1_cases"/>
						<MiningField name="lat"/>
					</MiningSchema>
					<Node score="-0.01773190573115294">
						<True/>
						<Node score="0.020914508866767777">
							<SimplePredicate field="confirmed_3days" operator="greaterThan" value="0.5000000000000001"/>
							<Node score="0.04869600459089407">
								<SimplePredicate field="confirmed_3days" operator="greaterThan" value="20.83333333333334"/>
							</Node>
						</Node>
						<Node score="0.007623768134878996">
							<SimplePredicate field="since_1_cases" operator="lessOrEqual" value="55.50000000000001"/>
						</Node>
						<Node score="-0.007730156771479451">
							<SimplePredicate field="lat" operator="greaterThan" value="27.690150000000006"/>
						</Node>
					</Node>
				</TreeModel>
			</Segment>
			<Segment id="32">
				<True/>
				<TreeModel functionName="regression" noTrueChildStrategy="returnLastPrediction">
					<MiningSchema>
						<MiningField name="confirmed_24_ago"/>
						<MiningField name="confirmed_3days"/>
						<MiningField name="lon"/>
					</MiningSchema>
					<Node score="-0.012896505218766317">
						<True/>
						<Node score="0.034506436092354646">
							<SimplePredicate field="confirmed_3days" operator="greaterThan" value="1.1666666666666667"/>
							<Node score="0.06200187154054349">
								<SimplePredicate field="confirmed_3days" operator="greaterThan" value="86.16666666666667"/>
							</Node>
							<Node score="0.012405256486500819">
								<SimplePredicate field="lon" operator="greaterThan" value="93.19480000000001"/>
							</Node>
						</Node>
						<Node score="0.0032287570132925386">
							<SimplePredicate field="confirmed_24_ago" operator="greaterThan" value="1.0000000180025095E-35"/>
						</Node>
					</Node>
				</TreeModel>
			</Segment>
			<Segment id="33">
				<True/>
				<TreeModel functionName="regression" noTrueChildStrategy="returnLastPrediction">
					<MiningSchema>
						<MiningField name="confirmed_24_ago"/>
						<MiningField name="confirmed_3days"/>
						<MiningField name="lon"/>
					</MiningSchema>
					<Node score="-0.012728853013790987">
						<True/>
						<Node score="0.02663821282966139">
							<SimplePredicate field="confirmed_3days" operator="greaterThan" value="1.1666666666666667"/>
							<Node score="0.0611960111259806">
								<SimplePredicate field="confirmed_3days" operator="greaterThan" value="86.16666666666667"/>
							</Node>
						</Node>
						<Node score="0.015126710073786341">
							<SimplePredicate field="confirmed_24_ago" operator="greaterThan" value="1.0000000180025095E-35"/>
							<Node score="-0.007039797545620288">
								<SimplePredicate field="lon" operator="greaterThan" value="72.50930000000001"/>
							</Node>
						</Node>
					</Node>
				</TreeModel>
			</Segment>
			<Segment id="34">
				<True/>
				<TreeModel functionName="regression" noTrueChildStrategy="returnLastPrediction">
					<MiningSchema>
						<MiningField name="confirmed_3days"/>
						<MiningField name="since_1_cases"/>
						<MiningField name="lon"/>
					</MiningSchema>
					<Node score="-0.011966536528236456">
						<True/>
						<Node score="0.03620197306433947">
							<SimplePredicate field="confirmed_3days" operator="greaterThan" value="2.1666666666666674"/>
							<Node score="0.06040062600646948">
								<SimplePredicate field="confirmed_3days" operator="greaterThan" value="86.16666666666667"/>
							</Node>
							<Node score="0.014961846051673142">
								<SimplePredicate field="lon" operator="greaterThan" value="101.02915000000002"/>
							</Node>
						</Node>
						<Node score="0.00945211996688777">
							<SimplePredicate field="since_1_cases" operator="lessOrEqual" value="52.50000000000001"/>
						</Node>
					</Node>
				</TreeModel>
			</Segment>
			<Segment id="35">
				<True/>
				<TreeModel functionName="regression" noTrueChildStrategy="returnLastPrediction">
					<MiningSchema>
						<MiningField name="since_1_cases"/>
						<MiningField name="since_16_cases"/>
						<MiningField name="since_4096_cases"/>
						<MiningField name="lat"/>
					</MiningSchema>
					<Node score="-0.017256209085112648">
						<True/>
						<Node score="0.007117878987150055">
							<SimplePredicate field="since_1_cases" operator="lessOrEqual" value="84.50000000000001"/>
							<Node score="0.03261314485659559">
								<SimplePredicate field="since_16_cases" operator="lessOrEqual" value="45.50000000000001"/>
							</Node>
							<Node score="0.06555062592742969">
								<SimplePredicate field="since_4096_cases" operator="lessOrEqual" value="52.50000000000001"/>
							</Node>
						</Node>
						<Node score="-0.0064824413663830535">
							<SimplePredicate field="lat" operator="greaterThan" value="27.690150000000006"/>
						</Node>
					</Node>
				</TreeModel>
			</Segment>
			<Segment id="36">
				<True/>
				<TreeModel functionName="regression" noTrueChildStrategy="returnLastPrediction">
					<MiningSchema>
						<MiningField name="confirmed_3days"/>
						<MiningField name="fatalities_3days"/>
						<MiningField name="since_1_cases"/>
					</MiningSchema>
					<Node score="-0.030633782568010564">
						<True/>
						<Node score="0.028540473720716934">
							<SimplePredicate field="confirmed_3days" operator="greaterThan" value="2.1666666666666674"/>
							<Node score="0.05915738461760113">
								<SimplePredicate field="confirmed_3days" operator="greaterThan" value="86.16666666666667"/>
							</Node>
						</Node>
						<Node score="0.009204027956175613">
							<SimplePredicate field="since_1_cases" operator="lessOrEqual" value="52.50000000000001"/>
						</Node>
						<Node score="-0.010441844195259606">
							<SimplePredicate field="fatalities_3days" operator="lessOrEqual" value="7.833333333333335"/>
						</Node>
					</Node>
				</TreeModel>
			</Segment>
			<Segment id="37">
				<True/>
				<TreeModel functionName="regression" noTrueChildStrategy="returnLastPrediction">
					<MiningSchema>
						<MiningField name="confirmed_24_ago"/>
						<MiningField name="since_1_cases"/>
						<MiningField name="lon"/>
						<MiningField name="population"/>
					</MiningSchema>
					<Node score="-0.011906141254478655">
						<True/>
						<Node score="9.713505712746518E-4">
							<SimplePredicate field="since_1_cases" operator="lessOrEqual" value="84.50000000000001"/>
							<Node score="0.003030545126117569">
								<SimplePredicate field="lon" operator="greaterThan" value="72.50930000000001"/>
							</Node>
							<Node score="0.02661415542569523">
								<SimplePredicate field="population" operator="greaterThan" value="598550.5000000001"/>
								<Node score="0.04848760080097658">
									<SimplePredicate field="confirmed_24_ago" operator="greaterThan" value="73.50000000000001"/>
								</Node>
							</Node>
						</Node>
					</Node>
				</TreeModel>
			</Segment>
			<Segment id="38">
				<True/>
				<TreeModel functionName="regression" noTrueChildStrategy="returnLastPrediction">
					<MiningSchema>
						<MiningField name="confirmed_24_ago"/>
						<MiningField name="lat"/>
						<MiningField name="lon"/>
						<MiningField name="population"/>
					</MiningSchema>
					<Node score="-0.016118130052839137">
						<True/>
						<Node score="7.68438832244355E-4">
							<SimplePredicate field="confirmed_24_ago" operator="greaterThan" value="1.5000000000000002"/>
							<Node score="0.004854470975685896">
								<SimplePredicate field="lon" operator="greaterThan" value="72.50930000000001"/>
							</Node>
							<Node score="0.03645930922895831">
								<SimplePredicate field="population" operator="greaterThan" value="598550.5000000001"/>
							</Node>
						</Node>
						<Node score="-0.005379166491811569">
							<SimplePredicate field="lat" operator="greaterThan" value="25.194550000000003"/>
						</Node>
					</Node>
				</TreeModel>
			</Segment>
			<Segment id="39">
				<True/>
				<TreeModel functionName="regression" noTrueChildStrategy="returnLastPrediction">
					<MiningSchema>
						<MiningField name="confirmed_24_ago"/>
						<MiningField name="confirmed_3days"/>
						<MiningField name="lon"/>
					</MiningSchema>
					<Node score="-0.01179821042781669">
						<True/>
						<Node score="0.027650360000587446">
							<SimplePredicate field="confirmed_3days" operator="greaterThan" value="2.1666666666666674"/>
							<Node score="0.05786671341928576">
								<SimplePredicate field="confirmed_3days" operator="greaterThan" value="89.83333333333336"/>
							</Node>
						</Node>
						<Node score="0.015367338173972463">
							<SimplePredicate field="confirmed_24_ago" operator="greaterThan" value="1.0000000180025095E-35"/>
							<Node score="-0.006430913984389759">
								<SimplePredicate field="lon" operator="greaterThan" value="72.50930000000001"/>
							</Node>
						</Node>
					</Node>
				</TreeModel>
			</Segment>
			<Segment id="40">
				<True/>
				<TreeModel functionName="regression" noTrueChildStrategy="returnLastPrediction">
					<MiningSchema>
						<MiningField name="confirmed_3days"/>
						<MiningField name="fatalities_3days"/>
						<MiningField name="since_1_cases"/>
					</MiningSchema>
					<Node score="-0.029792141559242955">
						<True/>
						<Node score="0.027290919229396256">
							<SimplePredicate field="confirmed_3days" operator="greaterThan" value="2.1666666666666674"/>
							<Node score="0.057114604062271576">
								<SimplePredicate field="confirmed_3days" operator="greaterThan" value="89.83333333333336"/>
							</Node>
						</Node>
						<Node score="0.00863214655471029">
							<SimplePredicate field="since_1_cases" operator="lessOrEqual" value="52.50000000000001"/>
						</Node>
						<Node score="-0.00990365086320367">
							<SimplePredicate field="fatalities_3days" operator="lessOrEqual" value="7.833333333333335"/>
						</Node>
					</Node>
				</TreeModel>
			</Segment>
			<Segment id="41">
				<True/>
				<TreeModel functionName="regression" noTrueChildStrategy="returnLastPrediction">
					<MiningSchema>
						<MiningField name="confirmed_3days"/>
						<MiningField name="fatalities_3days"/>
						<MiningField name="since_1_cases"/>
					</MiningSchema>
					<Node score="-0.029404903222975124">
						<True/>
						<Node score="0.026865560946477095">
							<SimplePredicate field="confirmed_3days" operator="greaterThan" value="2.1666666666666674"/>
							<Node score="0.05600411601018914">
								<SimplePredicate field="confirmed_3days" operator="greaterThan" value="86.16666666666667"/>
							</Node>
						</Node>
						<Node score="0.008519933769441539">
							<SimplePredicate field="since_1_cases" operator="lessOrEqual" value="52.50000000000001"/>
						</Node>
						<Node score="-0.009774904427416554">
							<SimplePredicate field="fatalities_3days" operator="lessOrEqual" value="7.833333333333335"/>
						</Node>
					</Node>
				</TreeModel>
			</Segment>
			<Segment id="42">
				<True/>
				<TreeModel functionName="regression" noTrueChildStrategy="returnLastPrediction">
					<MiningSchema>
						<MiningField name="confirmed_24_ago"/>
						<MiningField name="fatalities_3days"/>
						<MiningField name="since_64_cases"/>
						<MiningField name="lon"/>
					</MiningSchema>
					<Node score="-0.02796679530698627">
						<True/>
						<Node score="0.02184659012589958">
							<SimplePredicate field="confirmed_24_ago" operator="greaterThan" value="1.5000000000000002"/>
							<Node score="0.004408466633708311">
								<SimplePredicate field="lon" operator="greaterThan" value="72.50930000000001"/>
							</Node>
							<Node score="0.042904051198389775">
								<SimplePredicate field="since_64_cases" operator="lessOrEqual" value="55.50000000000001"/>
							</Node>
						</Node>
						<Node score="-0.009121687516356303">
							<SimplePredicate field="fatalities_3days" operator="lessOrEqual" value="0.5000000000000001"/>
						</Node>
					</Node>
				</TreeModel>
			</Segment>
			<Segment id="43">
				<True/>
				<TreeModel functionName="regression" noTrueChildStrategy="returnLastPrediction">
					<MiningSchema>
						<MiningField name="confirmed_3days"/>
						<MiningField name="since_1_cases"/>
						<MiningField name="lon"/>
					</MiningSchema>
					<Node score="-0.010715375913881255">
						<True/>
						<Node score="0.03273041483466917">
							<SimplePredicate field="confirmed_3days" operator="greaterThan" value="2.1666666666666674"/>
							<Node score="0.05517946400405638">
								<SimplePredicate field="confirmed_3days" operator="greaterThan" value="89.83333333333336"/>
							</Node>
							<Node score="0.012916508546840105">
								<SimplePredicate field="lon" operator="greaterThan" value="101.02915000000002"/>
							</Node>
						</Node>
						<Node score="0.008300592130004692">
							<SimplePredicate field="since_1_cases" operator="lessOrEqual" value="52.50000000000001"/>
						</Node>
					</Node>
				</TreeModel>
			</Segment>
			<Segment id="44">
				<True/>
				<TreeModel functionName="regression" noTrueChildStrategy="returnLastPrediction">
					<MiningSchema>
						<MiningField name="confirmed_3days"/>
						<MiningField name="lat"/>
						<MiningField name="lon"/>
					</MiningSchema>
					<Node score="-0.014467743097644647">
						<True/>
						<Node score="0.019792896694165504">
							<SimplePredicate field="confirmed_3days" operator="greaterThan" value="1.0000000180025095E-35"/>
							<Node score="0.03703166704338857">
								<SimplePredicate field="confirmed_3days" operator="greaterThan" value="8.833333333333334"/>
							</Node>
							<Node score="0.0015762059417679434">
								<SimplePredicate field="lon" operator="greaterThan" value="72.50930000000001"/>
							</Node>
						</Node>
						<Node score="-0.004578159128482102">
							<SimplePredicate field="lat" operator="greaterThan" value="28.674950000000003"/>
						</Node>
					</Node>
				</TreeModel>
			</Segment>
			<Segment id="45">
				<True/>
				<TreeModel functionName="regression" noTrueChildStrategy="returnLastPrediction">
					<MiningSchema>
						<MiningField name="confirmed_3days"/>
						<MiningField name="fatalities_3days"/>
						<MiningField name="since_1_cases"/>
					</MiningSchema>
					<Node score="-0.02837456855052594">
						<True/>
						<Node score="0.025606629093338214">
							<SimplePredicate field="confirmed_3days" operator="greaterThan" value="2.1666666666666674"/>
							<Node score="0.05398097025428993">
								<SimplePredicate field="confirmed_3days" operator="greaterThan" value="89.83333333333336"/>
							</Node>
						</Node>
						<Node score="0.008113986096817042">
							<SimplePredicate field="since_1_cases" operator="lessOrEqual" value="52.50000000000001"/>
						</Node>
						<Node score="-0.009284205144983295">
							<SimplePredicate field="fatalities_3days" operator="lessOrEqual" value="7.166666666666667"/>
						</Node>
					</Node>
				</TreeModel>
			</Segment>
			<Segment id="46">
				<True/>
				<TreeModel functionName="regression" noTrueChildStrategy="returnLastPrediction">
					<MiningSchema>
						<MiningField name="confirmed_24_ago"/>
						<MiningField name="since_1_cases"/>
						<MiningField name="lon"/>
						<MiningField name="population"/>
					</MiningSchema>
					<Node score="-0.010650834666942739">
						<True/>
						<Node score="-8.075945532185406E-4">
							<SimplePredicate field="since_1_cases" operator="lessOrEqual" value="84.50000000000001"/>
							<Node score="0.0019550066110008025">
								<SimplePredicate field="lon" operator="greaterThan" value="79.50000000000001"/>
							</Node>
							<Node score="0.024183486886913613">
								<SimplePredicate field="population" operator="greaterThan" value="598550.5000000001"/>
								<Node score="0.04404204496704004">
									<SimplePredicate field="confirmed_24_ago" operator="greaterThan" value="73.50000000000001"/>
								</Node>
							</Node>
						</Node>
					</Node>
				</TreeModel>
			</Segment>
			<Segment id="47">
				<True/>
				<TreeModel functionName="regression" noTrueChildStrategy="returnLastPrediction">
					<MiningSchema>
						<MiningField name="confirmed_3days"/>
						<MiningField name="fatalities_3days"/>
						<MiningField name="since_1_cases"/>
					</MiningSchema>
					<Node score="-0.027868095765960225">
						<True/>
						<Node score="0.024942829075692185">
							<SimplePredicate field="confirmed_3days" operator="greaterThan" value="2.1666666666666674"/>
							<Node score="0.05246367096549921">
								<SimplePredicate field="confirmed_3days" operator="greaterThan" value="86.16666666666667"/>
							</Node>
						</Node>
						<Node score="0.007834399678404746">
							<SimplePredicate field="since_1_cases" operator="lessOrEqual" value="52.50000000000001"/>
						</Node>
						<Node score="-0.009041250840914287">
							<SimplePredicate field="fatalities_3days" operator="lessOrEqual" value="7.166666666666667"/>
						</Node>
					</Node>
				</TreeModel>
			</Segment>
			<Segment id="48">
				<True/>
				<TreeModel functionName="regression" noTrueChildStrategy="returnLastPrediction">
					<MiningSchema>
						<MiningField name="confirmed_3days"/>
						<MiningField name="since_1_cases"/>
						<MiningField name="lat"/>
					</MiningSchema>
					<Node score="-0.015038682696121408">
						<True/>
						<Node score="0.015342034185204273">
							<SimplePredicate field="confirmed_3days" operator="greaterThan" value="0.5000000000000001"/>
							<Node score="0.03769986867496351">
								<SimplePredicate field="confirmed_3days" operator="greaterThan" value="13.16666666666667"/>
							</Node>
						</Node>
						<Node score="0.006063220240109302">
							<SimplePredicate field="since_1_cases" operator="lessOrEqual" value="55.50000000000001"/>
						</Node>
						<Node score="-0.0055990187387672825">
							<SimplePredicate field="lat" operator="greaterThan" value="27.690150000000006"/>
						</Node>
					</Node>
				</TreeModel>
			</Segment>
			<Segment id="49">
				<True/>
				<TreeModel functionName="regression" noTrueChildStrategy="returnLastPrediction">
					<MiningSchema>
						<MiningField name="confirmed_3days"/>
						<MiningField name="fatalities_3days"/>
						<MiningField name="since_1_cases"/>
					</MiningSchema>
					<Node score="-0.027373338181557134">
						<True/>
						<Node score="0.024362154479213863">
							<SimplePredicate field="confirmed_3days" operator="greaterThan" value="2.1666666666666674"/>
							<Node score="0.05164233923485539">
								<SimplePredicate field="confirmed_3days" operator="greaterThan" value="89.83333333333336"/>
							</Node>
						</Node>
						<Node score="0.007605819236353583">
							<SimplePredicate field="since_1_cases" operator="lessOrEqual" value="52.50000000000001"/>
						</Node>
						<Node score="-0.008796084592888534">
							<SimplePredicate field="fatalities_3days" operator="lessOrEqual" value="7.166666666666667"/>
						</Node>
					</Node>
				</TreeModel>
			</Segment>
			<Segment id="50">
				<True/>
				<TreeModel functionName="regression" noTrueChildStrategy="returnLastPrediction">
					<MiningSchema>
						<MiningField name="confirmed_24_ago"/>
						<MiningField name="lat"/>
						<MiningField name="lon"/>
						<MiningField name="population"/>
					</MiningSchema>
					<Node score="-0.014410936346233421">
						<True/>
						<Node score="-0.0019042533046737702">
							<SimplePredicate field="confirmed_24_ago" operator="greaterThan" value="1.5000000000000002"/>
							<Node score="0.003322526005288911">
								<SimplePredicate field="lon" operator="greaterThan" value="79.50000000000001"/>
							</Node>
							<Node score="0.03207913284234528">
								<SimplePredicate field="population" operator="greaterThan" value="598550.5000000001"/>
							</Node>
						</Node>
						<Node score="-0.004085837701311923">
							<SimplePredicate field="lat" operator="greaterThan" value="25.194550000000003"/>
						</Node>
					</Node>
				</TreeModel>
			</Segment>
			<Segment id="51">
				<True/>
				<TreeModel functionName="regression" noTrueChildStrategy="returnLastPrediction">
					<MiningSchema>
						<MiningField name="confirmed_3days"/>
						<MiningField name="fatalities_3days"/>
						<MiningField name="since_1_cases"/>
					</MiningSchema>
					<Node score="-0.02690121871283166">
						<True/>
						<Node score="0.023786608288597758">
							<SimplePredicate field="confirmed_3days" operator="greaterThan" value="2.1666666666666674"/>
							<Node score="0.05062219795978361">
								<SimplePredicate field="confirmed_3days" operator="greaterThan" value="89.83333333333336"/>
							</Node>
						</Node>
						<Node score="0.0075035588630417175">
							<SimplePredicate field="since_1_cases" operator="lessOrEqual" value="51.50000000000001"/>
						</Node>
						<Node score="-0.008551867329334785">
							<SimplePredicate field="fatalities_3days" operator="lessOrEqual" value="7.166666666666667"/>
						</Node>
					</Node>
				</TreeModel>
			</Segment>
			<Segment id="52">
				<True/>
				<TreeModel functionName="regression" noTrueChildStrategy="returnLastPrediction">
					<MiningSchema>
						<MiningField name="confirmed_3days"/>
						<MiningField name="since_1_cases"/>
						<MiningField name="lon"/>
					</MiningSchema>
					<Node score="-0.009572779610763454">
						<True/>
						<Node score="0.029527523353523814">
							<SimplePredicate field="confirmed_3days" operator="greaterThan" value="2.1666666666666674"/>
							<Node score="0.04963150862712466">
								<SimplePredicate field="confirmed_3days" operator="greaterThan" value="86.16666666666667"/>
							</Node>
							<Node score="0.010775186657115654">
								<SimplePredicate field="lon" operator="greaterThan" value="101.02915000000002"/>
							</Node>
						</Node>
						<Node score="0.007284937811945704">
							<SimplePredicate field="since_1_cases" operator="lessOrEqual" value="52.50000000000001"/>
						</Node>
					</Node>
				</TreeModel>
			</Segment>
			<Segment id="53">
				<True/>
				<TreeModel functionName="regression" noTrueChildStrategy="returnLastPrediction">
					<MiningSchema>
						<MiningField name="confirmed_3days"/>
						<MiningField name="since_64_cases"/>
						<MiningField name="lat"/>
					</MiningSchema>
					<Node score="-0.013285658477348633">
						<True/>
						<Node score="0.015247859923112598">
							<SimplePredicate field="confirmed_3days" operator="greaterThan" value="1.0000000180025095E-35"/>
							<Node score="0.033425985385268614">
								<SimplePredicate field="confirmed_3days" operator="greaterThan" value="8.833333333333334"/>
							</Node>
							<Node score="-0.006748548541982226">
								<SimplePredicate field="since_64_cases" operator="greaterThan" value="27.500000000000004"/>
							</Node>
						</Node>
						<Node score="-0.003744033843800067">
							<SimplePredicate field="lat" operator="greaterThan" value="28.674950000000003"/>
						</Node>
					</Node>
				</TreeModel>
			</Segment>
			<Segment id="54">
				<True/>
				<TreeModel functionName="regression" noTrueChildStrategy="returnLastPrediction">
					<MiningSchema>
						<MiningField name="confirmed_3days"/>
						<MiningField name="since_1_cases"/>
						<MiningField name="lon"/>
					</MiningSchema>
					<Node score="-0.009612092818433145">
						<True/>
						<Node score="0.025230633968853063">
							<SimplePredicate field="confirmed_3days" operator="greaterThan" value="1.1666666666666667"/>
							<Node score="0.0417331937906027">
								<SimplePredicate field="confirmed_3days" operator="greaterThan" value="36.833333333333336"/>
							</Node>
							<Node score="0.006571236352473144">
								<SimplePredicate field="lon" operator="greaterThan" value="93.19480000000001"/>
							</Node>
						</Node>
						<Node score="0.00582911325269683">
							<SimplePredicate field="since_1_cases" operator="lessOrEqual" value="57.50000000000001"/>
						</Node>
					</Node>
				</TreeModel>
			</Segment>
			<Segment id="55">
				<True/>
				<TreeModel functionName="regression" noTrueChildStrategy="returnLastPrediction">
					<MiningSchema>
						<MiningField name="confirmed_3days"/>
						<MiningField name="fatalities_3days"/>
						<MiningField name="since_1_cases"/>
					</MiningSchema>
					<Node score="-0.02619125818762208">
						<True/>
						<Node score="0.02315826371735594">
							<SimplePredicate field="confirmed_3days" operator="greaterThan" value="2.1666666666666674"/>
							<Node score="0.05206743691251416">
								<SimplePredicate field="confirmed_3days" operator="greaterThan" value="134.1666666666667"/>
							</Node>
						</Node>
						<Node score="0.007121779962003153">
							<SimplePredicate field="since_1_cases" operator="lessOrEqual" value="51.50000000000001"/>
						</Node>
						<Node score="-0.008087570144013663">
							<SimplePredicate field="fatalities_3days" operator="lessOrEqual" value="7.166666666666667"/>
						</Node>
					</Node>
				</TreeModel>
			</Segment>
			<Segment id="56">
				<True/>
				<TreeModel functionName="regression" noTrueChildStrategy="returnLastPrediction">
					<MiningSchema>
						<MiningField name="confirmed_3days"/>
						<MiningField name="lat"/>
						<MiningField name="lon"/>
					</MiningSchema>
					<Node score="-0.012903128738060725">
						<True/>
						<Node score="0.018521844825262597">
							<SimplePredicate field="confirmed_3days" operator="greaterThan" value="1.0000000180025095E-35"/>
							<Node score="0.03442130803190032">
								<SimplePredicate field="confirmed_3days" operator="greaterThan" value="13.16666666666667"/>
							</Node>
							<Node score="0.0017099086379758802">
								<SimplePredicate field="lon" operator="greaterThan" value="72.50930000000001"/>
							</Node>
						</Node>
						<Node score="-0.003479904670663332">
							<SimplePredicate field="lat" operator="greaterThan" value="28.674950000000003"/>
						</Node>
					</Node>
				</TreeModel>
			</Segment>
			<Segment id="57">
				<True/>
				<TreeModel functionName="regression" noTrueChildStrategy="returnLastPrediction">
					<MiningSchema>
						<MiningField name="confirmed_3days"/>
						<MiningField name="since_1_cases"/>
						<MiningField name="lon"/>
					</MiningSchema>
					<Node score="-0.009233178191823219">
						<True/>
						<Node score="0.031982708863203556">
							<SimplePredicate field="confirmed_3days" operator="greaterThan" value="2.1666666666666674"/>
							<Node score="0.011871255160186386">
								<SimplePredicate field="lon" operator="greaterThan" value="101.02915000000002"/>
							</Node>
						</Node>
						<Node score="0.013337457515922808">
							<SimplePredicate field="since_1_cases" operator="lessOrEqual" value="61.50000000000001"/>
							<Node score="-0.005854893653961637">
								<SimplePredicate field="lon" operator="greaterThan" value="72.50930000000001"/>
							</Node>
						</Node>
					</Node>
				</TreeModel>
			</Segment>
			<Segment id="58">
				<True/>
				<TreeModel functionName="regression" noTrueChildStrategy="returnLastPrediction">
					<MiningSchema>
						<MiningField name="confirmed_3days"/>
						<MiningField name="fatalities_3days"/>
						<MiningField name="since_1_cases"/>
					</MiningSchema>
					<Node score="-0.025623853933542405">
						<True/>
						<Node score="0.019588367354608324">
							<SimplePredicate field="confirmed_3days" operator="greaterThan" value="1.8333333333333337"/>
							<Node score="0.04113554085468708">
								<SimplePredicate field="confirmed_3days" operator="greaterThan" value="43.833333333333336"/>
							</Node>
						</Node>
						<Node score="0.0063474986234685876">
							<SimplePredicate field="since_1_cases" operator="lessOrEqual" value="53.50000000000001"/>
						</Node>
						<Node score="-0.007829062912918853">
							<SimplePredicate field="fatalities_3days" operator="lessOrEqual" value="7.166666666666667"/>
						</Node>
					</Node>
				</TreeModel>
			</Segment>
			<Segment id="59">
				<True/>
				<TreeModel functionName="regression" noTrueChildStrategy="returnLastPrediction">
					<MiningSchema>
						<MiningField name="confirmed_24_ago"/>
						<MiningField name="fatalities_3days"/>
						<MiningField name="since_64_cases"/>
						<MiningField name="lat"/>
					</MiningSchema>
					<Node score="-0.013241217611255799">
						<True/>
						<Node score="0.03723641834815635">
							<SimplePredicate field="confirmed_24_ago" operator="greaterThan" value="1.5000000000000002"/>
							<Node score="0.01628807782445953">
								<SimplePredicate field="fatalities_3days" operator="lessOrEqual" value="0.5000000000000001"/>
								<Node score="-0.007931926308883222">
									<SimplePredicate field="since_64_cases" operator="greaterThan" value="36.50000000000001"/>
								</Node>
							</Node>
						</Node>
						<Node score="-0.0033026469904104128">
							<SimplePredicate field="lat" operator="greaterThan" value="25.194550000000003"/>
						</Node>
					</Node>
				</TreeModel>
			</Segment>
			<Segment id="60">
				<True/>
				<TreeModel functionName="regression" noTrueChildStrategy="returnLastPrediction">
					<MiningSchema>
						<MiningField name="confirmed_3days"/>
						<MiningField name="since_1_cases"/>
						<MiningField name="lon"/>
					</MiningSchema>
					<Node score="-0.008891468833239623">
						<True/>
						<Node score="0.03093995736715195">
							<SimplePredicate field="confirmed_3days" operator="greaterThan" value="2.1666666666666674"/>
							<Node score="0.01123336799334565">
								<SimplePredicate field="lon" operator="greaterThan" value="101.02915000000002"/>
							</Node>
						</Node>
						<Node score="0.01296086255701224">
							<SimplePredicate field="since_1_cases" operator="lessOrEqual" value="61.50000000000001"/>
							<Node score="-0.005936716971380313">
								<SimplePredicate field="lon" operator="greaterThan" value="72.50930000000001"/>
							</Node>
						</Node>
					</Node>
				</TreeModel>
			</Segment>
			<Segment id="61">
				<True/>
				<TreeModel functionName="regression" noTrueChildStrategy="returnLastPrediction">
					<MiningSchema>
						<MiningField name="confirmed_3days"/>
						<MiningField name="since_1_cases"/>
						<MiningField name="lon"/>
					</MiningSchema>
					<Node score="-0.008865025636953945">
						<True/>
						<Node score="0.021781193702057514">
							<SimplePredicate field="confirmed_3days" operator="greaterThan" value="2.1666666666666674"/>
							<Node score="0.05254464628186072">
								<SimplePredicate field="confirmed_3days" operator="greaterThan" value="178.1666666666667"/>
							</Node>
						</Node>
						<Node score="0.012738868290756761">
							<SimplePredicate field="since_1_cases" operator="lessOrEqual" value="65.50000000000001"/>
							<Node score="-0.0054107746700231656">
								<SimplePredicate field="lon" operator="greaterThan" value="72.50930000000001"/>
							</Node>
						</Node>
					</Node>
				</TreeModel>
			</Segment>
			<Segment id="62">
				<True/>
				<TreeModel functionName="regression" noTrueChildStrategy="returnLastPrediction">
					<MiningSchema>
						<MiningField name="confirmed_24_ago"/>
						<MiningField name="fatalities_3days"/>
						<MiningField name="since_64_cases"/>
						<MiningField name="lat"/>
					</MiningSchema>
					<Node score="-0.012860147819236304">
						<True/>
						<Node score="0.036067247260354526">
							<SimplePredicate field="confirmed_24_ago" operator="greaterThan" value="1.5000000000000002"/>
							<Node score="0.015678443620006012">
								<SimplePredicate field="fatalities_3days" operator="lessOrEqual" value="0.5000000000000001"/>
								<Node score="-0.007807863508711897">
									<SimplePredicate field="since_64_cases" operator="greaterThan" value="36.50000000000001"/>
								</Node>
							</Node>
						</Node>
						<Node score="-0.0030656271639244973">
							<SimplePredicate field="lat" operator="greaterThan" value="25.194550000000003"/>
						</Node>
					</Node>
				</TreeModel>
			</Segment>
			<Segment id="63">
				<True/>
				<TreeModel functionName="regression" noTrueChildStrategy="returnLastPrediction">
					<MiningSchema>
						<MiningField name="confirmed_3days"/>
						<MiningField name="since_1_cases"/>
						<MiningField name="lon"/>
					</MiningSchema>
					<Node score="-0.008646796997342639">
						<True/>
						<Node score="0.029927223419413687">
							<SimplePredicate field="confirmed_3days" operator="greaterThan" value="2.1666666666666674"/>
							<Node score="0.010613598686883522">
								<SimplePredicate field="lon" operator="greaterThan" value="101.02915000000002"/>
							</Node>
						</Node>
						<Node score="0.012463885889484732">
							<SimplePredicate field="since_1_cases" operator="lessOrEqual" value="65.50000000000001"/>
							<Node score="-0.0054344925112997655">
								<SimplePredicate field="lon" operator="greaterThan" value="72.50930000000001"/>
							</Node>
						</Node>
					</Node>
				</TreeModel>
			</Segment>
			<Segment id="64">
				<True/>
				<TreeModel functionName="regression" noTrueChildStrategy="returnLastPrediction">
					<MiningSchema>
						<MiningField name="confirmed_3days"/>
						<MiningField name="population"/>
					</MiningSchema>
					<Node score="-0.014324327509910586">
						<True/>
						<Node score="0.020961335952503445">
							<SimplePredicate field="confirmed_3days" operator="greaterThan" value="2.1666666666666674"/>
							<Node score="0.051057447536572716">
								<SimplePredicate field="confirmed_3days" operator="greaterThan" value="178.1666666666667"/>
							</Node>
						</Node>
						<Node score="0.0067966699424183595">
							<SimplePredicate field="confirmed_3days" operator="greaterThan" value="1.0000000180025095E-35"/>
						</Node>
						<Node score="-0.005132704293684022">
							<SimplePredicate field="population" operator="greaterThan" value="973662.0000000001"/>
						</Node>
					</Node>
				</TreeModel>
			</Segment>
			<Segment id="65">
				<True/>
				<TreeModel functionName="regression" noTrueChildStrategy="returnLastPrediction">
					<MiningSchema>
						<MiningField name="confirmed_3days"/>
						<MiningField name="lat"/>
						<MiningField name="lon"/>
					</MiningSchema>
					<Node score="-0.011838713791124531">
						<True/>
						<Node score="0.02922065806708105">
							<SimplePredicate field="confirmed_3days" operator="greaterThan" value="2.1666666666666674"/>
							<Node score="0.010184882244171382">
								<SimplePredicate field="lon" operator="greaterThan" value="101.02915000000002"/>
							</Node>
						</Node>
						<Node score="0.006708317986811787">
							<SimplePredicate field="confirmed_3days" operator="greaterThan" value="1.0000000180025095E-35"/>
						</Node>
						<Node score="-0.0027752707960549705">
							<SimplePredicate field="lat" operator="greaterThan" value="28.674950000000003"/>
						</Node>
					</Node>
				</TreeModel>
			</Segment>
			<Segment id="66">
				<True/>
				<TreeModel functionName="regression" noTrueChildStrategy="returnLastPrediction">
					<MiningSchema>
						<MiningField name="since_1_cases"/>
						<MiningField name="lat"/>
						<MiningField name="lon"/>
					</MiningSchema>
					<Node score="-0.012728070112659983">
						<True/>
						<Node score="0.0058025626980503925">
							<SimplePredicate field="since_1_cases" operator="lessOrEqual" value="83.50000000000001"/>
							<Node score="5.573637940402922E-4">
								<SimplePredicate field="lon" operator="greaterThan" value="79.50000000000001"/>
							</Node>
							<Node score="0.027919756401366295">
								<SimplePredicate field="lat" operator="greaterThan" value="21.958100000000005"/>
							</Node>
						</Node>
						<Node score="-0.0032132439240928983">
							<SimplePredicate field="lat" operator="greaterThan" value="27.690150000000006"/>
						</Node>
					</Node>
				</TreeModel>
			</Segment>
			<Segment id="67">
				<True/>
				<TreeModel functionName="regression" noTrueChildStrategy="returnLastPrediction">
					<MiningSchema>
						<MiningField name="confirmed_24_ago"/>
						<MiningField name="fatalities_3days"/>
						<MiningField name="lon"/>
						<MiningField name="population"/>
					</MiningSchema>
					<Node score="-0.023505982387994482">
						<True/>
						<Node score="-0.0049353943156326225">
							<SimplePredicate field="confirmed_24_ago" operator="greaterThan" value="1.5000000000000002"/>
							<Node score="0.0021544818940521142">
								<SimplePredicate field="lon" operator="greaterThan" value="79.50000000000001"/>
							</Node>
							<Node score="0.026990276053262634">
								<SimplePredicate field="population" operator="greaterThan" value="598550.5000000001"/>
							</Node>
						</Node>
						<Node score="-0.006494270492472386">
							<SimplePredicate field="fatalities_3days" operator="lessOrEqual" value="0.5000000000000001"/>
						</Node>
					</Node>
				</TreeModel>
			</Segment>
			<Segment id="68">
				<True/>
				<TreeModel functionName="regression" noTrueChildStrategy="returnLastPrediction">
					<MiningSchema>
						<MiningField name="confirmed_3days"/>
						<MiningField name="since_1_cases"/>
						<MiningField name="lat"/>
					</MiningSchema>
					<Node score="-0.012374974947898229">
						<True/>
						<Node score="0.01904586508609609">
							<SimplePredicate field="confirmed_3days" operator="greaterThan" value="2.1666666666666674"/>
							<Node score="0.04287975598762911">
								<SimplePredicate field="confirmed_3days" operator="greaterThan" value="89.83333333333336"/>
							</Node>
						</Node>
						<Node score="0.004630089801522087">
							<SimplePredicate field="since_1_cases" operator="lessOrEqual" value="65.50000000000001"/>
						</Node>
						<Node score="-0.003508447048410673">
							<SimplePredicate field="lat" operator="greaterThan" value="27.690150000000006"/>
						</Node>
					</Node>
				</TreeModel>
			</Segment>
			<Segment id="69">
				<True/>
				<TreeModel functionName="regression" noTrueChildStrategy="returnLastPrediction">
					<MiningSchema>
						<MiningField name="confirmed_3days"/>
						<MiningField name="fatalities_3days"/>
						<MiningField name="since_1_cases"/>
					</MiningSchema>
					<Node score="-0.02404821701494141">
						<True/>
						<Node score="0.019701419515384518">
							<SimplePredicate field="confirmed_3days" operator="greaterThan" value="2.1666666666666674"/>
							<Node score="0.04889932063175702">
								<SimplePredicate field="confirmed_3days" operator="greaterThan" value="178.1666666666667"/>
							</Node>
						</Node>
						<Node score="0.005873625310433566">
							<SimplePredicate field="since_1_cases" operator="lessOrEqual" value="51.50000000000001"/>
						</Node>
						<Node score="-0.0066756212992551784">
							<SimplePredicate field="fatalities_3days" operator="lessOrEqual" value="7.166666666666667"/>
						</Node>
					</Node>
				</TreeModel>
			</Segment>
			<Segment id="70">
				<True/>
				<TreeModel functionName="regression" noTrueChildStrategy="returnLastPrediction">
					<MiningSchema>
						<MiningField name="confirmed_3days"/>
						<MiningField name="fatalities_3days"/>
						<MiningField name="since_1_cases"/>
					</MiningSchema>
					<Node score="-0.023735638197707055">
						<True/>
						<Node score="0.017205213117774235">
							<SimplePredicate field="confirmed_3days" operator="greaterThan" value="2.1666666666666674"/>
							<Node score="0.036593483654591336">
								<SimplePredicate field="confirmed_3days" operator="greaterThan" value="43.833333333333336"/>
							</Node>
						</Node>
						<Node score="0.005797271642965798">
							<SimplePredicate field="since_1_cases" operator="lessOrEqual" value="51.50000000000001"/>
						</Node>
						<Node score="-0.006588839115595644">
							<SimplePredicate field="fatalities_3days" operator="lessOrEqual" value="7.166666666666667"/>
						</Node>
					</Node>
				</TreeModel>
			</Segment>
			<Segment id="71">
				<True/>
				<TreeModel functionName="regression" noTrueChildStrategy="returnLastPrediction">
					<MiningSchema>
						<MiningField name="confirmed_3days"/>
						<MiningField name="since_1_cases"/>
						<MiningField name="lat"/>
					</MiningSchema>
					<Node score="-0.011713364246357142">
						<True/>
						<Node score="0.014866221147573851">
							<SimplePredicate field="confirmed_3days" operator="greaterThan" value="1.1666666666666667"/>
							<Node score="0.035054480250443415">
								<SimplePredicate field="confirmed_3days" operator="greaterThan" value="36.833333333333336"/>
							</Node>
						</Node>
						<Node score="0.004624846017841636">
							<SimplePredicate field="since_1_cases" operator="lessOrEqual" value="57.50000000000001"/>
						</Node>
						<Node score="-0.003519216148359526">
							<SimplePredicate field="lat" operator="greaterThan" value="27.690150000000006"/>
						</Node>
					</Node>
				</TreeModel>
			</Segment>
			<Segment id="72">
				<True/>
				<TreeModel functionName="regression" noTrueChildStrategy="returnLastPrediction">
					<MiningSchema>
						<MiningField name="confirmed_24_ago"/>
						<MiningField name="lat"/>
						<MiningField name="lon"/>
						<MiningField name="population"/>
					</MiningSchema>
					<Node score="-0.011370555611320261">
						<True/>
						<Node score="-0.005402024023662665">
							<SimplePredicate field="confirmed_24_ago" operator="greaterThan" value="1.5000000000000002"/>
							<Node score="0.00171675597207609">
								<SimplePredicate field="lon" operator="greaterThan" value="79.50000000000001"/>
							</Node>
							<Node score="0.02571797100428985">
								<SimplePredicate field="population" operator="greaterThan" value="598550.5000000001"/>
							</Node>
						</Node>
						<Node score="-0.002138425852951697">
							<SimplePredicate field="lat" operator="greaterThan" value="29.341600000000003"/>
						</Node>
					</Node>
				</TreeModel>
			</Segment>
			<Segment id="73">
				<True/>
				<TreeModel functionName="regression" noTrueChildStrategy="returnLastPrediction">
					<MiningSchema>
						<MiningField name="confirmed_3days"/>
						<MiningField name="lat"/>
					</MiningSchema>
					<Node score="-0.0108924984378724">
						<True/>
						<Node score="0.02001461320915839">
							<SimplePredicate field="confirmed_3days" operator="greaterThan" value="3.1666666666666674"/>
							<Node score="0.047045686182339654">
								<SimplePredicate field="confirmed_3days" operator="greaterThan" value="178.1666666666667"/>
							</Node>
						</Node>
						<Node score="0.006394086051584643">
							<SimplePredicate field="confirmed_3days" operator="greaterThan" value="1.0000000180025095E-35"/>
						</Node>
						<Node score="-0.0023722291955841817">
							<SimplePredicate field="lat" operator="greaterThan" value="28.674950000000003"/>
						</Node>
					</Node>
				</TreeModel>
			</Segment>
			<Segment id="74">
				<True/>
				<TreeModel functionName="regression" noTrueChildStrategy="returnLastPrediction">
					<MiningSchema>
						<MiningField name="confirmed_3days"/>
						<MiningField name="since_1_cases"/>
						<MiningField name="lon"/>
					</MiningSchema>
					<Node score="-0.007550262935757043">
						<True/>
						<Node score="0.019754433779942678">
							<SimplePredicate field="confirmed_3days" operator="greaterThan" value="3.1666666666666674"/>
							<Node score="0.046434302806114575">
								<SimplePredicate field="confirmed_3days" operator="greaterThan" value="178.1666666666667"/>
							</Node>
						</Node>
						<Node score="0.011658547208187833">
							<SimplePredicate field="since_1_cases" operator="lessOrEqual" value="67.50000000000001"/>
							<Node score="-0.0051574695181278675">
								<SimplePredicate field="lon" operator="greaterThan" value="72.50930000000001"/>
							</Node>
						</Node>
					</Node>
				</TreeModel>
			</Segment>
			<Segment id="75">
				<True/>
				<TreeModel functionName="regression" noTrueChildStrategy="returnLastPrediction">
					<MiningSchema>
						<MiningField name="confirmed_3days"/>
						<MiningField name="lon"/>
						<MiningField name="population"/>
					</MiningSchema>
					<Node score="-0.013138103754159768">
						<True/>
						<Node score="0.02619166621386115">
							<SimplePredicate field="confirmed_3days" operator="greaterThan" value="2.1666666666666674"/>
							<Node score="0.008445825051676388">
								<SimplePredicate field="lon" operator="greaterThan" value="101.02915000000002"/>
							</Node>
						</Node>
						<Node score="0.00587804818626393">
							<SimplePredicate field="confirmed_3days" operator="greaterThan" value="1.0000000180025095E-35"/>
						</Node>
						<Node score="-0.004247385226727415">
							<SimplePredicate field="population" operator="greaterThan" value="973662.0000000001"/>
						</Node>
					</Node>
				</TreeModel>
			</Segment>
			<Segment id="76">
				<True/>
				<TreeModel functionName="regression" noTrueChildStrategy="returnLastPrediction">
					<MiningSchema>
						<MiningField name="confirmed_3days"/>
						<MiningField name="since_1_cases"/>
						<MiningField name="lat"/>
					</MiningSchema>
					<Node score="-0.01148750977977586">
						<True/>
						<Node score="0.01922973424197888">
							<SimplePredicate field="confirmed_3days" operator="greaterThan" value="3.1666666666666674"/>
							<Node score="0.04552474657416097">
								<SimplePredicate field="confirmed_3days" operator="greaterThan" value="178.1666666666667"/>
							</Node>
						</Node>
						<Node score="0.004407109070859253">
							<SimplePredicate field="since_1_cases" operator="lessOrEqual" value="68.50000000000001"/>
						</Node>
						<Node score="-0.0028741367658607535">
							<SimplePredicate field="lat" operator="greaterThan" value="27.690150000000006"/>
						</Node>
					</Node>
				</TreeModel>
			</Segment>
			<Segment id="77">
				<True/>
				<TreeModel functionName="regression" noTrueChildStrategy="returnLastPrediction">
					<MiningSchema>
						<MiningField name="confirmed_3days"/>
						<MiningField name="lat"/>
					</MiningSchema>
					<Node score="-0.010442176024806803">
						<True/>
						<Node score="0.018979757739051768">
							<SimplePredicate field="confirmed_3days" operator="greaterThan" value="3.1666666666666674"/>
							<Node score="0.04493312913110567">
								<SimplePredicate field="confirmed_3days" operator="greaterThan" value="178.1666666666667"/>
							</Node>
						</Node>
						<Node score="0.006094273119954172">
							<SimplePredicate field="confirmed_3days" operator="greaterThan" value="1.0000000180025095E-35"/>
						</Node>
						<Node score="-0.0021502411868655653">
							<SimplePredicate field="lat" operator="greaterThan" value="28.674950000000003"/>
						</Node>
					</Node>
				</TreeModel>
			</Segment>
			<Segment id="78">
				<True/>
				<TreeModel functionName="regression" noTrueChildStrategy="returnLastPrediction">
					<MiningSchema>
						<MiningField name="since_1_cases"/>
						<MiningField name="lat"/>
						<MiningField name="lon"/>
						<MiningField name="population"/>
					</MiningSchema>
					<Node score="-0.011211594069369779">
						<True/>
						<Node score="-0.004738708452032677">
							<SimplePredicate field="since_1_cases" operator="lessOrEqual" value="83.50000000000001"/>
							<Node score="-2.1956387925495388E-4">
								<SimplePredicate field="lon" operator="greaterThan" value="79.50000000000001"/>
							</Node>
							<Node score="0.023019877847183342">
								<SimplePredicate field="population" operator="greaterThan" value="598550.5000000001"/>
							</Node>
						</Node>
						<Node score="-0.0024966323575394923">
							<SimplePredicate field="lat" operator="greaterThan" value="27.690150000000006"/>
						</Node>
					</Node>
				</TreeModel>
			</Segment>
			<Segment id="79">
				<True/>
				<TreeModel functionName="regression" noTrueChildStrategy="returnLastPrediction">
					<MiningSchema>
						<MiningField name="confirmed_3days"/>
						<MiningField name="since_1_cases"/>
						<MiningField name="lat"/>
						<MiningField name="lon"/>
					</MiningSchema>
					<Node score="-0.011017763066830746">
						<True/>
						<Node score="0.021248540717348125">
							<SimplePredicate field="confirmed_3days" operator="greaterThan" value="3.1666666666666674"/>
						</Node>
						<Node score="0.011130430307284202">
							<SimplePredicate field="since_1_cases" operator="lessOrEqual" value="67.50000000000001"/>
							<Node score="-0.0051497865772506">
								<SimplePredicate field="lon" operator="greaterThan" value="72.50930000000001"/>
							</Node>
						</Node>
						<Node score="-0.002796807798202699">
							<SimplePredicate field="lat" operator="greaterThan" value="27.690150000000006"/>
						</Node>
					</Node>
				</TreeModel>
			</Segment>
			<Segment id="80">
				<True/>
				<TreeModel functionName="regression" noTrueChildStrategy="returnLastPrediction">
					<MiningSchema>
						<MiningField name="confirmed_3days"/>
						<MiningField name="since_1_cases"/>
						<MiningField name="lon"/>
					</MiningSchema>
					<Node score="-0.007023729734892352">
						<True/>
						<Node score="0.018281140676791194">
							<SimplePredicate field="confirmed_3days" operator="greaterThan" value="3.1666666666666674"/>
							<Node score="0.0438251058061359">
								<SimplePredicate field="confirmed_3days" operator="greaterThan" value="178.1666666666667"/>
							</Node>
						</Node>
						<Node score="0.01097686974729794">
							<SimplePredicate field="since_1_cases" operator="lessOrEqual" value="68.50000000000001"/>
							<Node score="-0.0050036075765445606">
								<SimplePredicate field="lon" operator="greaterThan" value="72.50930000000001"/>
							</Node>
						</Node>
					</Node>
				</TreeModel>
			</Segment>
			<Segment id="81">
				<True/>
				<TreeModel functionName="regression" noTrueChildStrategy="returnLastPrediction">
					<MiningSchema>
						<MiningField name="confirmed_3days"/>
						<MiningField name="since_1_cases"/>
						<MiningField name="since_64_cases"/>
						<MiningField name="lon"/>
					</MiningSchema>
					<Node score="-0.006932422554481596">
						<True/>
						<Node score="0.025780592074699286">
							<SimplePredicate field="confirmed_3days" operator="greaterThan" value="3.1666666666666674"/>
							<Node score="0.00867711559554506">
								<SimplePredicate field="lon" operator="greaterThan" value="101.02915000000002"/>
							</Node>
						</Node>
						<Node score="0.007267704748840719">
							<SimplePredicate field="since_1_cases" operator="lessOrEqual" value="68.50000000000001"/>
							<Node score="-0.015286223184043499">
								<SimplePredicate field="since_64_cases" operator="greaterThan" value="26.500000000000004"/>
							</Node>
						</Node>
					</Node>
				</TreeModel>
			</Segment>
			<Segment id="82">
				<True/>
				<TreeModel functionName="regression" noTrueChildStrategy="returnLastPrediction">
					<MiningSchema>
						<MiningField name="confirmed_3days"/>
						<MiningField name="since_4_cases"/>
						<MiningField name="population"/>
					</MiningSchema>
					<Node score="-0.01171718705656056">
						<True/>
						<Node score="0.014548769824605592">
							<SimplePredicate field="confirmed_3days" operator="greaterThan" value="2.1666666666666674"/>
							<Node score="0.03244435189308894">
								<SimplePredicate field="confirmed_3days" operator="greaterThan" value="43.833333333333336"/>
							</Node>
						</Node>
						<Node score="-0.0034652795618562863">
							<SimplePredicate field="population" operator="greaterThan" value="817845.0000000001"/>
							<Node score="0.01280944018524411">
								<SimplePredicate field="since_4_cases" operator="lessOrEqual" value="46.50000000000001"/>
							</Node>
						</Node>
					</Node>
				</TreeModel>
			</Segment>
			<Segment id="83">
				<True/>
				<TreeModel functionName="regression" noTrueChildStrategy="returnLastPrediction">
					<MiningSchema>
						<MiningField name="confirmed_3days"/>
						<MiningField name="fatalities_3days"/>
						<MiningField name="since_1_cases"/>
						<MiningField name="lon"/>
					</MiningSchema>
					<Node score="-0.022381324673799524">
						<True/>
						<Node score="0.02017518622305767">
							<SimplePredicate field="confirmed_3days" operator="greaterThan" value="3.1666666666666674"/>
						</Node>
						<Node score="0.010729280601665106">
							<SimplePredicate field="since_1_cases" operator="lessOrEqual" value="68.50000000000001"/>
							<Node score="-0.004951566493131675">
								<SimplePredicate field="lon" operator="greaterThan" value="72.50930000000001"/>
							</Node>
						</Node>
						<Node score="-0.0056925051705284165">
							<SimplePredicate field="fatalities_3days" operator="lessOrEqual" value="7.166666666666667"/>
						</Node>
					</Node>
				</TreeModel>
			</Segment>
			<Segment id="84">
				<True/>
				<TreeModel functionName="regression" noTrueChildStrategy="returnLastPrediction">
					<MiningSchema>
						<MiningField name="confirmed_3days"/>
						<MiningField name="since_1_cases"/>
						<MiningField name="since_64_cases"/>
						<MiningField name="lat"/>
					</MiningSchema>
					<Node score="-0.010569830399411015">
						<True/>
						<Node score="0.019912918413832262">
							<SimplePredicate field="confirmed_3days" operator="greaterThan" value="3.1666666666666674"/>
						</Node>
						<Node score="0.007085630499012321">
							<SimplePredicate field="since_1_cases" operator="lessOrEqual" value="68.50000000000001"/>
							<Node score="-0.015012875629848781">
								<SimplePredicate field="since_64_cases" operator="greaterThan" value="26.500000000000004"/>
							</Node>
						</Node>
						<Node score="-0.0024058075921095943">
							<SimplePredicate field="lat" operator="greaterThan" value="27.690150000000006"/>
						</Node>
					</Node>
				</TreeModel>
			</Segment>
			<Segment id="85">
				<True/>
				<TreeModel functionName="regression" noTrueChildStrategy="returnLastPrediction">
					<MiningSchema>
						<MiningField name="confirmed_3days"/>
						<MiningField name="since_1_cases"/>
						<MiningField name="lat"/>
					</MiningSchema>
					<Node score="-0.008596760877934262">
						<True/>
						<Node score="0.011490401426021991">
							<SimplePredicate field="confirmed_3days" operator="greaterThan" value="1.1666666666666667"/>
							<Node score="0.028743567117465132">
								<SimplePredicate field="confirmed_3days" operator="greaterThan" value="26.166666666666668"/>
							</Node>
						</Node>
						<Node score="-0.002886405907893839">
							<SimplePredicate field="lat" operator="greaterThan" value="28.674950000000003"/>
							<Node score="0.013993047473821027">
								<SimplePredicate field="since_1_cases" operator="lessOrEqual" value="51.50000000000001"/>
							</Node>
						</Node>
					</Node>
				</TreeModel>
			</Segment>
			<Segment id="86">
				<True/>
				<TreeModel functionName="regression" noTrueChildStrategy="returnLastPrediction">
					<MiningSchema>
						<MiningField name="confirmed_3days"/>
						<MiningField name="since_4_cases"/>
						<MiningField name="lon"/>
						<MiningField name="population"/>
					</MiningSchema>
					<Node score="-0.011302820991760016">
						<True/>
						<Node score="0.024416638296010793">
							<SimplePredicate field="confirmed_3days" operator="greaterThan" value="3.1666666666666674"/>
							<Node score="0.007587374914261433">
								<SimplePredicate field="lon" operator="greaterThan" value="101.02915000000002"/>
							</Node>
						</Node>
						<Node score="-0.0031775523683901627">
							<SimplePredicate field="population" operator="greaterThan" value="817845.0000000001"/>
							<Node score="0.012468950694546127">
								<SimplePredicate field="since_4_cases" operator="lessOrEqual" value="44.50000000000001"/>
							</Node>
						</Node>
					</Node>
				</TreeModel>
			</Segment>
			<Segment id="87">
				<True/>
				<TreeModel functionName="regression" noTrueChildStrategy="returnLastPrediction">
					<MiningSchema>
						<MiningField name="confirmed_3days"/>
						<MiningField name="since_64_cases"/>
						<MiningField name="population"/>
					</MiningSchema>
					<Node score="-0.011876202900854413">
						<True/>
						<Node score="0.010876100497576653">
							<SimplePredicate field="confirmed_3days" operator="greaterThan" value="1.0000000180025095E-35"/>
							<Node score="0.024866084094133593">
								<SimplePredicate field="confirmed_3days" operator="greaterThan" value="13.16666666666667"/>
							</Node>
							<Node score="-0.0070274916662934304">
								<SimplePredicate field="since_64_cases" operator="greaterThan" value="28.500000000000004"/>
							</Node>
						</Node>
						<Node score="-0.003459027553429431">
							<SimplePredicate field="population" operator="greaterThan" value="973662.0000000001"/>
						</Node>
					</Node>
				</TreeModel>
			</Segment>
			<Segment id="88">
				<True/>
				<TreeModel functionName="regression" noTrueChildStrategy="returnLastPrediction">
					<MiningSchema>
						<MiningField name="confirmed_24_ago"/>
						<MiningField name="lat"/>
						<MiningField name="lon"/>
						<MiningField name="population"/>
					</MiningSchema>
					<Node score="-0.009683790092561985">
						<True/>
						<Node score="-0.006857178426227436">
							<SimplePredicate field="confirmed_24_ago" operator="greaterThan" value="1.5000000000000002"/>
							<Node score="7.954983217940133E-4">
								<SimplePredicate field="lon" operator="greaterThan" value="79.50000000000001"/>
							</Node>
							<Node score="0.02203061009599506">
								<SimplePredicate field="population" operator="greaterThan" value="598550.5000000001"/>
							</Node>
						</Node>
						<Node score="-0.0013537642914217528">
							<SimplePredicate field="lat" operator="greaterThan" value="29.341600000000003"/>
						</Node>
					</Node>
				</TreeModel>
			</Segment>
			<Segment id="89">
				<True/>
				<TreeModel functionName="regression" noTrueChildStrategy="returnLastPrediction">
					<MiningSchema>
						<MiningField name="confirmed_3days"/>
						<MiningField name="fatalities_3days"/>
						<MiningField name="since_1_cases"/>
						<MiningField name="lon"/>
					</MiningSchema>
					<Node score="-0.021719877576804783">
						<True/>
						<Node score="0.019115677221281713">
							<SimplePredicate field="confirmed_3days" operator="greaterThan" value="3.5000000000000004"/>
						</Node>
						<Node score="0.010302785342833583">
							<SimplePredicate field="since_1_cases" operator="lessOrEqual" value="70.50000000000001"/>
							<Node score="-0.004708505422891395">
								<SimplePredicate field="lon" operator="greaterThan" value="72.50930000000001"/>
							</Node>
						</Node>
						<Node score="-0.005254565841122133">
							<SimplePredicate field="fatalities_3days" operator="lessOrEqual" value="7.166666666666667"/>
						</Node>
					</Node>
				</TreeModel>
			</Segment>
			<Segment id="90">
				<True/>
				<TreeModel functionName="regression" noTrueChildStrategy="returnLastPrediction">
					<MiningSchema>
						<MiningField name="confirmed_3days"/>
						<MiningField name="since_4_cases"/>
						<MiningField name="population"/>
					</MiningSchema>
					<Node score="-0.010860337655144955">
						<True/>
						<Node score="0.016248404956939497">
							<SimplePredicate field="confirmed_3days" operator="greaterThan" value="3.5000000000000004"/>
							<Node score="0.040738299089835756">
								<SimplePredicate field="confirmed_3days" operator="greaterThan" value="180.50000000000003"/>
							</Node>
						</Node>
						<Node score="-0.0029911165186675506">
							<SimplePredicate field="population" operator="greaterThan" value="817845.0000000001"/>
							<Node score="0.01193974116667353">
								<SimplePredicate field="since_4_cases" operator="lessOrEqual" value="44.50000000000001"/>
							</Node>
						</Node>
					</Node>
				</TreeModel>
			</Segment>
			<Segment id="91">
				<True/>
				<TreeModel functionName="regression" noTrueChildStrategy="returnLastPrediction">
					<MiningSchema>
						<MiningField name="confirmed_3days"/>
						<MiningField name="fatalities_3days"/>
						<MiningField name="since_1_cases"/>
						<MiningField name="since_64_cases"/>
					</MiningSchema>
					<Node score="-0.02139592497162627">
						<True/>
						<Node score="0.02014045816743865">
							<SimplePredicate field="confirmed_3days" operator="greaterThan" value="5.166666666666667"/>
						</Node>
						<Node score="0.007235278236687818">
							<SimplePredicate field="since_1_cases" operator="lessOrEqual" value="72.50000000000001"/>
							<Node score="-0.012556056749989308">
								<SimplePredicate field="since_64_cases" operator="greaterThan" value="26.500000000000004"/>
							</Node>
						</Node>
						<Node score="-0.005118086791334012">
							<SimplePredicate field="fatalities_3days" operator="lessOrEqual" value="7.166666666666667"/>
						</Node>
					</Node>
				</TreeModel>
			</Segment>
			<Segment id="92">
				<True/>
				<TreeModel functionName="regression" noTrueChildStrategy="returnLastPrediction">
					<MiningSchema>
						<MiningField name="confirmed_3days"/>
						<MiningField name="lon"/>
						<MiningField name="population"/>
					</MiningSchema>
					<Node score="-0.01136020075148187">
						<True/>
						<Node score="0.02164786172306029">
							<SimplePredicate field="confirmed_3days" operator="greaterThan" value="1.0000000180025095E-35"/>
							<Node score="0.025628621535196298">
								<SimplePredicate field="confirmed_3days" operator="greaterThan" value="20.83333333333334"/>
							</Node>
							<Node score="0.004862560139482567">
								<SimplePredicate field="lon" operator="greaterThan" value="-70.09924999999998"/>
							</Node>
						</Node>
						<Node score="-0.00318445394771962">
							<SimplePredicate field="population" operator="greaterThan" value="973662.0000000001"/>
						</Node>
					</Node>
				</TreeModel>
			</Segment>
			<Segment id="93">
				<True/>
				<TreeModel functionName="regression" noTrueChildStrategy="returnLastPrediction">
					<MiningSchema>
						<MiningField name="confirmed_3days"/>
						<MiningField name="since_1_cases"/>
						<MiningField name="lat"/>
						<MiningField name="lon"/>
					</MiningSchema>
					<Node score="-0.006044148356858484">
						<True/>
						<Node score="0.01965129910633561">
							<SimplePredicate field="confirmed_3days" operator="greaterThan" value="5.166666666666667"/>
						</Node>
						<Node score="-7.86923618514241E-4">
							<SimplePredicate field="since_1_cases" operator="lessOrEqual" value="73.50000000000001"/>
							<Node score="-0.004319530259403791">
								<SimplePredicate field="lon" operator="greaterThan" value="72.50930000000001"/>
							</Node>
							<Node score="0.017589656897257003">
								<SimplePredicate field="lat" operator="greaterThan" value="21.958100000000005"/>
							</Node>
						</Node>
					</Node>
				</TreeModel>
			</Segment>
			<Segment id="94">
				<True/>
				<TreeModel functionName="regression" noTrueChildStrategy="returnLastPrediction">
					<MiningSchema>
						<MiningField name="confirmed_3days"/>
						<MiningField name="since_1_cases"/>
						<MiningField name="lat"/>
						<MiningField name="lon"/>
					</MiningSchema>
					<Node score="-0.005965575294042939">
						<True/>
						<Node score="0.019395843196402435">
							<SimplePredicate field="confirmed_3days" operator="greaterThan" value="5.166666666666667"/>
						</Node>
						<Node score="-7.766948587940805E-4">
							<SimplePredicate field="since_1_cases" operator="lessOrEqual" value="73.50000000000001"/>
							<Node score="-0.0042633798733660985">
								<SimplePredicate field="lon" operator="greaterThan" value="72.50930000000001"/>
							</Node>
							<Node score="0.01736101028277202">
								<SimplePredicate field="lat" operator="greaterThan" value="21.958100000000005"/>
							</Node>
						</Node>
					</Node>
				</TreeModel>
			</Segment>
			<Segment id="95">
				<True/>
				<TreeModel functionName="regression" noTrueChildStrategy="returnLastPrediction">
					<MiningSchema>
						<MiningField name="confirmed_24_ago"/>
						<MiningField name="fatalities_3days"/>
						<MiningField name="lon"/>
						<MiningField name="population"/>
					</MiningSchema>
					<Node score="-0.01997054907432309">
						<True/>
						<Node score="0.002059824404749155">
							<SimplePredicate field="confirmed_24_ago" operator="greaterThan" value="1.5000000000000002"/>
							<Node score="4.741298629942541E-4">
								<SimplePredicate field="lon" operator="greaterThan" value="79.50000000000001"/>
							</Node>
							<Node score="0.0230458326271986">
								<SimplePredicate field="population" operator="greaterThan" value="2966940.0000000005"/>
							</Node>
						</Node>
						<Node score="-0.004361141083837499">
							<SimplePredicate field="fatalities_3days" operator="lessOrEqual" value="0.5000000000000001"/>
						</Node>
					</Node>
				</TreeModel>
			</Segment>
			<Segment id="96">
				<True/>
